{"chain":["s1","sr1","s2","sr2","s3","sr3","s4","ss"],"name":"S","inputSize":2,"nodes":[{"name":"input","kind":"input"},{"kind":"dense","name":"s1","dense":{"w":[0.36782485,-1.3871092,0.09531173,-1.5016983,1.4160703,0.9882747,-0.28910762,1.536485,1.7145442,-0.4731076,-0.19655173,1.089297,1.7045665,1.6292384,-1.0199119,-1.1558559,-1.5379127,-1.5979646,-1.0885851,1.1058638,-0.0533715,-1.5587611,-1.3119293,-1.4808253,0.89368236,-1.5678475,1.0985261,-0.088792466,0.6923108,-0.6385769,-0.74675816,0.36438844,-0.010618366,-0.033479966,1.2829292,0.11005245,0.93134636,0.13869703,0.9958565,-0.060586013,-1.0078652,0.603235,0.47253123,-0.8112464,1.1826247,-0.33876574,-0.4027141,0.15785332,1.6985254,0.08867502,1.5185347,0.22677499,-0.988601,-0.6914671,1.5240253,1.7206665,1.1876142,1.269136,-0.8844484,0.1959136,-1.3020186,-1.3143748,-0.21628597,0.4445506,0.7646389,-0.3813399,-1.0198194,0.5455375,1.3865403,-1.2397717,-1.1379876,-0.26301962,-0.052588474,1.6725552,-0.6551427,-1.6932032,-1.5548608,0.8623796,0.23080707,-0.6811302,-0.12181631,1.327985,-0.6983084,-1.7136921,0.27737564,1.6299902,-1.5324596,-1.0031362,1.4865534,0.64922655,1.6171192,-0.43623272,-1.4429668,1.1383518,0.76352894,1.5325794,1.3471831,-1.2897397,0.27436087,-1.4691797,-1.5870866,0.75091577,-0.6810881,1.6231412,-0.7697911,-0.56775224,1.4748464,-1.3481315,-0.19968754,0.07139263,-0.71165615,0.2840728,0.40133962,0.9989089,0.28664967,0.7320092,0.7085699,-0.6415201,1.6970636,-0.36668718,0.29102248,-1.2247308,0.64278233,1.4347506,0.5423545,1.3024541,0.37674284,0.053533293,-0.2920127,0.37223843,-1.3528531,0.6360947,1.6172129,-0.7699807,1.5579967,1.1026146,1.183228,-1.5700203,1.2903061,0.76001877,0.3732752,-0.90716064,-0.05078693,-1.486416,-1.4472427,0.265423,1.182263,1.4803152,-1.4621934,-0.17249918,1.6712718,-0.6076073,1.2098668,0.53207725,0.23581736,-1.6260669,-1.1769035,1.2166221,-0.10099037,1.0740569,-0.5618644,-0.18325236,-0.33555362,1.5917547,-0.5130546,0.36997694,-1.5675074,1.3790716,-0.16061772,0.91477025,-1.3885418,0.31735083,0.8341384,0.40798506,-1.6721147,-0.14139359,0.66961986,-0.012808248,-1.1292843,-0.7025037,-1.1191392,-0.31370354,1.1980159,1.6323158,-0.8073186,-0.34391558,1.3525237,-0.11335602,0.40032384,-1.0968534,0.87791413,-1.1594108,1.6060388,-1.5731107,-1.0794448,1.2790064,0.3112385,-1.7036955,-0.5583427,-0.339851,-0.76448417,-0.69101846,0.101847,1.3864557,1.5040131,-0.48883793,-1.1316615,-0.29789785,-1.2302141,1.1311232,-1.2302121,-1.1152313,1.3191285,0.30898076,1.5925715,1.5208961,-0.6283732,0.09400388,-0.22318594,1.3019215,-1.2309916,-0.48644564,-0.2038831,-1.3527713,1.3541079,-0.39259654,-1.2194961,-0.9244652,1.6949962,0.25444153,0.63200176,-0.14846897,0.67069685,0.009550166,1.4610426,0.19110173,-1.52667,-1.4773434,-1.5655687,-1.2940514,-1.177431,-1.1024774,-0.48559627,1.1123149,1.3369297,-1.7213745,-0.21526343,0.13009539,0.14502703,-1.428197,-0.72515225,0.94987315,-1.5983772,-0.65939575,-0.23786072,1.1461413],"b":[0.013416853,-0.025201643,-0.04364961,-0.15994783,0.17364907,0.053807124,-0.08196919,0.009067235,0.0035635303,-0.122161195,-0.006930959,0.0011707556,0.018278034,-0.0014055874,0.033822265,-0.02999926,-0.008840299,-0.020176671,0.02977922,-0.046545915,0.008389864,-0.0059458236,0.08397985,-0.006240485,0.013682456,-0.034425057,-0.0008926314,-0.13796474,0.004208007,0.014257997,-0.0072506997,-0.054044,-0.015076474,0.021644494,0.088991605,0.006614449,0.041260388,-0.0014354753,0.01900934,-0.003272748,-0.049998436,0.0026357758,0.08123669,-0.0077890214,0.08986053,0.031211631,0.036471587,0.025956381,0.02574964,0.017489253,0.004466804,0.0067169485,-0.000287838,0.1812552,-0.0157549,-0.00027394132,-0.035623938,-0.027881758,-0.060791124,0.05254061,0.016991809,0.036769237,-0.032174747,0.0019906713,-0.0032115537,-0.008405848,0.113515034,0.009750452,0.019304426,0.06797961,-0.012139418,0.0021983646,0.022864556,-0.015181698,-0.003484677,-0.05254428,-0.016066158,0.0016384993,0.07517111,-0.027737228,-0.0012655818,-0.024720628,-0.019689564,-0.031032236,-0.10000729,0.013473761,0.09936176,5.913615e-05,0.10188756,0.0042149876,-0.0031208252,-0.02254538,-0.00591851,0.11029029,-0.002346938,-0.05425938,0.0448749,-0.13043968,-0.011459529,-0.0030876452,-0.009429169,-0.018361121,0.12151843,-0.0071994388,-0.069674835,-0.007982917,0.04348405,0.010654483,0.018840918,0.0041892906,-0.005892344,-0.0066000996,0.08531776,-0.0031898122,0.09911097,0.021193156,0.013305949,0.051117223,-0.0020093434,0.0030354308,0.003014959,0.05731817,0.023481837,-0.021328688,0.007066311,-0.045487218,-0.0062509202,-0.0405743],"inSize":2,"outSize":128}},{"kind":"relu","name":"sr1"},{"kind":"dense","name":"s2","dense":{"inSize":128,"w":[-0.2041123,-0.072858684,-0.05609072,-0.20800315,0.0601779,0.02012514,-0.016666928,0.0033455137,-0.07067423,0.023349503,-0.12037447,0.11159879,0.07802557,0.044312473,-0.15641694,0.018123504,-0.13407345,-0.07189348,-0.09649017,-0.20854907,0.18040264,0.20257184,-0.09094405,0.08501917,0.040441733,-0.046881,-0.123366304,0.10250448,0.12342525,-0.050436772,0.049701847,-0.025672687,0.11810492,0.027356954,0.16371964,0.21374442,-0.078009985,0.16291991,0.0059676366,0.08000646,-0.121321745,-0.006082476,-0.0591601,0.103091,0.03057533,-0.06344704,-0.20322381,0.14915158,0.15086655,0.02802266,-0.1934847,-0.034839857,-0.1754564,0.021648394,0.035375677,-0.18371664,0.13484095,0.16573589,-0.048624206,0.054537553,-0.024433801,0.03529226,-0.14482337,0.12593666,0.12375587,-0.03679403,-0.19282845,-0.016458722,0.091067925,0.14780061,0.17907716,-0.1438214,0.012172437,0.014345087,-0.18980046,0.0074721538,0.011485671,0.13115408,-0.09895911,0.08732476,-0.2102619,0.13256785,0.15720403,0.061489128,-0.102018446,0.112094745,-0.053389013,0.14307389,-0.07664052,-0.0005993111,0.20989324,-0.075898595,0.21612754,0.06643597,-0.061074045,0.21585809,-0.1207505,-0.15013477,0.006752196,-0.045857072,0.09855221,0.037664495,-0.20169525,-0.038676955,0.11337031,-0.058845196,0.21618971,-0.146348,-0.0011209999,0.21160558,0.021129854,0.21104605,0.16247293,-0.16394594,-0.1369965,-0.1012442,-0.101485275,-0.18444635,0.0918019,0.12631704,-0.17999323,-0.15622206,0.08118317,0.12444607,-0.030069709,-0.15193807,0.0051284386,-0.112492315,0.20784117,0.01875974,0.10323293,-0.26624903,-0.047633175,-0.0820538,0.03743589,-0.04900682,-0.16483375,0.11155001,0.014707401,-0.018342111,-0.19380112,0.04911957,0.17193845,0.16583428,-0.119636305,0.026859837,-0.17604859,0.019088354,-0.08416432,0.06651233,-0.027760126,-0.006544119,0.22259751,0.062030327,-0.12894192,-0.20256852,0.06281152,-0.020509882,0.17023255,-0.015112566,0.18072769,-0.07382382,0.2616816,0.0613742,0.069134034,-0.04107736,0.17575362,0.09166321,-0.16765298,0.015981259,0.14417227,-0.02054639,-0.14029093,0.0023791082,0.09290894,0.05425052,-0.023221545,-0.20170395,-0.001443129,-0.11388092,-0.058832627,-0.04995748,0.20634778,-0.11359586,-0.12770426,-0.124023035,-0.00071952265,0.15608643,-0.096602015,-0.19635448,0.10336186,0.09176595,0.026586905,0.068936065,-0.040043727,-0.05163665,0.044734254,-0.07019891,0.02233457,-0.12789126,-0.068608634,-0.037325986,-0.20615996,0.16132754,0.20194474,-0.0072255875,-0.23241849,-0.120702796,-0.11591565,-0.10125997,0.20382954,-0.09527951,-0.20907085,-0.049288996,0.040754862,-0.014070783,0.19027488,-0.083834395,0.02970867,0.0664435,-0.14900011,0.07762588,-0.051662885,-0.18310258,-0.13611914,-0.057139684,0.08398717,0.010172918,-0.045207486,0.11642548,0.24827819,-0.02371134,-0.12786435,0.03662006,-0.08145487,-0.09750384,-0.0054888176,-0.17138004,0.1398788,0.20459023,0.015058591,-0.2051903,0.20742913,0.018469933,0.08853464,0.1647176,0.016576428,-0.14886573,-0.16587125,0.1766854,-0.06888343,0.14911503,-0.14003253,0.08611394,0.013379035,-0.2408166,0.1516689,-0.08621647,0.0011900794,0.13327782,0.15612724,-0.18938197,0.06935074,0.17612122,0.08908928,0.11846695,0.09415687,0.015603742,-0.16838624,0.12230903,-0.13728133,0.1566065,-0.00092163385,0.07284512,0.10093331,0.02557598,-0.08981992,0.17926835,-0.09767924,-0.12779267,0.21978706,-0.11825987,-0.076001406,-0.050455153,0.21245207,-0.10980901,0.13056958,-0.09888978,-0.009512486,0.17112814,0.021359187,-0.07403104,0.056546364,-0.15070604,-0.14032024,0.1307884,0.15497752,-0.16451094,0.058802195,-0.19178838,0.14909892,0.012793886,0.035143442,-0.1037433,0.13682666,-0.012641388,-0.03530379,-0.20019391,-0.18872677,0.100586906,0.123549856,0.18648644,0.15123263,-0.13933608,-0.07657523,0.027226375,0.18688463,-0.034024157,0.10246791,-0.19458632,0.044525113,0.044799708,-0.0153683415,0.074770644,0.16264708,0.05786739,0.17128588,0.07008418,0.008018853,0.17057186,0.13375726,0.065455444,0.115152024,-0.10609074,-0.17065737,-0.14335255,-0.16761293,0.15653889,0.025138434,-0.029907152,-0.023046885,0.10382589,-0.13169122,0.085367806,-0.15597206,0.12848602,-0.20545039,0.066259466,-0.19631277,-0.16021864,0.15694538,0.13833573,0.17943783,-0.22499703,0.2059818,0.031696394,0.02977415,-0.16856764,-0.078231074,-0.18774368,0.17269848,0.12061304,-0.068982214,-0.20319296,-0.09339532,0.14258966,-0.042091843,-0.16223834,-0.007982834,-0.17785512,0.09486385,0.10779808,0.15685567,0.19225569,0.104923196,-0.0036358712,0.2066483,-0.07481589,-0.08319437,0.16134156,-0.19137241,-0.10703319,-0.20849447,-0.039824236,-0.16810769,0.20391048,-0.15143181,-0.2122372,0.110225946,0.1158053,-0.15294959,-0.18924844,-0.008682777,0.16022417,0.18295,-0.023723122,0.102180235,-0.08415611,-0.20728593,-0.0048599686,0.056034766,0.19880627,-0.19535112,-0.02954138,0.1924252,0.050265506,0.12874988,0.032838404,-0.107374236,0.17237066,0.11210569,0.058782674,-0.12428679,-0.07961137,0.04686963,-0.124232285,0.19298708,-0.17814608,-0.037881523,0.1493703,0.19124463,-0.09703453,0.0057141804,-0.027124805,0.04291611,0.092440605,-0.094815746,0.03969398,0.22097683,-0.18560866,0.033736117,-0.2124676,-0.16158055,0.20199935,0.07608169,0.08939702,0.15049714,0.12962188,-0.029639378,-0.122618586,0.072126895,0.14663137,0.045433477,0.03798729,0.05727208,-0.15462229,-0.06452495,0.09041523,0.014476631,0.2118328,0.1065838,0.07188616,-0.10704072,0.045296147,0.15164958,-0.1954603,-0.14671136,0.097312436,0.08197284,-0.08044726,0.06684965,0.05407191,0.2072641,-0.17736334,-0.045837894,0.09842542,-0.19945681,-0.0062165963,-0.21706311,0.08074602,-0.16782413,-0.14990222,0.11927877,0.16869849,0.01655103,0.18022004,0.061798196,0.046788856,0.058545653,0.057690818,-0.02737185,0.115930505,0.04534194,0.15310447,0.16736694,-0.19741352,0.14416158,0.016601024,-0.21833748,0.19120245,0.15570554,0.20078233,-0.17463413,-0.19279256,0.033188034,-0.078363426,0.12589656,-0.16478099,0.030662565,0.16658649,0.07239305,0.03450483,-0.14292957,-0.13904543,-0.0026121088,0.033393696,0.019241484,0.15266655,-0.15571694,0.024641242,-0.18935539,-0.113441505,-0.08417988,-0.12386775,-0.103496686,-0.18377824,0.21690969,-0.050304025,-0.16550593,0.0773115,0.04983585,0.082865596,0.19979239,0.047728084,-0.17973025,-0.0050966004,-0.13287725,0.14648215,0.0711512,-0.0046529984,-0.040844135,-0.068431035,-0.05641315,0.09075437,-0.12892355,0.13269502,-0.08853272,0.04821845,0.16885504,0.15039645,-0.20384671,0.106817946,0.07350632,0.1499355,0.13711685,0.17211306,0.04988703,0.06956414,0.07821435,-0.15449633,0.14630893,-0.01984929,0.15590073,0.11133468,-0.033681426,0.06088397,0.16132493,0.09764929,-0.18766792,0.05913039,0.11667414,0.124722324,-0.018782387,-0.1335801,-0.012037131,0.18764144,-0.17995909,0.0063759917,0.031733524,0.12081993,-0.16900262,0.16868906,-0.19706708,0.06729166,0.1309743,-0.03554072,-0.124589086,0.07258879,0.21128063,-0.16361287,-0.04426519,0.046107136,0.103565566,-0.09981015,-0.21091872,0.06910941,0.05100985,0.1200562,-0.08670976,-0.16888872,-0.15696192,0.17347851,-0.2110684,0.08888095,0.20292106,0.17914394,-0.018050877,0.20948185,0.20716003,0.019024774,0.073689945,-0.114092514,0.04199991,-0.017168708,-0.004811084,-0.12782405,-0.02316896,0.107849844,-0.15131669,-0.025426818,0.0113046365,0.04491737,-0.06926977,-0.06085617,-0.04133573,-0.0627291,-0.10387459,-0.07036517,0.1687189,0.05316217,0.04899448,0.1319868,0.057767335,-0.06480167,-0.05786772,-0.05259573,0.09715277,0.16274953,-0.14726295,0.13514185,0.19562857,0.022291336,0.049720272,-0.05702859,0.12848766,-0.19849293,-0.04763088,-0.13574542,-0.21597949,-0.20807832,0.06471071,0.029069085,-0.06427164,-0.08919702,-0.11272982,-0.10158822,0.16869827,-0.18769732,0.1997979,-0.14393662,0.14154398,0.2001801,-0.105467364,-0.14233334,-0.2206206,0.067289025,-0.20582123,-0.0547465,-0.07658059,0.019605681,0.09575134,-0.036052093,0.014284759,-0.016885323,0.062352207,-0.082941875,0.043953694,0.039450236,-0.0044595967,0.17628479,-0.014139939,0.20471399,-0.18929642,-0.11749954,-0.061494783,-0.08838295,0.14898862,0.026634235,0.16386391,0.07493839,-0.04484915,0.12752113,0.2005271,-0.1060502,0.16269402,-0.015655069,-0.022647424,0.027091103,0.07077598,0.008873433,-0.08614754,0.00335818,-0.19090164,0.0071679573,0.12322147,0.03712786,-0.078307495,0.14121598,0.06726298,0.016706632,-0.17096087,0.07927085,-0.09488241,0.12750989,0.15847316,-0.08910536,-0.010263478,-0.19790228,-0.04052251,0.20321749,0.022183608,-0.14794414,-0.14368165,0.063565314,-0.02720513,-0.059081916,-0.19488867,0.1797775,0.08591415,-0.05216845,0.13842471,-0.14837049,0.03735852,0.011578232,0.054854523,0.03681286,-0.16865821,-0.13097867,-0.12505427,-0.04431838,0.12177153,0.22475486,-0.05587259,-0.18258257,-0.081474885,0.15503879,-0.17618565,0.09868019,0.15777366,-0.015394271,0.16745508,0.015450529,-0.14805974,-0.12189054,-0.23398593,-0.18368453,0.2245998,0.044464476,-0.027592547,-0.17015252,-0.10234427,0.00928192,-0.14976569,-0.08903283,0.14942388,-0.12966588,-0.09801602,0.055561442,0.018828519,-0.040605627,0.10736579,0.09688497,0.05276191,0.17599535,0.1258403,0.03560643,0.1113624,-0.057877086,-0.2158044,0.21094686,0.047019895,-0.19170476,0.19719976,0.051968236,-0.12942135,-0.08664905,-0.16672353,-0.099669605,-0.09822227,0.05213334,0.109384924,-0.014565152,-0.18842997,0.101613045,-0.090643935,-0.03180641,-0.15076119,0.0848457,-0.043322984,0.18033947,-0.14860757,-0.2016356,-0.17851464,-0.14651924,0.10315661,-0.02355145,-0.14069146,-0.016229017,0.18206407,0.104467556,0.027116487,-0.12259289,-0.0141384555,-0.0083011445,0.18468155,-0.1025689,-0.08968532,-0.19491401,0.123439185,0.16175145,0.08739605,-0.16229582,-0.15397009,0.0029057444,-0.15048563,-0.18431547,-0.15046526,0.20539656,0.20139568,-0.06171935,0.17074583,-0.0036918393,-0.05757806,0.14382635,-0.0045580985,-0.08151274,0.047751263,-0.14409071,0.119440824,0.10387546,-0.017222311,-0.0001699431,0.16757613,-0.059327345,0.03654307,0.035520803,-0.055226564,-0.19164434,-0.04542889,0.024090057,0.085969865,0.19335844,0.16004722,0.07829521,0.076385505,0.064071015,0.08931254,-0.015397563,-0.17024429,0.08330686,0.12854421,-0.10311554,0.0016415144,-0.07893339,-0.08467294,0.00084771524,-0.083666965,0.003778469,0.034509536,-0.054584887,0.046809446,-0.08702832,0.19019228,-0.115432285,0.028956631,0.21189004,0.022834241,-0.16476747,-0.031506192,0.0191587,0.16842015,0.10382222,0.03290281,0.15002885,-0.21538098,-0.16707687,0.108521156,0.046547916,-0.19352314,0.1793494,-0.045491997,-0.110452406,-0.21197446,0.20114018,0.15519303,0.030006822,0.14636986,0.046453763,-0.08544003,0.034824643,0.13665716,0.045609456,-0.01667924,-0.010042128,-0.08266815,0.018123168,-0.04477614,0.14851895,0.024286494,0.16636728,0.21014415,0.21412167,-0.04134298,0.08957074,0.06228254,-0.047632087,0.10615767,-0.043227144,0.21331154,-0.17268094,-0.101734586,-0.10213375,0.02078873,-0.050479267,-0.16782767,0.014398666,0.12807053,-0.1437873,0.20126224,0.21605492,-0.015365666,-0.21390402,0.13102913,-0.09223146,0.06356894,0.00053482584,-0.14513321,-0.134659,-0.024358544,0.058231417,-0.03557436,-0.20106684,-0.20359805,0.10146541,-0.17087375,-0.13979419,-0.058194876,0.103368245,0.07023357,-0.21646683,-0.21942772,0.020697698,-0.02541775,-0.07848158,0.1141474,-0.08938082,0.06727176,0.11860712,0.14453462,-0.087232575,0.046758834,-0.16057838,0.05884052,0.09558807,-0.18030724,-0.12267626,0.043480713,-0.19003347,0.046846304,0.050032195,0.13981527,0.18750963,0.012787082,0.061405566,0.0136973895,-0.08552253,0.012948066,0.03227334,0.083020784,0.0786317,0.16303489,0.10284083,-0.033860594,-0.16570114,-0.043937746,-0.05618192,-0.088942625,-0.005083051,0.010802956,0.19687213,-0.1473568,-0.044008695,0.20318328,-0.15255176,0.082863264,0.17779127,-0.00041868282,-0.0870963,-0.17335527,-0.048083603,-0.005709116,-0.17446615,0.21350294,0.16199997,0.09835672,-0.17333421,0.05507576,-0.1365082,0.034745958,0.06786737,0.07848277,-0.18939085,0.16121164,0.028560515,0.11292907,-0.13871072,-0.07562188,0.14081419,0.055370323,-0.057790138,0.052057568,0.17072032,0.20556627,0.01183264,-0.1394413,0.075641006,-0.053062834,-0.13738333,-0.021657119,-0.1994175,-0.11561653,-0.16809204,0.19807102,-0.041054636,-0.081727535,-0.03466378,0.12929077,-0.17942366,0.1991124,-0.045496535,0.13240005,0.048056357,-0.0917869,-0.0030967286,-0.14818126,0.020469543,0.15973958,0.042152844,-0.025441006,-0.110808514,0.20590633,-0.14310846,-0.09359072,0.13342477,-0.14422895,-0.21421918,-0.11724659,-0.149148,-0.008209456,-0.034867283,0.0780326,-0.15758377,0.028346578,-0.096029684,-0.10094674,0.16855578,-0.19653143,0.17265561,0.032289118,-0.16535527,0.052658692,0.16062619,-0.0742829,0.029200427,0.17350627,-0.19574966,0.06026585,0.057952132,-0.20123807,-0.049090534,0.12272759,0.07800521,0.04778698,0.08049124,-0.11891473,-0.00728327,-0.08792001,-0.010991607,-0.04265465,-0.12231907,-0.015191768,0.034481652,0.025514118,0.053727172,0.01710423,0.0012472173,0.05494354,-0.2062222,-0.014623254,0.19955266,-0.060392145,0.08510131,-0.07961525,0.15881182,-0.0930486,0.054377973,-0.11450454,0.07978431,0.05701576,0.11357962,-0.17861938,-0.03468401,-0.13552314,-0.19965416,0.040322907,0.16536252,-0.0039036854,0.17045881,-0.022219347,-0.09104029,0.06208508,-0.13624634,-0.0075809592,0.026822412,-0.19423516,0.07849988,-0.15226328,0.088551655,-0.11236502,0.18502623,0.028194137,-0.12229329,-0.06314153,-0.08659617,-0.022010658,0.066006795,-0.072494164,-0.11144476,-0.056322813,-0.030227533,0.13768119,0.01566379,0.1541606,-0.13026427,0.0625865,0.029588424,0.1569134,-0.031023875,-0.08919401,0.07382103,-0.15360978,0.029703457,-0.023091627,0.0068069124,-0.12561947,-0.066281796,0.14534347,0.09308802,-0.023764662,-0.16721572,-0.04992883,-0.13510944,-0.007845405,0.15186639,-0.17767218,0.18282177,0.09137935,-0.10124616,0.010776233,-0.17294666,0.048617356,-0.07404938,0.17947045,0.022572996,0.009321986,-0.042204,-0.034019805,0.18127757,-0.13362883,0.00046328412,0.21050352,-0.022119464,0.10198401,-0.03918444,-0.010489776,-0.16463621,0.15244043,-0.05712415,0.083965935,-0.18864207,-0.18880883,0.07707408,0.11441614,0.14872408,-0.070944056,-0.20761438,-0.18690866,-0.05873779,0.030857636,-0.18986703,-0.20296328,0.093831755,0.13850747,0.14580601,-0.17651835,-0.067483746,0.0843209,0.14591284,0.10260625,0.21662891,0.19013217,0.2091613,0.13437568,-0.08006827,0.022004567,0.081189185,-0.0032083744,0.17522456,-0.18718857,-0.15862012,-0.21082178,0.18002492,0.17821898,-0.06887097,0.09685844,0.06411034,0.055037163,0.20547828,0.100730464,-0.06198027,-0.09046814,0.12743129,-0.08203268,0.010659403,-0.14604178,0.06958217,-0.05873912,0.22478859,0.016024435,-0.15717912,0.11916011,-0.13015713,0.19242953,-0.10796057,-0.07413225,0.005621923,0.114969306,0.029713135,0.19562356,-0.09914672,0.0031894397,0.04567003,0.029032022,-0.026737496,-0.19700378,0.2237537,-0.033303414,0.042292178,0.22653553,0.019309647,0.19048855,0.21266639,-0.16154869,-0.18223393,-0.1677449,0.020944051,0.19304535,0.1588839,-0.03007071,-0.0070133656,0.026955616,-0.17750552,0.06643329,-0.029209115,0.20808391,0.079097085,-0.07542058,0.22228962,0.08057634,-0.13676718,-0.08366185,-0.1661045,0.036284097,0.14009902,0.20639302,0.061336257,-0.06713675,-0.19035952,-0.07069126,0.11758877,-0.13558023,0.021253904,0.18016778,-0.11059072,0.23966151,0.20979466,0.15144835,-0.16847603,-0.06284238,0.11397241,-0.016244361,0.1397817,-0.11327454,0.08500187,0.092886515,-0.1276998,0.14650469,-0.1283364,-0.09792306,0.0127733005,0.08559269,0.17439684,0.17370999,0.18818238,0.1429581,0.16650844,0.09229708,0.18136448,-0.11426212,-0.077395566,-0.109725244,-0.074328735,0.035527486,0.19548169,-0.0037698674,-0.15958482,0.04090922,0.18985838,-0.19053371,0.06992536,-0.009766395,-0.033977922,-0.09190061,-0.18142131,0.033881832,0.23449385,-0.046998624,0.18773003,0.23891431,-0.015018421,0.08366145,0.19235848,0.19386937,0.13686796,-0.1208044,-0.11637307,-0.046378966,0.091050185,-0.042530324,0.01158157,0.093626484,-0.062302925,0.22152741,0.13229291,-0.17124766,0.20680396,0.14867313,-0.09003702,-0.16831067,0.007037458,-0.053218443,0.19590056,0.20713116,-0.11803272,-0.11360873,0.049187828,-0.14539747,-0.016251223,-0.052898217,0.13906631,0.16280162,0.2217948,0.11467999,0.102289245,-0.12994313,-0.1835882,0.17410251,-0.1504646,0.17010613,-0.144531,-0.018690335,0.06262752,-0.16493377,-0.14816374,0.049954355,0.03597419,0.21796654,0.10473527,-0.10898872,0.20102581,-0.20384416,-0.08486989,0.19327539,0.07754996,-0.068398476,0.19300534,-0.14634204,-0.09398664,-0.08557267,-0.009523878,0.117314555,-0.067542255,0.18491672,-0.18325776,-0.040306613,0.0281253,0.13105789,-0.031724155,0.13851465,-0.20488788,0.16734818,-0.124634735,0.023544244,0.10481276,0.07787654,0.050766815,0.04377437,0.09602393,-0.11487325,0.011908737,-0.032915533,0.067382865,-0.11098862,-0.07602876,0.026480256,0.01953454,-0.19182971,-0.20368129,-0.0016827709,0.18195453,-0.21320564,-0.06057484,0.02012561,0.094387345,0.1851572,-0.16777389,0.0394772,0.08704525,-0.06584141,-0.09720538,0.06026177,0.0332803,0.012208448,0.09975897,0.14655006,0.1681933,-0.19565676,-0.09657487,-0.113359906,-0.046710405,-0.0019290603,-0.17417386,-0.15415625,0.1304709,-0.20303789,0.2023383,0.07494771,-0.11218092,-0.04637976,0.04869744,0.115492515,-0.113947615,-0.09601387,-0.1616085,-0.1436515,-0.06937614,-0.049691264,0.09383326,0.051668614,-0.10194149,-0.08912647,0.21381342,0.18265459,-0.06608434,-0.2101734,0.055693135,-0.06213812,-0.022561375,-0.02352918,0.03509541,0.08681241,-0.17135467,0.029236553,-0.20732145,-0.03899235,0.018029215,-0.12274992,-0.21330076,0.19367914,0.12709434,0.074790195,-0.12583338,0.10590187,0.08000486,-0.02018766,-0.16644421,0.19727086,0.15415189,0.20746545,0.21588244,0.049267314,0.120972924,-0.18192288,-0.14218512,0.058366183,0.14802608,0.20089062,-0.0065184385,-0.0940699,-0.14055818,-0.051160615,-0.08572052,0.009362789,0.08019622,0.129059,0.11653483,-0.07204622,-0.118267,-0.051480047,0.16802487,0.18443248,0.19566117,-0.037274115,0.0031728735,0.17801382,0.08873336,-0.044539157,0.03161522,0.15857267,-0.14548087,0.105672084,0.1707591,0.13659725,0.06391528,0.051578615,0.085455626,-0.046282593,-0.0059966207,-0.057835046,-0.16987854,0.0024560958,-0.08896861,0.023444492,-0.017372828,-0.13891143,-0.17666824,-0.07664381,0.14779624,-0.101724334,0.15418875,-0.14855447,-0.07168972,0.07220102,0.112712316,-0.1355358,0.029369837,-0.20744129,-0.13620773,0.03128011,0.01973606,-0.08160082,0.19276395,0.0802533,-0.06996606,-0.11167381,-0.018077074,-0.17510612,0.18331705,0.044297066,0.0354759,0.18808047,-0.13414662,-0.08842028,-0.21373266,0.17873012,0.17578506,0.15755616,-0.086088434,-0.10371028,-0.2111068,0.039905746,0.017553087,0.13617785,0.14884661,-0.033445507,0.046452913,-0.12175254,-0.06498279,0.17214446,0.200029,0.14590341,0.05459472,-0.13559511,0.21572378,0.1714227,0.052026022,0.20683828,0.10218872,-0.050880905,-0.09175731,-0.1243016,-0.11904267,-0.1821694,0.028073773,0.10584986,-0.03296682,0.00320289,0.1389096,-0.030488584,-0.13713734,0.18087626,0.062445067,-0.0808474,-0.21564533,-0.02651249,0.2016499,-0.04469768,-0.08865455,-0.17039868,-0.20520186,-0.09499739,-0.074562356,0.13115795,0.14880344,0.14447848,0.051867966,0.17852254,-0.123603776,-0.21323258,-0.15169795,0.0022452117,-0.13521744,-0.061899267,-0.11665976,0.11303418,-0.111208744,0.12061038,-0.18775232,0.04147053,-0.0991036,0.115885295,0.033211984,-0.01656293,0.09571634,-0.18466465,0.028893553,-0.124127865,-0.06654045,0.02467996,-0.15848294,0.17356654,0.21128324,-0.18245625,-0.08303564,-0.074006304,0.08388613,-0.094086446,-0.18457027,-0.1891055,0.0077951346,-0.101525515,0.008306577,-0.13362335,-0.064555764,-0.17411238,0.17099567,-0.000861575,-0.00602796,0.017609224,-0.1650964,0.114163645,-0.09517642,0.14896528,0.13263105,0.1075377,0.16459438,0.055852152,0.10256112,-0.100551926,-0.19219556,-0.18207604,0.12593678,0.17896707,-0.12539274,0.12626722,0.12424102,0.013353328,-0.061751485,0.20062,0.07144427,-0.17614986,-0.0851637,0.09857919,0.07332483,-0.16066624,0.06337548,0.11709011,-0.08312863,-0.028910993,0.076645605,-0.15949644,-0.10536615,0.19239,0.14915235,-0.113763206,0.022449873,-0.19024521,0.10800422,-0.1589563,0.20961672,-0.15796761,0.14813131,0.16002959,0.1273539,0.15598837,-0.18713172,-0.057593495,0.15924473,0.1632744,0.14239973,0.038692895,0.02924795,0.11385115,0.14465548,-0.12509519,-0.041721404,-0.09911406,0.22734782,0.02240406,-0.05508856,0.061190784,-0.0760205,0.04196154,0.15173523,-0.08656344,-0.18221138,0.14539963,0.117505655,0.1640853,0.17867933,0.19324283,0.20569609,0.06016738,0.16586018,-0.11276792,-0.04957502,-0.097433195,0.044104174,-0.06263163,-0.0026705663,0.11440556,-0.05517143,0.16629681,-0.20971742,0.11673781,0.0327928,-0.06345693,0.23996046,-0.19590949,0.023312783,-0.1559205,-0.17021273,-0.14199916,0.038532835,-0.029889235,0.18874663,-0.1615637,0.18225834,0.08550161,0.17128272,0.03321323,0.20998055,0.0726087,0.0035665983,-0.16671675,-0.038499527,0.1174526,0.12724447,0.16464792,-0.10739623,0.17641738,-0.16250628,0.025115691,0.07005878,-0.07380242,0.053199895,-0.13039547,0.087966464,-0.033798274,-0.08025206,0.16598696,-0.0218202,0.038542252,-0.18611309,-0.0141397845,-0.030074077,-0.18696162,0.20367633,0.098955184,0.08207358,0.0071961978,-0.12516074,0.103468515,-0.14416367,-0.038626585,0.004112806,0.0059502153,0.07438263,-0.14809686,0.07751313,0.017294552,-0.17930554,0.11857496,0.19082913,-0.0025328218,0.20635565,-0.03195121,0.20477206,-0.04509019,0.050307624,0.07112794,0.0803998,0.08692296,-0.062194258,-0.18451038,-0.040938374,-0.11018442,-0.13835031,0.12851939,0.0389359,0.039670777,-0.21012318,-0.16094269,0.08912702,0.0018746005,0.13277893,0.2091746,0.16981997,0.12164168,-0.12087093,0.0034076115,0.17335126,-0.1480949,-0.08645748,-0.0039353524,0.11986753,0.13495459,0.13400534,0.11003685,0.0005635003,0.12218391,-0.20557779,-0.014679811,0.12963317,0.19620521,0.13576478,-0.12884283,-0.060151353,-0.083202615,-0.09471511,0.10507372,0.1101183,-0.04121229,0.17026639,-0.12193965,0.21453223,0.17678279,-0.048756056,-0.15405744,-0.061368056,-0.052658886,-0.07683462,-0.05085276,-0.11260462,0.008738061,-0.12782341,-0.17620605,-0.18629552,0.0053895796,0.17929249,-0.1726765,-0.15482423,0.00982978,-0.16162395,-0.061427806,0.11379939,0.032295823,-0.20699342,0.13777326,0.20230223,-0.18923771,-0.05455638,-0.1549917,0.05516096,0.075545765,-0.2099409,-0.05742798,-0.09469511,-0.15962836,0.20164558,0.17358568,-0.01351167,-0.21197832,0.054555852,0.06430903,0.06887064,-0.10929911,-0.000698794,-0.12370624,0.2027967,-0.082890704,-0.19583699,0.11999335,-0.1525999,0.16518423,-0.12965849,-0.16298349,-0.15426952,0.12958315,-0.20215128,-0.16750829,0.12550524,-0.07145183,-0.084417686,-0.1115745,0.00053209,0.077290855,-0.057640817,0.097426936,0.0859655,-0.21220283,0.12048435,0.07961321,-0.13222739,0.15012722,0.0013170015,0.17211653,-0.008112244,-0.1423294,0.057220004,0.2099242,0.11774121,-0.18429026,-0.0580319,-0.052341834,0.17536841,0.009976379,0.21257961,-0.002053289,-0.2170369,-0.0428145,-0.16011886,0.045686856,0.15548821,-0.1898228,0.09831221,0.005074626,0.13575189,-0.012819796,0.13611786,-0.13435403,-0.13232756,-0.20002115,-0.16031572,0.045925137,0.09596975,0.15798399,-0.19582613,0.12867706,-0.10117346,0.16134526,-0.07610173,0.054082517,-0.04424999,0.08929894,-0.058399774,-0.116703935,0.2038323,-0.14416048,-0.06778296,-0.024914179,-0.014730104,-0.03367217,-0.06612803,0.09390053,-0.21181649,0.172575,-0.19980259,0.14584754,0.02480059,-0.19505107,0.22989352,0.06481285,0.023575041,0.13427137,-0.06424546,-0.007621101,-0.07897461,-0.2167293,0.13816515,0.12081086,-0.015189679,0.08836174,0.00044915976,0.026532881,-0.16848053,-0.1444103,0.088860214,0.05263781,-0.017410567,0.14823708,0.15800636,0.1798984,-0.24184582,0.19735694,-0.13394292,0.16975716,0.070495814,-0.038441457,-0.13945423,-0.078707874,-0.14929353,-0.053296033,0.19736789,0.19965257,0.03289522,0.05530355,-0.14680317,-0.16339888,0.0014007369,-0.17141584,0.22216968,-0.11862043,-0.20992678,-0.23912981,0.14241286,0.016511485,0.03096185,-0.006003199,0.16943999,-0.19559947,0.15381725,-0.11534258,0.14270295,-0.18257183,0.11187039,0.19519792,0.14487135,0.057239994,-0.090959884,-0.18603,0.060932208,-0.23319787,-0.030659782,0.01764543,-0.010094133,-0.1423396,-0.19037697,0.19918078,0.09848778,-0.0696057,0.110663526,-0.1324227,-0.14764556,0.067416646,0.045578483,-0.016786879,0.036615156,-0.11473913,-0.022369243,-0.047334254,0.11653427,-0.0275,0.05697132,-0.12826225,-0.13619259,-0.073722854,0.02793185,0.16898918,-0.026813997,-0.21840897,0.06355578,0.023893062,0.044268157,0.05352757,-0.0829637,-0.20729119,-0.07505113,0.07170432,0.17081259,-0.0956483,0.10056665,-0.11416814,-0.14544897,-0.09670507,0.19233574,-0.059436686,0.051146377,0.20509613,0.19631353,-0.20040397,-0.0064889123,0.046857845,-0.042089902,-0.06522754,0.031017918,0.027488992,0.21028802,0.19116537,0.13461223,-0.059019964,-0.087061025,0.13596873,-0.11742326,-0.19937655,-0.18868603,0.09748443,0.056369025,0.110483654,-0.04777538,-0.16399254,-0.15304244,-0.12532221,-0.1538176,0.16692695,0.054246202,0.05892915,0.009560583,0.02129883,0.16632178,-0.05581612,-0.10289726,0.060222343,0.07176082,-0.13111937,0.04534557,-0.1345139,-0.11145944,0.10343461,-0.11282301,0.19614033,-0.07806285,-0.0020650115,0.18353726,0.055485833,0.09303172,0.017893264,-0.2030135,-0.0136361625,0.03872388,0.0686216,0.17038617,-0.070610605,0.12674367,0.115106694,0.048761476,-0.044622578,-0.19741024,-0.1312708,-0.1482818,-0.13492996,0.15297416,0.1264305,-0.09424981,0.12340177,0.16850638,-0.0460058,0.033678364,0.13487828,0.00742389,-0.22347224,0.17789601,-0.0562311,0.19804893,0.123999596,0.13481009,-0.061149344,-0.11774708,0.12856331,-0.038468633,0.16070561,0.118151866,0.020762399,0.009918617,0.070816785,-0.17138728,-0.12250984,-0.011726642,-0.027770063,-0.13290203,0.09226155,-0.042294186,0.14788465,-0.1762263,0.13292038,-0.17914876,0.14115652,-0.20570497,-0.019274496,-0.06678657,-0.046570443,-0.07438031,-0.034340005,0.10247424,-0.12451669,-0.20607914,-0.17055516,-0.07417764,-0.17104702,0.14287266,-0.17450947,0.160198,0.089716405,-0.008823395,-0.08362321,0.10457956,-0.21152125,0.07858503,-0.111602664,-0.154226,0.05632579,-0.08059993,0.14569953,0.046303656,-0.04367253,0.03956083,0.16703977,-0.0830145,0.17516367,0.13520624,0.18816054,-0.0005051588,-0.07158628,-0.03397193,-0.15511487,-0.07653781,-0.17056532,0.05408464,0.10368202,-0.21777259,-0.020564519,0.04015229,-0.026312727,-0.012751725,0.06377486,0.1770674,0.0397687,-0.14295189,-0.09295032,-0.19387667,0.12818518,0.052285824,-0.075638875,0.07226932,0.17779548,-0.1574807,0.114513725,-0.031054756,0.06966514,-0.10992084,-0.15303752,0.03703582,-0.21945567,0.12002706,0.020137828,0.18484546,-0.06275082,0.03714142,-0.065279916,0.09775569,-0.1411089,0.09643838,-0.15192138,0.08170057,-0.11332459,-0.05355617,0.20209348,0.17271672,-0.09582645,-0.22318363,0.15364732,-0.18233024,-0.21115692,0.18772703,-0.12820092,-0.06521943,-0.039860167,0.14169627,-0.09879445,-0.046007697,0.03199487,0.14051665,0.16401452,-0.16974178,0.19883671,0.12735666,-0.10131243,0.007937165,-0.117878035,-0.19244428,0.07458822,-0.028169334,0.040846504,0.026419,-0.14587454,-0.03985151,0.048010983,0.079372734,0.17482214,0.044113893,0.13813461,0.20946114,0.031895075,0.03654318,0.0044361744,-0.10454694,-0.21928199,-0.14563103,-0.119241275,0.1364456,0.079214804,0.036594097,-0.0954003,0.07501315,0.21515556,0.19106707,-0.06413279,0.0060262345,0.1497993,0.020302411,0.0035625978,-0.17172447,-0.10882118,0.06465234,-0.19570024,0.12744455,0.102065176,-0.1883049,-0.0677734,-0.16680148,-0.0040977336,-0.023234244,-0.02984164,-0.08889416,-0.14549567,-0.16291822,-0.21092372,0.10226639,-0.042675436,-0.16577439,-0.10494925,-0.007915253,0.007610608,-0.13938707,-0.14407271,-0.11125047,0.18904331,0.17191404,-0.046236996,-0.041711196,-0.0016092703,-0.117912136,0.0608386,0.11825903,0.077169694,0.19619079,0.05307998,0.011497775,0.19871885,-0.18828307,-0.054563027,-0.058868136,-0.19957155,0.07638212,-0.023862507,-0.104627445,-0.1759718,0.03365488,-0.17919073,-0.03720468,0.21382728,0.13958202,-0.17796165,-0.18583971,-0.13894463,0.07878667,0.18389712,0.100291,-0.115515314,0.21230873,0.02429672,-0.15061504,0.06785694,0.058315545,-0.03113021,-0.025462408,-0.12768672,-0.08114154,-0.15002997,0.104350396,-0.11293203,-0.12394215,0.11522403,-0.21314523,-0.059014272,0.054419577,-0.1573013,-0.19875081,0.009747835,-0.08700322,-0.091599785,0.19789872,0.15326087,-0.18628956,0.07209957,0.17539252,0.040710308,-0.1378363,0.20069367,-0.1176174,0.13166825,0.12714878,-0.054567967,0.037609395,-0.027067771,0.2106994,0.07803389,-0.11464344,-0.095912024,-0.04258221,-0.107471034,0.07071924,-0.015678952,0.022847714,-0.02438928,-0.011096197,0.17088003,-0.19134845,-0.19765918,-0.09963821,-0.034890186,-0.0117676435,-0.03525471,-0.02488629,0.1509811,-0.11768753,0.14622521,0.06372069,-0.12810035,0.16177055,0.1478774,-0.20049079,-0.10015163,-0.16850765,0.020988312,-0.13145275,-0.074413754,0.039089132,0.11904895,0.015882345,0.08839312,0.2171591,-0.019591626,-0.01333108,0.20384511,0.20281261,0.20922035,0.06535385,-0.026559168,0.13594806,0.10461693,-0.011771524,0.20911983,-0.14573659,-0.009419357,-0.20600146,-0.028893346,0.12182895,-0.22240141,0.1320075,-0.1746989,-0.037253443,0.10068718,-0.030710973,0.12252771,0.11562692,-0.055729065,0.08714346,-0.20936736,-0.072304666,0.18166001,-0.04081738,0.18607098,-0.23007305,-0.13962361,0.19041994,-0.09107864,0.14253254,-0.11510594,-0.11397379,-0.11834807,0.2521872,-0.06767859,0.07167517,-0.18558551,-0.10361293,-0.0151158,0.20587277,0.15386696,-0.1414668,-0.073120296,-0.08683447,0.13684192,0.20026885,0.078469396,-0.06432807,0.16997872,-0.1056561,0.043513913,0.13033043,-0.08627743,-0.12715228,-0.079314545,0.010140932,0.12615855,0.0009391655,-0.22527678,-0.08603866,-0.1380238,0.14869277,-0.061916437,-0.012424184,0.20153445,0.021861847,-0.12317652,-0.02654129,0.05915531,0.20359552,-0.045231868,-0.08625386,0.04598269,-0.07538757,0.13113485,0.06996448,0.16856928,-0.05208861,0.1806546,0.1490587,-0.11190319,0.10024883,0.12797369,-0.11205611,0.013042349,0.18832788,-0.002208439,0.008213094,0.020178877,0.0073318877,-0.16124022,0.16288127,0.015731422,0.023676045,0.08411571,-0.15535028,-0.18479708,-0.1303826,0.19477847,-0.16710475,-0.06756952,0.0065760273,-0.20516689,-0.175714,-0.12848979,-0.019905059,-0.03883166,0.15525304,-0.03087378,-0.06348711,-0.15613212,0.1708026,-0.14251481,-0.084874585,-0.21433342,-0.08843868,0.05620707,-0.15512191,0.13154253,0.020617012,-0.18425876,-0.17313556,-0.04043033,-0.019084292,-0.07180291,0.105020635,0.07179437,-0.0309398,-0.16416445,-0.19910437,0.12511125,0.022104818,0.029817691,0.019726839,-0.1374943,0.07445848,-0.107334405,-0.2156125,-0.16101363,-0.1324108,-0.023703918,0.18784513,-0.05584758,0.13759738,0.011501897,-0.061754268,0.04719528,-0.053024717,-0.08168788,-0.18120404,-0.035851717,0.13282476,0.10176036,0.12351287,0.13677076,-0.13481934,0.20698918,-0.15457745,0.21384858,-0.091168515,0.11729882,-0.12861703,0.10015173,-0.03916717,0.21021451,-0.15739112,-0.085319094,0.0007906607,-0.13644382,0.19334102,-0.021534838,-0.0997222,-0.2112972,0.013110977,-0.12790126,0.030842382,-0.13818221,0.08210191,0.17804661,-0.035507657,0.14013964,0.1613623,-0.14833213,-0.08625353,0.04212975,0.20697337,0.1699049,0.17318305,0.10727962,0.18907364,0.011881891,-0.17351077,0.122301035,-0.109774455,-0.04852177,0.057895888,-0.14488578,-0.20576125,0.037893362,0.21976495,0.12763618,0.13814533,0.11759577,-0.08369068,0.19500671,0.18989398,-0.017997287,0.17094946,0.023723388,0.19476788,-0.08891078,-0.03467808,0.030807642,0.13601343,0.12440234,-0.16581406,-0.11735567,-0.078036584,0.082457885,-0.034028642,0.015203203,0.20822448,-0.021198612,-0.13501774,-0.101539515,0.19217078,-0.15633108,-0.11458555,-0.08036172,0.20439002,0.028974699,0.050579913,-0.016637197,0.10365022,-0.05157806,-0.16577771,0.08726202,0.029020537,-0.011539858,-0.13663287,0.19908899,-0.00056517794,0.17424382,-0.17648304,-0.0014077055,-0.14894235,-0.17867106,0.1676189,-0.04539801,0.10196364,0.1966375,0.085698165,0.15444456,0.001191989,0.11378672,-0.049654294,-0.028175557,0.021070698,0.027943451,0.21562327,0.1910952,0.20562454,0.0008017742,-0.1415414,-0.21394525,0.14169747,-0.069841385,0.037442844,0.115693375,0.012411331,0.0127353445,0.06857868,-0.085805885,-0.0522846,-0.03862927,0.15875491,0.1453736,-0.06615873,-0.11728579,0.0682957,-0.04273205,-0.10956244,-0.029563982,-0.068160795,-0.05991113,0.08152747,-0.19531406,0.21312782,-0.12201202,-0.109522,0.04737096,-0.116014965,0.21315669,-0.13458334,0.024584232,-0.18840231,-0.12084698,-0.18463264,-0.12506132,-0.040880833,-0.10223058,-0.10574973,0.2114477,-0.1729877,-0.16735089,-0.021661945,-0.08929253,-0.010306625,-0.13256504,-0.055807963,0.12443433,0.011505131,0.009294129,-0.17487326,0.11922425,-0.09577022,0.11936786,0.00036657328,-0.18558012,0.09982852,0.11881367,-0.1969949,-0.2124384,0.19128625,-0.028784107,0.18016751,-0.17730851,0.09132762,-0.049609654,0.00506838,0.045670547,0.091693185,-0.101165056,0.18255499,0.053161852,0.19274531,0.17112154,-0.20611274,-0.12543342,0.037928242,0.08132747,-0.027418962,0.021149753,0.14425251,0.111379,0.15254748,0.055704482,-0.11582744,0.09853954,-0.21202327,0.10791899,0.12875596,-0.11692226,0.017324233,-0.11888741,0.19421971,0.18774089,-0.17797244,-0.11051197,-0.04771763,-0.21468407,-0.14234255,-0.04167654,0.10980704,-0.15328903,-0.024092663,-0.074410506,-0.15854599,0.1271233,0.18558902,0.0007741322,0.10329598,-0.19989097,-0.013543196,0.19018598,-0.07340121,-0.050064072,0.07903697,0.06792841,0.20010558,-0.14771195,-0.0076626283,-0.1497306,0.14451092,-0.015267043,-0.006668057,-0.18623681,-0.044726238,-0.14197254,-0.16074733,0.19600375,-0.06658116,0.056277633,0.17784232,-0.18107548,0.14300658,-0.15336145,0.014828371,0.027868707,0.10494684,0.02554453,-0.0068036215,0.15273441,-0.21352726,0.04218729,0.03936434,0.061346505,-0.16335157,0.06411239,0.03381123,-0.037303574,-0.094412535,-0.0507034,-0.14854951,-0.14304796,-0.17145006,0.12138614,0.1536626,0.05656017,0.1930505,0.18105432,0.164941,-0.08037089,0.12029744,0.12178366,0.18176311,0.10367559,-0.18691233,-0.09631591,0.1527221,0.12593928,-0.16992179,-0.13993503,0.013835735,-0.07521081,-0.03615368,-0.15736623,0.19719034,0.14642188,0.21273863,0.17889744,-0.053168934,0.03165177,0.03605705,0.19545026,0.07184238,0.12444896,-0.11515871,0.17850558,0.13965452,0.19509225,0.21399727,0.15748668,-0.059378266,0.039636657,-0.13880502,0.11430464,0.1087163,-0.0013039381,-0.07449284,-0.1162658,0.12955564,-0.12118208,-0.021715552,0.065082364,-0.08514887,0.19341409,0.20123792,-0.12827706,0.069032155,0.14878832,0.17817323,-0.17045683,0.05781457,-0.040937666,-0.18298198,0.06718538,0.12885974,-0.07931168,-0.1804567,0.08065805,-0.08742861,0.1573073,0.21190892,-0.1816167,0.15153633,-0.11727114,0.0395409,-0.095561385,-0.18551645,0.012155696,-0.1368502,-0.09538286,-0.12680812,0.07204204,-0.09529977,0.064360544,0.083335586,0.11233999,-0.00011116419,-0.12230078,-0.013491929,-0.14122984,0.14210634,-0.20013012,0.021509245,0.03750504,0.17149976,-0.006355979,0.1622503,-0.044337504,-0.22599792,-0.1126472,0.03495632,0.07000726,0.14884016,0.19076017,0.10441254,0.016903384,0.17840731,-0.06647719,-0.18410496,0.20463207,-0.14182661,0.21368021,0.09575579,0.012119535,-0.16926093,-0.1589907,-0.16511224,0.09600574,-0.115251355,0.03576967,0.20321006,-0.10574381,-0.18975434,-0.12878773,0.075507656,0.20465764,0.024380982,-0.15590978,-0.07791991,0.04524367,0.13316853,-0.033198293,-0.11359961,0.0231326,0.0780237,0.0017084208,0.16403432,-0.08789607,0.22652802,-0.12361042,-0.101340935,-0.066674486,-0.15009019,-0.011233201,0.15332107,-0.1703932,-0.1415089,-0.18823667,-0.08701999,-0.14642368,-0.18640313,0.15041319,-0.113406315,-0.11823805,0.12145161,0.059457377,0.106927,-0.03260632,0.2132486,-0.2232349,-0.08137349,0.010516273,-0.09536418,-0.015173122,-0.015573753,-0.074935,-0.17963473,0.010108963,-0.08065491,-0.036423173,0.06345697,-0.050018556,-0.12874073,0.035952184,-0.07696909,-0.10314836,-0.055877417,0.17748062,0.04958328,-0.12784213,0.18601474,-0.17080982,0.050853956,-0.1560498,0.019049088,-0.09704588,0.118550315,-0.20178808,-0.091235526,0.025737349,0.12801792,0.13642979,0.07069122,-0.03740454,0.08992384,0.15131192,-0.09560258,0.1747219,0.0663399,-0.12910722,-0.035816733,0.081171714,-0.09444404,0.063863195,0.10600384,-0.053853884,0.13541372,-0.1081495,-0.13790333,-0.059009217,0.041783057,-0.15353231,-0.17795232,0.16557014,0.029882757,0.1758212,0.0048914035,0.20080754,-0.17461027,0.11241316,0.05107525,0.097386464,-0.15146497,-0.16087419,-0.17501558,-0.1313888,-0.087372385,0.2153207,0.07503481,-0.016657881,-0.20666729,0.11159293,0.1334572,-0.16373381,0.102291785,-0.071004175,0.13084571,-0.021380246,-0.13604668,-0.13896917,-0.0711091,-0.018056877,0.06876123,-0.07049086,-0.01424292,0.0011200836,0.11860722,0.13724706,-0.05059607,0.06750941,0.041672852,-0.19505645,-0.14894237,-0.0375172,-0.0875926,-0.09636439,0.17218597,-0.07104532,0.18599813,0.1075527,-0.1503231,0.08407872,-0.15547456,-0.12558061,0.04782162,0.04999855,0.13129126,-0.037210688,0.13494502,0.07204067,0.009891207,-0.08670382,0.050948318,0.21564506,-0.16021423,0.20361029,0.01615604,-0.13800322,-0.028419405,-0.018970937,0.16694506,-0.10663411,-0.012623447,0.1421071,-0.08112581,0.08273032,0.11570496,0.13495815,0.19667993,-0.058738537,-0.05403313,-0.0970893,-0.10549502,-0.16017294,0.013978488,0.043821886,0.020581065,0.1083361,0.11950315,0.1936525,0.17871056,-0.14417398,0.200917,0.21631822,-0.20279814,0.19268228,0.030975481,-0.21556419,-0.12896122,-0.07198375,0.12213536,-0.06468764,-0.07024156,-0.09524753,-0.19673492,0.04607911,-0.009159738,-0.03602645,0.046005424,-0.13594827,0.15049246,-0.0776278,-0.16986342,-0.089553975,-0.07573033,-0.113050066,-0.057219062,-0.10349331,-0.060237546,-0.11237954,-0.1532316,0.07822872,-0.0770204,0.02608494,-0.03072202,-0.009068127,0.04783011,0.12656596,-0.041903142,-0.14321488,-0.07445731,-0.057439595,0.029419988,-0.15130563,-0.01801664,-0.16983858,-0.14066681,0.07756755,0.022499913,-0.14103194,-0.1958999,0.1273932,0.14843252,0.21586525,0.12583785,-0.13861184,0.07452567,0.12193483,0.21012762,-0.14355741,-0.055332445,-0.071723536,0.12322214,-0.058490686,0.15474682,-0.14906804,0.1867559,-0.029572174,-0.066537194,-0.0016445313,-0.13236474,-0.06323836,-0.18825926,0.16507602,0.030419922,-0.08670788,-0.020920807,-0.13083842,0.12913692,-0.14348358,0.03720546,0.004889752,-0.08002269,0.099165544,0.19087897,-0.22451735,-0.16971754,-0.107127525,0.036902197,0.10832133,-0.03098976,-0.027796386,0.009783684,0.12089738,0.08577663,0.13214959,-0.10738064,-0.01065562,-0.09684195,0.0196247,-0.15308504,0.14817204,0.016524903,-0.12748682,0.043448806,-0.042161964,-0.16870657,-0.16610466,-0.18409811,0.08134084,-0.045438897,-0.17322923,-0.034136392,0.096420564,0.063637644,-0.052123845,-0.1263637,0.17034808,-0.16783477,-0.072415054,-0.08701744,-0.15569243,0.11672182,-0.12931485,-0.000645857,0.06805597,0.02229019,-0.17333043,-0.039912008,-0.08198608,-0.19358289,0.12699394,-0.12092444,-0.13859102,-0.15236308,-0.1468041,-0.038177084,0.082757965,0.04123279,0.0166473,0.1212647,-0.12262931,0.18779166,0.15657206,-0.11470638,0.053824406,0.13784257,0.12230527,-0.18207563,-0.12730636,0.19605419,0.13502204,-0.18512079,0.17483225,0.12187323,-0.20034236,0.02186496,-0.030120475,-0.078298844,-0.10677917,0.06679516,-0.0725122,0.14991415,-0.042536557,0.02772185,-0.025318464,-0.134808,-0.19778621,0.09299812,-0.21527934,0.17762126,-0.046359096,0.13791952,-0.17166772,0.12274042,-0.09926417,0.05830402,-0.09662449,-0.112881884,-0.18110181,0.11129264,-0.20183311,0.04871783,0.046241764,-0.15353017,-0.0036446208,0.10879819,-0.18333337,0.12908056,-0.17989196,-0.1865319,-0.102964625,-0.1629122,0.11118001,0.16689079,0.0257102,0.15941767,0.027862564,-0.12880482,0.18833557,-0.021337725,0.09709152,-0.0028461113,0.037446715,-0.11656966,-0.021440588,0.1695988,0.14532958,-0.022833131,-0.08414412,0.14911495,-0.19000809,0.08875252,-0.0448657,0.11249423,0.15217538,0.05846076,-0.031043323,0.05165424,0.056238763,0.11137897,-0.18379655,0.017558895,-0.17204796,-0.16729377,0.11093515,-0.039707646,0.036860168,-0.1368094,0.09634854,-0.0035178699,0.20583567,0.042897824,-0.09536904,-0.20277248,-0.2103868,0.1404638,0.05957357,0.121198475,-0.12342314,0.10561688,0.12117992,-0.10674271,0.05519234,0.13393366,-0.13953398,-0.100030735,0.21613277,0.023406671,0.08119303,-0.08289629,0.097872846,0.15299003,0.0286759,-0.016378751,-0.12468969,-0.050027136,-0.022386096,0.16243976,0.1413214,-0.19836242,-0.05577676,-0.0783504,0.078985564,-0.20755456,0.072805665,-0.0047689886,-0.17946345,0.17617024,-0.1503105,-0.21442495,0.026835859,-0.10113217,0.13061252,-0.12689339,-0.043379612,0.1740344,0.17191699,0.08379863,-0.18553454,-0.09713628,-0.12097144,-0.21035129,0.103797026,-0.15241496,-0.17576358,-0.011882209,0.109820135,0.11137085,-0.086346336,0.12968943,-0.13070858,-0.004796657,0.1427866,0.23595661,-0.107865654,-0.106700175,-0.084864065,-0.065803185,-0.0033026417,0.117261864,-0.09679524,0.10446525,0.046074603,0.036285095,0.0356157,0.061558038,0.17833914,0.03380373,-0.15559119,-0.13667595,-0.1880149,0.22126065,-0.15952016,0.113245934,0.09476731,-0.057891022,-0.110063,-0.08225309,0.1649167,0.17170827,0.100840166,-0.054629937,-0.18876466,-0.016508238,0.01892633,0.16902322,0.0052962936,-0.006540403,-0.049101137,-0.16367812,-0.058702692,0.18261534,-0.052194405,0.21073802,0.11082075,-0.15089674,-0.16604196,-0.15801837,-0.069385506,-0.09214494,0.16159818,0.13868193,0.052335244,0.024642227,-0.10227605,-0.03022718,-0.18530668,0.10504216,0.09374563,-0.063734084,-0.20023249,-0.122108586,0.02726422,-0.0649392,0.12159017,-0.028181054,0.034215126,0.08896742,0.16053438,-0.04488122,0.123846695,-0.14197442,-0.005072606,0.11753649,-0.14985886,0.0021475074,0.09032213,0.20615984,0.18325284,-0.18021907,-0.07518028,-0.015288594,-0.1452918,-0.184402,-0.18528007,0.16495796,0.17101517,-0.17065138,0.20425808,-0.13746348,0.12842447,-0.14643037,-0.19036463,-0.12047173,0.11521159,0.0026686047,-0.22194661,0.19772781,-0.1286082,0.089728124,0.13344163,0.0017676349,-0.05056569,0.023510946,0.11792735,-0.10706646,-0.042676043,-0.0902394,-0.039381642,-0.17185853,0.073953345,-0.094793186,0.062067855,0.014670778,0.097198345,-0.17358638,0.10227095,0.21249907,0.15228236,0.21757339,0.088315874,0.12060386,-0.08839127,-0.12833928,0.10312605,0.10853078,-0.20511355,0.10794812,-0.034919117,-0.20880406,0.108771764,0.014881917,-0.106168844,0.006283468,0.22692269,-0.10655776,-0.20169847,-0.13641821,0.041812766,0.06613179,0.048550513,-0.07586754,-0.037566908,0.13890028,-0.083663575,-0.14250508,0.17537709,-0.09227961,0.21384254,-0.2226443,0.0507092,0.100842044,-0.00083564926,0.07836626,0.1755653,0.20164695,0.18459186,0.0001292027,0.07706131,0.10673462,-0.02933316,-0.080415994,0.17513798,-0.20882842,-0.11353279,0.1383384,0.029035486,0.053133827,0.11676401,-0.0042301263,-0.19469039,0.1336666,0.019906277,0.14149986,0.021477174,-0.036774643,0.13882606,-0.07145247,0.17583458,-0.19113092,0.0808517,0.18941906,0.17208815,-0.09761983,-0.07378224,0.010014192,-0.17077193,-0.099867165,-0.02513287,-0.19163501,0.16733697,0.15622967,0.15018632,0.038809616,0.020716311,0.041397225,-0.16754262,0.15363865,0.011681572,-0.025251402,0.096732795,-0.049869895,0.18445453,-0.03069326,-0.1823005,0.19008341,0.090076745,0.18074922,-0.11330284,0.15477587,0.007621597,-0.03805764,-0.14421879,0.1998408,0.08054882,0.17672728,0.061872013,-0.1526916,-0.10567533,-0.073678955,-0.1651849,-0.13616578,0.05159895,-0.008053266,-0.0647181,-0.108478956,0.043161016,0.20075402,0.0025461726,-0.010917303,-0.16420753,-0.11275358,-0.064852476,-0.21376158,0.06282791,-0.116085574,0.16832866,0.053967167,0.16655937,-0.14910145,-0.19637431,-0.088215075,-0.038519617,0.08457774,0.17192174,0.108366765,0.20232086,-0.20785113,0.059578083,-0.0035158824,-0.047374003,0.0036260379,-0.13644406,-0.089009225,-0.13775742,-0.12781717,0.14631377,0.0020264124,0.025049398,0.16304222,0.13432752,-0.2068097,0.19949129,0.084419996,0.15526602,0.04022398,-0.13474244,-0.04125174,-0.15918058,-0.18117574,0.0645009,0.15541843,0.12935331,0.13159233,0.0055845454,-0.033226747,0.0044303155,-0.18694308,-0.16023958,-0.072761975,-0.16490744,-0.17373608,0.13686037,0.012061818,-0.07475836,-0.013701951,-0.16914606,-0.0340805,0.11219626,0.08868131,0.039624166,-0.0074399305,-0.059409805,0.16084933,-0.034047816,0.052909613,-0.17467327,0.122613594,0.14345852,0.16391107,0.07074792,0.09848273,0.14725192,-0.012304246,-0.11270806,-0.09771431,0.108524844,0.021860136,-0.04162224,-0.038817164,-0.008746591,0.07505714,0.0011329368,-0.20035106,0.20746136,-0.12307166,-0.18247579,-0.1607932,-0.1735617,-0.15040268,0.10862452,-0.18939535,0.16223608,0.012543708,-0.15733048,-0.09460963,-0.039463952,0.13922957,-0.21264544,-0.060291033,-0.09196868,-0.15450561,-0.20374174,-0.14314623,-0.12375228,0.030416008,0.017015165,0.1372141,0.052803718,0.099579945,0.07565811,-0.13169342,0.10260723,-0.15317275,-0.08252987,0.04445969,-0.13521272,0.06401338,0.073153526,0.19444609,0.02337286,-0.18887617,0.15562555,-0.18344982,-0.20862548,-0.2154477,0.20421351,-0.2098482,0.17676717,0.14311725,-0.08055318,0.19547714,-0.15240565,-0.19096461,-0.09892557,-0.079566486,-0.21567386,0.15052432,-0.09330911,-0.15315291,-0.11671981,0.1828443,0.16055763,0.18887527,-0.0895524,0.030012475,0.100968555,0.16721952,-0.043390334,-0.04796838,0.1576027,0.11884511,-0.07860465,0.024791205,-0.08787107,-0.15089856,0.13493684,-0.036761,-0.2120216,0.20476557,-0.07750572,0.15196197,-0.07378023,-0.012477067,-0.05770396,0.106325746,-0.13576992,-0.20719858,0.21282844,0.12446716,-0.2090342,0.031876262,0.080696344,-0.07958607,-0.14495157,0.124611184,-0.16540918,-0.14695396,0.17254283,0.17038107,0.21135533,0.19676979,-0.07679547,0.17152892,-0.050804563,-0.04505166,-0.10655963,0.14030233,-0.0849501,0.082947716,-0.14750604,-0.2026493,0.045806907,0.051151108,-0.16730496,-0.09147251,0.08740166,-0.16227205,-0.082392216,0.04917601,-0.088472694,-0.06345331,-0.18822357,-0.018129453,-0.012874407,0.17612824,0.040650457,0.13693945,-0.06498294,-0.16930826,-0.09592546,0.115167245,-0.02198538,-0.14542249,-0.19292866,0.05893546,-0.06218628,-0.1451463,0.008568643,-0.120328024,-0.14201145,0.099882,-0.10829973,0.08318591,0.17077236,-0.018929236,-0.0036599347,-0.025943872,-0.17465167,-0.11827683,-0.12396849,0.083816186,-0.15931123,0.21491808,-0.15052512,0.015054437,-0.13406819,-0.0900837,0.018362036,0.19155589,-0.14162426,-0.15730198,-0.034088653,0.09529147,0.10757182,0.076363936,-0.11924668,-0.18929751,0.11372893,-0.1639228,0.18433498,-0.10301272,0.12391091,0.19756657,0.022674302,0.11382691,-0.16362314,0.084241256,0.10380732,-0.12475095,0.042049415,0.07710069,0.14932461,0.14117055,-0.008355307,0.12404003,0.107574046,0.07708515,0.0048701107,0.011784598,0.016238358,0.10510424,-0.17954521,-0.10881724,0.040259827,0.04468857,-0.21348983,0.21273738,-0.19763057,-0.037308946,0.12756774,0.089203306,-0.20044546,-0.068493396,0.1923751,-0.047401696,0.16507095,-0.13152416,-0.18330713,-0.06474643,-0.06387043,0.13526875,-0.15368947,0.030853791,0.15062143,0.051571973,-0.100492634,-0.001968844,-0.09529784,-0.1091803,-0.052125443,-0.1658662,0.123302065,-0.145866,0.14196709,0.037839632,0.16340865,0.12155334,-0.012555112,-0.05331163,-0.14971139,0.023655657,-0.1362569,-0.0022176872,0.05373235,-0.14415358,0.036539502,0.13128015,0.123173065,-0.09213853,0.034509297,-0.13844715,0.13489404,0.020443408,0.032842126,0.13524146,0.08289408,0.11103181,-0.18548661,-0.12978595,0.057546295,0.06366465,-0.1102989,0.11624886,-0.11097812,-0.13467915,0.12332805,-0.20673607,-0.2120934,-0.0120077515,0.08021359,-0.1511813,0.09841546,0.03546229,-0.12326588,0.10781731,-0.12496348,-0.21150482,0.10209188,0.014247486,-0.1238111,-0.16422941,0.115540035,-0.063253716,0.095864624,0.19417483,-0.16238073,0.024663614,-0.0035242913,0.14740227,0.114300676,0.12351001,0.20538342,0.077695675,-0.17641187,0.15425788,-0.093647204,0.06371177,-0.005012902,-0.11548655,-0.1481894,0.20205449,0.029281719,0.15968214,0.20700411,-0.06875435,-0.06613037,0.09914215,0.12638329,0.05585167,-0.08339003,-0.100670375,-0.119225115,0.022239948,-0.026589332,-0.2164814,-0.16680536,0.014486188,0.12139983,-0.15859398,0.06746265,-0.0150367515,-0.051589347,0.12618995,-0.15245979,-0.06970239,0.04721757,-0.18069038,0.013113565,0.19763544,-0.012242007,-0.12110979,-0.0939383,-0.06890491,0.081997536,0.116018265,0.004609001,-0.08925938,-0.1152326,0.21874405,-0.08278565,0.09409218,-0.19283947,0.03195893,-0.059186593,0.12562095,-0.094498925,-0.16652541,0.21594493,0.07511768,0.14902596,-0.20382959,0.13231048,-0.18878196,-0.06328375,-0.14843386,-0.1341514,0.04144216,0.101516895,0.1878254,0.21532765,0.04980961,0.07430932,-0.17955273,0.15216368,-0.07043636,0.048861187,0.18538111,-0.0043243957,0.022199532,0.09494418,-0.14798981,-0.14215986,0.0147671765,-0.049274724,-0.041283734,0.14997686,-0.10333674,-0.13467138,-0.021204604,-0.0062009087,0.12363561,-0.0041057942,0.040256474,-0.18591644,-0.16778453,-0.035119258,-0.05831357,-0.07340794,-0.07620096,0.032623947,-0.037102703,0.09039442,-0.18286064,-0.20651893,0.08304004,0.114327855,0.075128034,0.09035663,-0.094933234,-0.046475664,-0.09653106,0.19342542,0.042363714,0.17149378,-0.007335918,0.11171786,0.0419779,-0.050763898,0.15922582,0.07475329,-0.20967786,0.12375877,0.17261022,-0.18330355,0.08978652,-0.19723259,0.23881179,-0.14258657,0.12148041,-0.086638704,0.004330252,0.13976832,-0.06324489,-0.1393907,0.093654774,-0.020859629,-0.23559055,-0.0024400624,0.1901895,-0.12605675,0.02384206,0.10799131,-0.066873066,0.14257398,0.1918501,-0.10417136,-0.08935747,0.15684858,-0.14811786,-0.12703815,-0.02005242,0.09979763,0.027425556,-0.080503464,0.09269628,-0.17086679,0.03535684,-0.18584959,0.14119068,0.04381014,-0.20398195,-0.2088555,0.15747496,0.15177259,0.103658386,-0.08518946,-0.11632984,-0.08504227,-0.04750497,-0.079635136,0.11989198,0.068391345,-0.117048666,0.13855682,-0.03233096,0.10643314,0.1717447,-0.064386524,-0.20382,-0.07656825,0.060517132,0.21414398,-0.075360894,0.050200727,0.0050377804,-0.04842479,0.21392678,0.20269524,-0.011744923,-0.14809315,0.19628812,-0.20907275,0.04165938,-0.05798009,0.061170585,-0.014694237,-0.0749692,0.0382703,0.118407466,0.14159817,0.06274742,-0.18991558,-0.045461796,0.21764787,-0.14925705,0.111321725,-0.14004542,-0.11665657,0.10869991,0.054818198,0.047451492,0.06396816,-0.19409448,0.011503044,-0.09280047,0.10047701,0.035123482,0.04911571,0.19778071,-0.10237143,0.15953256,-0.08728712,0.155389,0.07808633,0.13531804,0.06633495,0.11053515,-0.089642935,0.0752747,0.226405,-0.13969052,0.11127822,-0.123268336,0.16884139,-0.19720536,0.03026067,-0.057335038,0.019625446,-0.19236208,0.07530713,-0.091665514,0.14950381,0.1026176,-0.03341513,0.08898818,-0.1062536,-0.06297065,0.0039243326,0.018155564,-0.14318952,-0.07670645,0.078312136,0.14581303,0.13541687,-0.12049403,-0.13418992,0.13504012,0.015970716,0.10914471,-0.011052182,-0.024849594,-0.18610086,-0.19090562,0.05030406,0.14531909,-0.15848924,0.021586994,0.19196585,-0.05637303,0.13230924,0.10939612,-0.04010296,-0.2256959,0.17850138,-0.20938092,-0.18393137,-0.017825559,0.12194324,-0.047820877,-0.067403995,-0.14076152,0.0014366896,0.18040201,0.03071757,0.04777418,-0.07932867,0.0032206953,0.0032381343,-0.044404987,0.060499847,-0.07585389,0.10904416,-0.10426109,0.13091958,0.17721605,-0.12352155,0.0080186995,0.15635931,-0.101204984,-0.1306862,0.17471178,0.021924753,-0.10495883,0.16007392,-0.068768635,0.08491866,0.028031772,-0.1974606,0.14620028,-0.09909305,-0.1815321,-0.103791475,0.1987823,-0.06441411,0.15860738,0.19759327,0.17595641,0.17406896,-0.09497306,0.023004012,-0.11864919,-0.16206911,-0.21394922,0.036343403,0.04106031,0.20278817,0.20454267,-0.061318964,-0.011921599,0.08961366,-0.05999257,0.119685754,-0.08784959,0.20596537,-0.012554999,0.1876315,0.087630786,-0.20063189,-0.16175519,-0.08240593,-0.1611959,-0.10099929,0.1654646,-0.009197516,-0.14825092,0.030887814,0.22429562,0.20257892,0.051954277,-0.07778756,0.097684324,0.0357502,-0.016483665,-0.07449657,0.06329778,-0.0026954424,0.1726777,-0.15277576,-0.11775052,0.14321505,-0.062142726,0.10214842,0.062800966,0.1608111,-0.07763029,-0.18153346,0.016914334,-0.10907939,-0.029898234,0.028992014,-0.20746672,-0.15185046,0.24139664,0.21585442,0.17087679,-0.06753021,-0.0019248608,-0.20940329,-0.20745407,-0.025387634,0.12326239,-0.026882635,0.13797864,0.19710304,-0.06506481,0.11287869,0.10185857,-0.1948074,-0.07629533,-0.043176,0.13882403,-0.169457,-0.055402096,-0.02995311,-0.05755002,0.0075992895,-0.13621177,0.13951473,-0.14471518,0.037773516,0.12780534,-0.13182764,-0.093581244,0.10595509,0.047346026,-0.059329323,-0.12844774,0.05063809,0.0931958,0.2025441,0.09803795,0.051586606,0.10852035,0.0922445,0.029074749,0.11129091,-0.06463483,0.11373928,0.1646758,-0.21503812,-0.1713029,-0.15000035,0.035603993,-0.051967893,0.0041122525,0.0044707335,0.14889976,0.17302205,-0.10289175,-0.10581498,-0.019789128,0.05928102,0.045367092,0.17550059,0.14264499,-0.15349714,0.11085425,0.08656857,-0.13884683,0.12025607,0.10949871,0.04284211,0.16797966,-0.093846984,0.06546511,0.08120647,-0.16527395,0.13289331,0.102005064,0.16120952,-0.042013668,0.06990367,0.15029855,0.12118232,0.08545324,0.17448363,0.057938013,-0.012153544,0.064110644,0.10995431,-0.09406188,0.17237769,0.1743897,0.047935113,0.111718595,0.1003714,-0.077492595,-0.16267797,0.09094587,-0.14999427,0.16797686,0.033015195,0.06638147,-0.21415178,-0.15886,-0.004354238,0.1386291,-0.19628094,-0.23699117,0.11971257,0.068667695,-0.068264216,0.16940686,-0.070077986,-0.028381718,-0.010828255,-0.010661026,0.090033986,0.1283841,-0.066464484,0.14854978,0.15911575,-0.17909655,0.121910416,-0.094046965,0.21742076,-0.088550255,0.103884324,-0.13684748,-0.19338945,-0.09387585,0.1219787,0.20611542,0.012609679,0.1120734,-0.10923414,-0.17764848,-0.07149645,-0.007883565,0.20021684,0.14288098,-0.20412768,0.16354322,0.09490696,-0.2062271,-0.17560361,0.16531095,-0.20570852,0.18130612,-0.1585566,0.11261548,0.17718138,-0.13407497,0.008753953,-0.23872383,0.16844864,0.026835809,0.1828859,-0.23306616,0.14888757,0.09347642,-0.052100196,0.20210998,0.19082321,-0.1380046,0.18416856,-0.085763544,0.16046074,-0.17529875,-0.032910798,0.16453055,-0.046345755,-0.016796635,-0.19584917,0.06658959,0.14810167,0.124435075,-0.20450899,-0.16580313,-0.11041033,-0.14854208,-0.0011676967,-0.22503598,0.08252264,-0.057426684,-0.212504,0.116297565,0.025557043,0.008831387,0.13109472,0.16658494,-0.15226012,-0.09373378,-0.0695728,0.09061359,-0.17707789,-0.03486546,-0.038652603,0.070892975,-0.0635157,0.06349177,-0.21640857,-0.0923396,-0.08625663,0.024042992,-0.0010754073,0.049706157,0.018161135,-0.0010359057,0.20595562,-0.026138956,0.0074304715,-0.20307533,0.017293606,0.010879739,0.1550709,0.15602233,-0.13122228,-0.12602864,-0.028880265,0.13031119,-0.19083968,-0.11958873,0.046601705,-0.0686125,-0.049667124,-0.18918054,0.11923125,0.054288283,-0.13449584,0.16975231,-0.104692794,0.1874763,0.20024404,-0.1881919,0.082795106,-0.13423541,0.02738168,0.13957258,0.13412386,-0.05026233,-0.04163264,0.19674726,-0.17183374,-0.15439476,-0.06803634,0.05941707,0.13039716,0.1728516,-0.20694688,0.049514934,0.09033395,0.084848344,-0.2063494,-0.15016231,-0.13944921,0.21115208,0.0157148,-0.121928416,-0.01863065,0.07060876,-0.10869862,-0.17060988,-0.058532625,0.06062575,0.0394037,-0.16931748,-0.051840745,-0.2101472,0.12353117,-0.023255426,-0.002835671,-0.13498208,-0.08390751,-0.12098748,-0.0188618,0.13836595,-0.21416518,0.14290555,0.078566715,0.21372019,0.087747715,0.046240762,-0.12780336,0.051124416,0.11706706,0.028271116,-0.061994635,-0.15583682,-0.033455715,0.021346526,0.15176445,-0.051935986,-0.17657539,-0.087492,-0.013849195,-0.052528393,0.018518917,0.08429428,0.13559224,0.039313506,-0.17325908,0.17914039,0.040764716,-0.1398092,-0.12851606,-0.19944954,-0.008483872,0.13224143,0.08038818,-0.13113007,-0.09763287,-0.117428795,0.14600903,-0.031570327,0.06306794,0.22471437,0.011364345,-0.11448416,-0.10809486,0.0452331,-0.0468164,0.07944651,0.12067785,-0.0041170777,-0.03165004,0.13653435,-0.21609908,-0.21053313,0.08416784,0.07301607,0.15798582,-0.17469932,0.08487482,0.11161993,0.12770888,0.025339106,-0.07108193,0.08056882,-0.110166386,-0.061105303,-0.033570275,0.06345678,0.14283413,0.19745266,-0.018519625,0.20398363,0.07691491,-0.013091696,0.03558275,0.093823634,-0.0725374,0.010688646,0.00855117,-0.063095205,0.09483467,0.08790961,0.021113263,0.047244586,0.09196796,0.19951265,-0.012597856,-0.02524088,-0.04327416,0.041961182,0.15610759,0.119575776,0.087055236,-0.10371535,-0.019674612,0.043713767,0.20821518,-0.14609212,0.14359222,-0.058555845,0.0013198402,-0.16925664,-0.014225649,-0.04514211,-0.20954421,-0.19923262,-0.19593827,0.1349125,0.14421315,0.17106925,0.04968736,0.01471037,-0.1673762,0.11497297,-0.08880371,-0.15914802,0.0007031475,-0.14498454,0.029635604,0.07704365,-0.0795465,0.019316142,-0.19370848,-0.14288065,-0.19787042,0.15619336,-0.08033306,0.06850974,-0.12063345,-0.045981202,-0.1874519,-0.13062587,0.17249352,-0.009018095,-0.080984116,0.23244026,-0.066008754,0.1837284,-0.121703304,0.04604213,-0.23716454,0.091617666,0.039737623,0.11562307,-0.039177902,0.1139787,0.13237774,0.07874811,0.2125213,-0.017738994,0.028183926,-0.011069027,0.07916532,-0.033494815,0.08142991,0.04207656,-0.08789482,0.12609342,-0.13957992,0.014044849,0.1946553,0.16052756,-0.02104778,0.19015142,-0.0050910274,0.043517206,-0.17253579,-0.18156083,0.0067486134,-0.15000866,0.19998571,0.20515318,0.17227411,0.17679268,-0.04716492,-0.16975014,0.015669093,-0.10451877,0.08885304,-0.1697739,0.08989026,0.096728094,0.01183521,-0.114377216,0.16916992,0.21901795,0.08708535,0.046983577,-0.15003338,0.03544224,-0.10157561,-0.03603559,-0.028688742,-0.16264236,-0.16882458,0.12301772,-0.04412885,-0.022334732,-0.067700796,-0.10788823,0.091951825,0.1455767,-0.21238716,-0.015918206,-0.15563533,-0.06315331,-0.115467116,-0.1502145,-0.033867933,-0.17521068,0.19726807,0.09493636,-0.13056988,0.13696086,-0.01697904,-0.15865138,0.075959206,0.07635175,0.01453902,0.13608484,-0.1985059,-0.12540339,0.15100072,-0.029928118,-0.15207782,0.14099735,-0.023630492,-0.13784738,0.03804636,-0.03506846,0.16928594,-0.09305443,0.16302438,0.17088445,0.21088482,0.22248465,0.12207792,0.01311952,0.044188045,0.030218916,-0.12044925,0.18674457,-0.113313206,0.076489665,-0.22500022,0.20422515,0.10390336,-0.093069375,-0.08344211,-0.17335002,-0.024006816,0.15442936,0.19865784,-0.047096875,0.17297393,-0.07284242,0.06796152,0.09627851,0.101830825,-0.18739837,-0.04590227,-0.029147012,0.20556323,0.06077807,-0.16071126,-0.15385765,0.12975445,-0.17699558,-0.13545543,-0.00856866,-0.03618091,0.068454616,-0.12997855,0.002743926,-0.12105947,-0.018218309,0.062233347,-0.0615544,-0.010688245,-0.19208457,0.13738331,0.078924716,-0.009241139,0.09815534,0.116330095,0.0060087256,0.05881487,-0.0022947912,0.14904535,-0.21175951,0.106233686,-0.09031211,-0.17807065,-0.018014064,0.19959396,0.111567974,0.0013070481,-0.18945111,-0.010530613,0.08392298,-0.05287481,0.19622876,0.14976846,0.028771732,-0.13418151,0.055797216,0.21468174,-0.023554083,-0.011765665,0.17619714,0.015142473,-0.07649788,-0.16822469,0.013434603,-0.09051838,0.03084437,0.108770914,0.17461327,0.123231135,0.028051233,0.17268798,0.19792229,-0.10188281,-0.16268599,0.17901011,-0.17324354,0.18469533,-0.13677368,-0.11122717,-0.16921082,-0.11926271,0.062617935,-0.16991135,0.10948793,0.12691411,-0.1512864,-0.013506044,-0.038484465,0.06405434,0.030807383,0.031816382,-0.10696454,0.14771317,-0.19756551,-0.18117213,-0.14990662,0.19391456,-0.11758873,-0.19179589,-0.09832226,-0.09837484,0.05667657,-0.14250027,-0.1820647,-0.055145007,-0.16879751,-0.20641717,0.1371776,0.058172908,0.13137805,0.14437269,-0.14704835,0.19330305,-0.11849108,-0.14310926,0.17949827,-0.21233724,0.09566404,-0.18364653,-0.09633744,-0.09667722,-0.011065968,-0.019445097,0.15019181,0.19102222,-0.21566549,0.019030452,-0.022134956,0.107962355,-0.012621266,-0.21203175,0.18217276,0.17654157,0.12994145,-0.028378626,-0.039251655,-0.1671669,0.14368455,0.037715185,-0.2161102,0.0749723,0.102410845,-0.14414035,0.114935346,0.0009392618,-0.15749599,-0.17994636,0.1132545,-0.02378593,-0.18862996,0.152204,-0.11120313,-0.17970136,-0.13652697,0.051555,0.042492922,0.20650156,0.06292388,0.085916646,0.10607779,-0.18854354,0.109972216,0.12822632,-0.1641276,0.15044883,-0.024723023,-0.20793763,-0.18738262,-0.018007541,0.038129404,-0.17086913,0.034081947,-0.05809385,-0.024788188,-0.15839528,0.11898549,0.06507918,-0.10583878,-0.21288413,-0.12460987,0.05933186,0.037143297,-0.12130791,0.13990213,0.13513212,0.059633963,-0.19032995,0.14482827,-0.078062706,-0.0405658,0.20702466,-0.06981182,0.13902134,0.10493432,-0.12255486,0.060438562,-0.07087927,-0.029630411,0.11561063,-0.15901329,-0.16678043,0.12804595,0.108858824,0.0047181365,0.118779734,-0.19243713,-0.13396147,-0.19588363,-0.011790992,0.18049406,0.02622237,0.16298012,-0.20604734,-0.03717392,0.20506729,0.12667042,-0.059519306,0.031041399,0.0074868896,0.18959524,0.10420601,-0.08363529,0.17379232,0.08597436,-0.011628953,0.20613416,0.19022843,-0.13744037,0.15998486,0.03086451,-0.19380833,0.14609303,0.065529026,0.07926515,-0.079476096,0.02450169,0.2056986,0.09297257,-0.12714466,-0.028843202,0.15030162,-0.07057094,-0.106798865,-0.10326368,0.05555749,0.10098593,-0.0636521,0.08310061,0.16797419,-0.024743488,-0.00940864,0.13803929,-0.07076431,-0.061819214,-0.061979767,-0.023554178,-0.0074330703,0.022621125,0.1508169,0.012161314,0.022193557,-0.020892005,0.14102095,-0.22501116,0.11319434,0.110178195,0.20996255,0.0039494038,0.20926112,-0.09070976,-0.019821413,0.117252864,0.09243681,-0.049706552,-0.100647904,-0.19968581,0.17599565,0.052090082,-0.18835808,0.13763815,0.19229203,0.100288376,0.06527945,-0.10969887,-0.16757566,0.14031209,0.19673738,0.17191415,-0.049848482,-0.00909186,-0.045229357,0.14176536,0.1318865,0.028101867,0.15458716,-0.06595166,0.070128255,0.014235436,-0.0069089117,0.17526172,0.11881142,0.058203705,-0.16576156,-0.21712121,-0.13453466,-0.14946344,-0.1888333,0.030184522,0.14530505,-0.008645745,-0.20570986,-0.10474578,0.07442917,0.20449096,0.17401105,-0.17352423,-0.105644636,0.20099482,-0.1502205,-0.12037812,-0.19240579,0.0902307,0.09989824,0.063025,-0.07442426,0.17236818,0.05177554,0.16791157,-0.1191449,0.053173967,0.040518027,0.038666062,0.021331327,0.07465727,0.16119748,0.07143595,0.13280079,0.025329536,0.087122485,0.13088728,0.06401744,-0.09050862,0.18773071,-0.11093454,-0.15581517,0.10489484,-0.11068041,0.1718419,-0.00079478975,-0.11538472,-0.17195426,0.14993037,-0.21262425,0.051954225,-0.0011162007,-0.1188553,-0.15559897,-0.08721052,0.22322096,0.21208395,0.05211444,-0.1277682,-0.103621736,-0.08087305,0.082027234,-0.10946581,0.044779025,-0.15017001,-0.18840499,0.1694283,0.0493358,0.017058188,0.1657243,0.017824892,-0.20032758,-0.10602508,0.11689464,-0.052500725,0.12868501,-0.16970594,-0.1759264,-0.09824454,0.16203335,0.20275465,0.08425572,-0.13928002,-0.111929834,-0.07114053,-0.10250195,0.08039789,0.08711772,0.06790774,0.15372872,0.22086015,-0.01592485,-0.09508386,0.17783138,0.17964403,0.18448372,0.07179117,-0.021082507,0.13517538,0.06644037,-0.21383432,-0.107638046,0.06994532,0.08138294,0.009011423,0.10073584,-0.016331669,-0.18394873,-0.18609041,0.07559897,-0.16601335,0.038979102,-0.18261018,-0.14321569,0.14112744,-0.16567105,-0.11397028,-0.18202017,0.118958786,0.19638132,-0.054517902,0.052294806,-0.045739215,0.027130501,-0.034226168,-0.052113853,-0.017669205,0.12324665,-0.069314174,-0.17214116,-0.0002236399,0.011307559,-0.013529079,0.108959064,-0.17117551,-0.051862378,-0.04517197,-0.05938241,0.10536201,-0.08193805,-0.10188189,-0.18792976,0.19739315,-0.06263625,0.058500662,-0.18811254,-0.17608042,-0.029681997,-0.03013449,-0.058405466,-0.107082814,0.16237116,-0.13402475,0.09046019,-0.101012066,-0.004828299,0.03213588,0.19223523,-0.07146198,-0.19767796,0.15500335,0.06389029,-0.025301352,0.13608074,0.14894699,0.11207431,-0.05820321,-0.11387403,-0.14109895,-0.006862403,0.16526084,0.046004727,-0.028514965,0.1339691,-0.021878086,0.09796777,-0.0074717407,0.18262249,-0.16300121,-0.01902871,-0.009309962,-0.16961266,0.07285997,-0.13631251,-0.07771827,0.16055712,-0.015618454,-0.16446947,-0.07644821,0.111750655,-0.12627262,-0.20880781,-0.03143182,0.12843564,-0.15426528,-0.17086989,-0.070528425,-0.013559521,-0.15902293,-0.16525689,0.16730621,0.004246061,0.10558348,0.17579508,0.19275622,-0.10591376,-0.017886817,0.19300841,-0.18999097,0.10855915,0.1672582,-0.08767198,0.016011352,-0.18485646,0.027303297,0.03889667,-0.15548274,-0.04567994,0.012427771,0.11761699,0.21544942,-0.13259567,-0.07154803,0.058863726,-0.12510583,-0.18414918,-0.07836905,0.029539179,-0.11510376,-0.17957887,-0.11126244,0.21010266,0.18434119,0.21199492,0.21550386,0.017808937,-0.10748368,-0.089157164,0.031352587,0.08902543,-0.09247089,0.053074487,0.12150719,-0.07063672,-0.15564904,0.013735619,0.16832203,-0.052529115,0.19425733,0.08107415,0.197704,0.12854837,-0.18890345,-0.050240956,-0.20158412,-0.16551584,0.15728652,-0.090984315,-0.19429493,-0.18552075,-0.20043959,0.0007361921,0.15011495,0.08270286,-0.16601843,0.014796419,0.05978212,0.07729475,-0.17151578,-0.16046542,-0.07853238,-0.12741908,0.03322416,-0.09956814,0.19869767,0.12652822,-0.1955253,-0.17079173,0.08287044,-0.058563367,0.076064885,-0.021546518,0.16394913,0.10887735,-0.16932017,-0.11740811,0.062719174,0.098896325,-0.055165473,0.04403929,-0.15784104,0.06588151,-0.16170047,0.049295068,-0.050976645,-0.009962567,-0.12481828,0.15133525,-0.0117804995,-0.033455957,-0.15232381,0.08394637,-0.009379158,-0.05542765,0.044687282,0.11728972,0.0028370651,-0.07929595,0.06789915,0.022763757,-0.09223999,0.085039586,-0.008914508,0.0437164,0.00018059819,0.024139067,0.076321214,0.14303805,-0.17631765,-0.09437832,0.12790188,-0.13130128,-0.11221045,0.11372952,-0.029138086,0.1926719,-0.0074764877,-0.21548176,0.10513321,0.12446935,0.102561235,-0.18825398,0.13365296,-0.09541744,0.15010756,-0.18363905,0.19604038,0.086938374,0.08757679,0.098802365,0.1577597,-0.11467283,0.04422614,-0.014862208,-0.008282359,-0.045640606,0.009350524,-0.09968566,0.0363989,-0.20820397,-0.090249896,0.09514499,0.12767191,-0.20583,0.039017875,0.07336106,-0.16955416,0.09193944,-0.15482378,-0.14524671,-0.17593688,-0.034335077,0.14625278,-0.066162415,0.053861625,0.05906261,-0.08132214,-0.16901426,0.088757314,-0.1451716,-0.047048226,-0.15900892,-0.08325404,0.14282186,-0.011462167,-0.15439175,-0.0047465456,0.122228645,0.16956796,-0.1165692,-0.13318859,-0.025556264,-0.041975632,-0.15112787,0.18917929,-0.07024582,-0.10345802,-0.12800638,0.09864729,0.14022958,0.027421443,-0.08166113,-0.05143826,0.03248826,0.06974847,-0.18121913,-0.14091118,-0.08651983,0.05896267,0.11494469,0.19977425,0.2014783,0.20232038,0.18682899,0.058752075,-0.080901764,-0.20693238,0.15893354,0.029726837,-0.20402974,-0.080679,-0.011683436,0.18310222,0.02488832,0.10727074,-0.04070064,0.21362215,0.057706058,-0.12627812,-0.11975263,0.03699743,0.076191455,0.059623096,0.08362329,0.021787534,-0.08730931,0.19063862,-0.18346508,0.062366396,-0.017605163,-0.18201531,0.030110652,0.09846435,-0.13000232,0.18035677,0.040764213,0.024579534,-0.015698519,0.17611389,0.015737839,-0.10098763,0.18786302,-0.021432145,0.07579454,0.16887228,0.1124079,0.19013636,0.10085668,-0.1994034,-0.15026248,-0.17032969,-0.18026116,-0.18474942,-0.07165096,0.00729837,0.03633497,0.19340971,-0.12100554,-0.028414888,0.13367687,-0.18585612,0.086926006,-0.080529764,0.040794373,-0.03243348,0.13601768,0.02814723,-0.006902419,0.15056162,-0.16454358,-0.12487642,-0.11615627,-0.022318607,0.0101811,-0.15812255,0.06643122,-0.13966255,0.12779084,0.10080635,-0.15578085,0.022931466,-0.16871239,0.031375147,-0.123284474,0.0076627056,0.11750972,-0.024111273,0.16583712,0.007752133,-0.033633836,-0.09107844,0.17699996,0.084016025,0.1522369,-0.09641288,0.12369424,-0.033558838,-0.20888175,0.20047888,-0.061009057,-0.06959838,-0.08661693,-0.026497506,0.18568085,0.04100118,-0.13745041,0.009863933,0.15613444,-0.19398087,-0.12387126,-0.20520285,-0.1457891,-0.08013005,-0.14321664,-0.20231418,-0.10373302,-0.17098176,-0.17913878,-0.19845262,0.08875585,-0.14719605,0.034326244,-0.08647064,0.112672724,0.060067017,-0.13322587,0.20018262,-0.17265023,0.13090034,-0.17686181,-0.009416957,-0.082968324,-0.16359311,0.040842526,0.09797862,0.16242103,0.22450751,-0.08213058,-0.20730765,0.15036997,-0.10777373,-0.12661895,0.14057189,-0.015598854,0.17111687,0.22818081,-0.14310241,0.083324365,0.04080173,-0.12531514,0.1311395,0.21962452,-0.055712584,0.12489547,-0.14403945,0.21472213,0.20543306,0.18555683,0.10490088,-0.12017518,-0.10158466,-0.13061629,-0.106326945,0.15251404,-0.17779039,0.17655547,0.08507368,0.11656658,0.013792424,-0.18550168,0.14473242,0.15391256,-0.051774893,0.091216005,-0.16718003,0.0653636,-0.15645489,0.18901935,0.020324035,-0.21558475,0.10255692,0.04044457,0.12508707,-0.17627013,-0.1524154,0.04753617,0.046897467,0.18037817,0.12858264,-0.006127527,0.17854685,-0.16087328,-0.041275125,0.22054379,0.069318905,-0.10253724,0.14428054,0.17713161,0.18517151,-0.121605776,-0.18165587,0.005031214,-0.12790415,-0.106131196,0.14616069,0.16652982,0.14815426,-0.132179,0.20329975,-0.11060365,-0.08647411,-0.03445787,0.14658341,-0.19141841,-0.16867009,0.15983152,-0.06113318,0.11359304,-0.057743087,0.012645527,-0.18316676,0.0989886,-0.09029835,0.13010065,0.20319892,-0.11936108,0.04214666,-0.20687152,0.103143185,0.0525354,0.046954058,0.14495224,0.1874841,-0.029521113,-0.07534655,-0.056658983,0.06646875,0.0049475934,-0.11576184,-0.056632392,0.084634185,-0.06881294,-0.047022525,0.15274855,-0.2131577,-0.20150563,-0.22660041,0.025861058,-0.059981346,0.043388575,-0.06612929,-0.09855801,0.19941992,0.18264863,-0.19987115,0.14978178,-0.14474477,-0.22096623,0.17191456,-0.102781564,-0.15319028,-0.19257692,0.102681465,0.1948434,-0.0030591828,-0.09212523,-0.05934679,0.043726698,0.0032580786,0.0007343079,0.077275,-0.12612705,-0.20125198,0.14482866,-0.04135862,0.035842065,-0.21169887,-0.09741873,0.10189767,-0.1309674,-0.20252018,0.09601861,0.039354835,-0.04146771,-0.055513974,-0.11932063,0.041546166,-0.22411072,-0.09448938,0.10568711,-0.04881727,0.072963424,0.05728535,0.12877882,-0.07495185,0.11217588,0.110253416,0.12346145,-0.023661762,-0.1667332,-0.16707082,-0.045309477,0.07711959,0.20851988,0.088171504,0.029118786,0.18143483,0.0077891015,-0.05647074,-0.03403465,-0.077738866,0.03727761,0.190607,0.18061508,0.016635286,-0.18316835,-0.02993287,-0.0041592508,0.14422852,0.024159912,0.14511923,-0.07967348,-0.20182762,0.14925466,-0.048120353,0.107406095,0.053290278,0.02847611,-0.043561768,-0.032906476,-0.14395484,0.17323075,-0.06996463,-0.17363589,0.0062011406,-0.20095816,0.03882492,0.13480672,0.10899698,-0.05844529,0.20458837,0.12340034,0.06753814,0.21909474,-0.20765999,0.02193788,-0.21530096,-0.025804639,-0.16690119,0.061896298,0.21592219,0.21511409,0.21810895,0.15500712,-0.1721599,0.1565889,-0.14635117,-0.16394177,0.18744834,-0.021963704,-0.030677931,0.09960261,0.1864329,0.19775195,0.18130341,-0.13585581,-0.103258565,-0.20544773,0.08651625,-0.06859118,0.16848782,0.1742712,-0.0485303,0.016615374,-0.11949627,-0.14269297,0.12063407,0.13183838,0.050236467,-0.103835694,0.09295289,-0.17547835,0.19955671,0.2107565,0.19789928,-0.012521366,-0.064232685,0.011758344,0.0936893,-0.17212796,-0.06975176,0.039752282,0.20125906,-0.031191982,-0.06942538,-0.09699184,0.08329494,-0.17478225,0.1404815,0.06798872,0.04541862,-0.016650679,-0.033122513,-0.025200881,-0.021566633,-0.08933909,-0.19503412,0.13278781,0.05706839,0.21407504,-0.018982576,-0.082427636,0.09912472,0.16256149,-0.16871142,-0.087749906,-0.03832364,-0.03905345,0.2125888,-0.012383271,-0.19437651,0.20365946,-0.20985827,-0.07523907,0.17408511,-0.06938365,-0.139096,0.024547152,0.10198254,0.10831064,0.11921143,0.004023994,-0.12343469,0.085714795,-0.0035596958,0.17647812,-0.16534628,-0.05121318,-0.012972045,-0.06908139,-0.0707434,0.1824046,-0.11964495,0.15944459,-0.13818261,-0.094798274,-0.04297694,0.15001631,-0.10690756,-0.16710109,0.20460768,0.16536716,-0.05620792,0.19289437,-0.18427172,0.15608343,0.090483025,0.04636704,0.063297644,-0.16343205,-0.010329186,-0.13838933,-0.11812671,-0.19999088,-0.12408714,0.19694117,0.0815386,-0.16800846,-0.2155602,0.13077658,-0.061294626,-0.060703937,-0.14186126,-0.043961387,-0.07605578,0.0061858823,0.04890944,0.13445814,-0.10391632,0.053212933,0.07235379,-0.12573944,-0.05911252,-0.21594638,-0.1993888,0.1122152,0.18557134,-0.18083094,0.093399204,0.12963009,0.108912066,0.1583984,-0.103973836,0.03053373,0.21618438,-0.10680677,0.003476506,-0.083408885,-0.01302587,0.09603761,0.009368073,-0.095907554,-0.07832537,-0.14087857,-0.21364123,-0.048145354,-0.026809279,0.13774048,-0.18466403,-0.073991925,-0.0064268643,0.02982166,0.17568654,-0.10913902,0.13259059,0.08323692,0.042546824,-0.15675154,0.13321082,-0.046202507,0.02213266,0.16501302,-0.0058507314,-0.10371714,0.15461127,0.19325025,-0.17596774,0.20308903,-0.063298225,-0.016740514,-0.092065774,0.16840617,0.06124534,0.13771445,-0.10566632,0.13994235,0.07366216,0.066864684,-0.16135535,0.011798555,0.19011416,-0.12522796,0.11691395,-0.10384207,0.18698032,-0.05791369,-0.11956121,0.111969516,-0.059978947,0.003990026,0.09654364,0.09306617,0.009169917,-0.16985497,-0.13778041,-0.048462175,-0.12981154,0.01715901,-0.021735497,-0.18030493,0.088061504,-0.15285233,0.21025786,0.1634687,-0.19890875,0.07927779,0.10594023,-0.18801738,0.067223385,0.17472865,0.20918849,-0.11688229,0.077942304,0.16633888,0.13166872,-0.044441957,0.23759572,0.14048155,0.14583525,0.135124,0.17095065,0.19287193,0.061564647,-0.04480937,0.13118902,-0.21133247,0.12758636,-0.18902132,0.17712805,0.06634123,-0.02813018,-0.04034603,0.007976344,0.17105441,-0.15472676,0.032687332,0.03569592,0.054255456,0.023254575,0.17788632,-0.011080408,-0.143947,0.19011457,-0.15848123,0.03042517,0.087489165,-0.055869095,-0.1780682,0.047090743,-0.1404406,-0.024839241,0.14357738,0.059465166,-0.14972737,-0.1079493,-0.060573418,0.20363556,0.1277945,0.19989741,-0.11979988,0.16025391,0.10080868,0.17483366,-0.13925606,-0.005168268,0.17929396,-0.07929484,0.11042303,-0.10243625,-0.049072027,0.13144617,-0.163387,0.13375035,-0.18585305,0.07995763,-0.08124705,0.19936155,-0.13110696,0.043628417,0.16413124,-0.005042479,-0.20607619,-0.033378296,-0.15709662,-0.11038917,-0.14269519,0.16722128,-0.08865869,-0.23087376,-0.053057462,0.21412301,0.11183345,-0.21223058,0.20636776,-0.039597347,0.02550586,0.10493499,-0.017878387,0.2067501,0.21497625,0.12337437,0.09327177,-0.13683666,0.13015455,-0.15701467,0.03910559,0.1545287,0.17545876,-0.1557349,0.04917832,0.037368305,-0.13243419,0.18236142,0.15145037,0.14311689,0.18267383,0.09095036,-0.2176927,-0.17032705,0.06812081,-0.008214203,0.0869797,-0.118573256,-0.08000119,-0.0169067,0.15167664,-0.12547831,0.08755512,-0.18596032,0.17336008,0.08309829,0.207743,-0.2136842,0.11377725,-0.045731433,-0.20579062,-0.19989486,0.16531308,0.057168175,-0.10295911,0.02294378,0.1814407,0.18741427,0.046796463,0.09972203,0.09611247,-0.15477595,-0.020330185,0.101740904,0.1296591,0.1920386,-0.09874639,-0.17741503,-0.08303009,0.12784788,0.17150402,-0.15755592,-0.15268482,-0.012318726,0.0006277494,-0.07071479,0.09551896,0.15278208,0.014133026,0.1775102,-0.01505156,-0.104151286,-0.06057312,0.10359874,0.17295118,-0.16710292,0.15803552,0.067535564,0.061051413,-0.16818048,-0.16277651,0.0980352,0.0015560124,-0.22860432,0.20877008,0.19067337,0.029790385,0.09378344,0.14031573,-0.09579167,0.023304265,0.1198922,-0.062375117,0.017154591,-0.10350086,-0.12195671,-0.1311465,-0.016883489,0.020423148,0.2254679,0.035848763,0.19508184,0.1745435,-0.09523714,-0.18071,-0.021310586,-0.080009796,0.018130163,-0.11872705,-0.14812729,-0.09968104,-0.023598114,-0.17558622,-0.09668753,-0.03247332,0.0107594365,0.0051872893,0.0026256077,-0.19443436,-0.08204805,0.05807336,0.22251493,-0.06444024,0.00782288,-0.10427647,0.05470725,-0.11188412,-0.008142079,0.13796948,-0.03289774,0.17530435,0.21458423,-0.17323929,-0.1646975,-0.19078986,0.1502472,0.033337798,0.19538708,-0.017312298,-0.0845272,-0.19196506,-0.0876298,0.034411203,0.090650156,-0.15774672,-0.16306914,-0.09269723,0.004621026,0.017525831,0.11287609,0.22295588,-0.030835424,0.17931232,-0.14212534,-0.08650088,0.05039324,0.1502241,-0.1942578,0.011470476,-0.0724826,0.03653478,-0.02455415,0.06559409,-0.17300974,-0.033435315,0.0669464,0.040263984,0.12794587,-0.20524198,0.09423271,0.045984514,0.0016943304,-0.15908764,0.09294718,-0.13910443,-0.19409077,-0.2130451,-0.10281659,-0.15820602,0.21211717,-0.15535598,0.12507159,-0.16433711,0.21437463,-0.17828253,0.14004079,-0.13902469,0.18623397,-0.14724328,-0.092153184,0.11288907,0.18925817,0.06315095,-0.1317717,-0.1829438,-0.06131938,0.014424135,0.116845205,0.06410147,-0.11571975,0.19749038,-0.06743163,-0.07919408,0.21106209,-0.172756,0.047897473,0.0031221712,0.09078892,0.16428822,0.05815984,-0.11860878,0.041520778,0.058944535,-0.12350592,-0.16685025,-0.20181064,-0.07036011,-0.025392799,-0.21583112,0.016292667,0.0030307143,0.020296961,0.1115416,0.020119255,-0.1113274,-0.058896273,-0.19542179,-0.13722584,-0.07840317,-0.16223115,0.034405056,-0.11524183,-0.21042152,0.06661359,0.010885882,0.023887116,-0.14364287,-0.11641173,0.1764219,-0.1152311,0.028793644,-0.045623727,-0.21189177,0.001364526,-0.1999801,-0.19915181,0.058382843,0.14435084,0.1301028,-0.16640724,-0.0276059,0.004428483,0.20308863,-0.20312892,-0.13887009,0.00058110245,0.087270126,-0.039510384,-0.15163586,-0.08807874,0.07609342,-0.18275884,-0.098699376,0.062391378,0.13500987,0.19041394,-0.08871626,0.1514039,0.1329782,-0.1945219,-0.21310341,0.12113938,0.0074345237,-0.16478287,-0.16715239,-0.1819752,0.006012158,-0.12835237,0.09874818,0.057690732,0.10030664,-0.08541408,-0.16817345,0.02625326,0.011934344,0.01861799,-3.619792e-05,-0.16812702,-0.034917377,-0.20782082,-0.042377993,0.10655744,-0.019100744,-0.06762424,-0.17837448,0.013887405,0.12700959,-0.19563061,-0.17346062,-0.088469446,-0.053242944,-0.10687284,-0.1566337,-0.023186076,0.0028181726,0.14145158,0.15584898,0.061476894,0.07106135,0.1597691,0.028050922,-0.07231329,0.04574204,-0.1428015,0.10547498,0.051577117,-0.052389253,-0.009570807,0.09507571,0.030977495,-0.022968644,-0.104673155,0.033253588,-0.20913595,-0.053953804,-0.09665439,0.038338073,-0.032345634,-0.045184463,-0.18218723,-0.10790894,-0.2037788,-0.16210172,-0.020049568,-0.14800973,-0.101123475,-0.119240925,-0.08611853,0.02167157,-0.038140953,-0.12338778,0.19178472,-0.19355041,0.0785978,0.20276949,0.1616803,0.18287401,-0.11600118,-0.01958976,0.113630466,0.11254737,0.06613354,-0.1946873,-0.030902196,-0.16238548,0.053710744,-0.056223266,0.18133219,-0.1750264,-0.036980208,-0.15328526,0.15008481,-0.014173441,-0.041565716,0.08951001,-0.20627214,0.012434611,-0.12151448,0.09080054,-0.08869615,0.1301586,-0.02014123,-0.18178406,0.017429562,0.10348235,-0.00922363,-0.115091845,-0.19372515,0.077425115,-0.20376745,0.031657267,0.029364733,-0.07994726,-0.17892507,0.092994094,0.016730098,-0.024093231,0.08532976,-0.12317645,0.042271838,0.0923591,0.14148428,-0.10435592,0.15471847,0.10824579,0.13525052,-0.11268478,0.103665315,-0.079773836,-0.088971205,-0.109944515,-0.0026542172,0.0873564,-0.06547895,-0.032606106,-0.01583777,-0.20261131,0.15554495,0.009600798,0.18762523,-0.029618016,0.114469975,-0.14567243,-0.21406557,0.05322733,0.10371051,-0.06983228,-0.058515143,-0.055038013,0.13240977,-0.17401801,-0.15913281,-0.18648408,-0.21344474,-0.15171847,0.17477207,-0.17844534,0.04192127,0.041510433,-0.20725384,0.105482645,-0.16743861,-0.16843906,-0.09339494,-0.18713842,-0.089007184,-0.19406252,0.023135955,-0.015164412,0.18265295,-0.19338815,-0.013227804,-0.068660274,-0.07185994,0.05702944,-0.087694965,-0.07067823,-0.0069375345,-0.16311951,0.049901716,-0.04130416,-0.0019167605,0.16017745,0.1749561,0.085375935,0.040720038,-0.20363663,0.051240146,0.06716731,-0.17388135,0.041734226,0.18175289,0.17410345,0.015057637,0.19235936,0.095902056,-0.033724356,0.14451714,-0.013190174,0.056447588,0.18868105,0.21326676,0.17278959,0.083168544,-0.09801232,-0.09307603,-0.17345425,0.018620828,0.19192126,-0.12192231,-0.13219003,0.18518806,0.12048985,0.09904172,-0.03240394,0.1746026,0.056008853,0.050668962,0.058490753,-0.16137362,0.018042333,0.08073102,0.21330671,-0.0813066,-0.011506653,0.012694718,0.06514821,-0.036928058,0.021118283,0.19144946,-0.1356404,-0.18044423,-0.13182424,0.03902018,0.1227686,0.10503901,-0.12239296,0.11045775,0.13350745,-0.0056200833,0.00030179127,-0.06733654,0.058964618,0.20143387,0.0838372,0.077424265,0.18111154,-0.15074743,-0.16356802,0.19211048,-0.13664748,0.08883834,-0.13631637,-0.1666523,0.17094177,0.11114991,0.06226535,-0.17620118,0.18937993,-0.033276584,-0.10672957,-0.09819129,0.016445242,0.102351904,0.087017715,0.12067706,-0.18821076,0.040374734,-0.015845565,-0.03182976,0.074352846,-0.05052554,0.14907908,-0.14518902,0.00038030397,-0.14246832,-0.17192155,-0.13619198,0.16950135,0.18430886,0.0994638,0.040805444,0.17002884,-0.0022633055,-0.15890718,0.14744242,0.049181707,-0.044301413,-0.16074975,0.16061896,-0.02800528,0.0135968095,-0.18421982,0.15336122,0.13189784,-0.10053028,-0.1507737,0.11606516,-0.18344212,-0.17381944,0.16531777,0.0014523613,-0.1420153,0.083530575,0.18653347,-0.04378142,0.20409605,-0.21408677,-0.17280358,0.17893173,-0.13995905,-0.20382302,-0.21625926,0.056803633,0.16008937,0.17986402,-0.13637426,0.081470825,0.14980473,-0.15612474,0.10701132,-0.19145072,-0.13711663,0.08963439,0.13659349,-0.12411928,-0.02814811,-0.024328498,-0.17361279,-0.16329896,-0.12049197,0.05025053,0.1436561,-0.13746873,-0.20776907,-0.21478087,-0.2036604,0.18320379,0.10800935,0.014725384,-0.19816968,0.19220378,0.03513171,-0.10291981,-0.20500864,-0.2189373,-0.001025027,0.17488867,-0.17158948,-0.11815704,0.01961523,-0.19559261,0.01773094,0.08019626,0.19505157,-0.11931525,0.15609136,0.09528075,0.127707,-0.1222642,0.008455045,0.026916116,-0.13302258,0.18728694,0.18215248,0.003760117,0.14809822,0.19945164,-0.18177246,-0.15843007,0.13327225,-0.10945223,-0.09519548,-0.18872629,0.13709603,-0.09631315,0.06949109,0.13744397,-0.19764642,0.17813875,-0.06359924,-0.107172,0.13587137,0.16048962,-0.13586064,-0.17852004,0.15000758,-0.13547021,0.14403899,0.08355372,-0.15796742,-0.102925144,-0.09787314,-0.15163074,0.1419049,-0.11282904,-0.18315007,-0.16340701,0.13428822,0.019058548,0.04898566,0.118477836,0.035912335,0.2069083,0.0034707615,-0.07338704,-0.0005565842,-0.13002068,-0.10419484,0.1361033,-0.14660957,-0.004570848,0.007928919,0.1354718,0.17169683,-0.19201514,0.023895504,-0.20105597,-0.12680036,-0.18843904,-0.0074289152,0.14043586,-0.10555628,0.14290242,0.03439868,-0.20743941,0.13539343,-0.115072906,-0.04257913,0.18385872,0.03374624,-0.0043238327,-0.13935566,0.0699877,-0.21308494,0.20445268,-0.1056022,-0.042384133,-0.18576151,0.05330925,-0.16631539,0.12271902,0.04697152,0.21871927,0.101699956,0.012585368,-0.115539216,-0.09693847,0.101048075,0.09113691,0.18167798,0.14131153,0.20763218,-0.07106944,-0.069301054,0.039517418,0.0480721,0.03042377,-0.11645824,-0.14012454,-0.13900878,-0.006162741,0.033921514,0.14281438,0.105853416,0.096809655,0.16688813,0.010218827,-0.096915394,-0.15705678,0.18528505,-0.10486026,0.020711146,0.2328212,-0.15213773,0.13035399,0.10183309,0.01313064,0.14529777,0.1811144,0.2060161,0.1370248,-0.16237167,0.134907,0.22168405,-0.15350685,0.056190763,-0.08711252,-0.07859564,0.018114045,0.08224317,-0.15201794,0.12432635,0.038739603,0.12296636,-0.043553323,0.06297373,-0.111444406,-0.13626383,0.13349532,0.2350434,0.094620354,0.009851654,-0.014287567,0.23962803,0.11835886,0.10194682,-0.11753902,-0.08406004,0.13345397,0.22860838,0.09301017,0.19355044,-0.06471795,-0.116468936,-0.0071428735,0.08939407,0.029049266,0.13710102,0.16064377,-0.18232429,0.17757551,0.14914568,0.07563802,0.08780917,0.014045929,0.23701474,0.08779565,0.122479685,-0.021587934,-0.16957475,0.07295901,0.03145259,0.17326936,-0.025038823,0.1625873,-0.023658704,0.094593555,0.15536325,-0.081517525,-0.080706626,-0.13601047,0.16738103,-0.12582003,-0.18459782,-0.110934876,0.07012516,0.073134765,0.22266372,0.20506328,-0.06549213,-0.032174505,-0.21118222,0.17573056,0.1545522,-0.12906498,-0.02260313,0.098377,0.08318947,-0.11259484,0.1197768,0.17245083,0.0075842473,0.11271108,0.10361747,0.02124194,0.19041644,-0.16533685,0.16276976,0.10420412,-0.040114462,-0.10740728,-0.0872051,-0.18039393,-0.10125958,-0.14415503,-0.104067825,0.15511356,-0.17171238,0.15267482,0.08474535,-0.07081307,-0.115343526,0.19578144,0.01258952,0.07202581,0.110639624,-0.07288415,-0.14696112,-0.040341265,0.0688129,-0.16554497,-0.18935192,0.174752,0.16974664,0.06485493,0.1919688,-0.0057761553,-0.19032842,0.061003495,0.14084041,0.19196273,-0.026022006,0.18131691,0.031194141,-0.19785659,-0.18771212,0.1898813,-0.108602405,0.035835296,-0.1503735,0.19930607,-0.15552701,-0.2036539,-0.034627963,-0.050882503,-0.1930501,0.18506825,-0.20432164,-0.013402522,-0.10196827,-0.1447226,-0.058275048,0.106662475,0.06949832,0.08316491,-0.12720294,-0.119351596,0.13390252,-0.14456862,-0.12438989,0.011024273,-0.016515696,-0.041981418,0.19282535,-0.0066957762,-0.12794548,0.15593219,-0.1276775,0.15610437,-0.07020939,0.020164525,-0.025187971,-0.07490265,-0.01182135,-0.038627297,-0.012107371,0.17481984,-0.052443724,-0.18493307,0.10232768,0.0070114788,-0.11104436,0.03389937,-0.079056785,0.059885837,-0.08822607,0.092209354,-0.11309562,-0.080753274,-0.019245626,-0.037564278,0.041110616,0.12238982,0.13038015,0.12154368,-0.13241674,-0.13982013,0.022947906,-0.0666494,0.20111208,-0.023357414,-0.017629316,0.109915674,-0.046223402,0.12352216,-0.119798236,-0.13962919,0.025886765,-0.076134585,0.1774644,0.19430171,0.02773367,-0.10126355,0.0016137948,0.116751745,0.12424545,-0.1881681,0.15173034,-0.17804459,0.027121933,-0.10165834,0.08125531,-0.20952858,-0.032733385,0.1274546,-0.15266465,-0.067028664,-0.20309897,0.06814286,0.040836517,0.03657097,-0.0009613032,0.19449414,-0.18239696,0.091138795,-0.13544032,-0.077676244,0.15650055,-0.12313402,-0.07364039,-0.10933582,-0.13641523,0.116469316,0.033325907,0.022706354,0.10799959,-0.18199803,-0.18550323,-0.025738204,-0.014779797,0.099867344,-0.17336121,-0.12899718,0.07736126,-0.086891256,-0.08673336,-0.18182912,0.05112238,0.1715495,0.052241508,-0.18942931,0.09069488,0.18098028,0.10529004,-0.1318142,0.07710461,0.13729818,0.094202496,-0.15839851,-0.11875361,0.029544579,-0.10266006,-0.1853892,0.095258296,-0.17930384,-0.019513065,-0.007816606,0.19930193,-0.16806382,-0.17459251,-0.13289742,0.14362153,0.17908297,0.16565251,0.04399989,0.12984885,-0.21075194,0.12397614,0.16412316,0.11756677,-0.0065534622,-0.01909643,-0.058700725,-0.22116736,0.1581067,-0.18520027,-0.13393684,0.12205293,0.07890402,-0.13570036,-0.03321184,-0.024133224,0.18101354,0.07937869,0.09320123,0.14737254,-0.17420219,-0.16316958,-0.017845903,-0.11619513,0.035222217,0.10932375,0.009110818,0.11934359,-0.20730186,0.20088671,-0.031448975,0.16337602,0.20350116,0.19244714,-0.12765813,-0.0024981855,-0.19656928,0.15106131,-0.16920313,-0.08220023,-0.031859282,-0.12827969,-0.1559746,0.18466614,0.05637339,-0.14216213,0.11605802,-0.0061378614,-0.090977795,0.13980058,0.102370344,-0.088961996,-0.19171026,0.14682686,0.06785498,-0.16589084,-0.0028262578,0.02943506,0.124265045,-0.18618558,-0.08562775,-0.1533011,-0.019452,-0.16406353,0.13289745,-0.16683865,-0.06561277,-0.12560183,-0.06288705,-0.09646427,0.053462937,-0.21482235,-0.061395213,-0.16269504,-0.047465086,0.15886469,-0.05043636,0.06520508,-0.108638026,0.21441533,0.13654386,0.1750514,-0.039086834,0.1111711,-0.086868405,0.020017497,0.119812235,0.13820586,-0.0037350603,0.023525989,-0.13558683,-0.1227292,-0.041768253,-0.009561006,-0.14429002,0.0462466,0.19400848,0.1290919,-0.07733556,0.0360483,-0.031740095,-0.08612406,-0.16550621,-0.06661801,0.19110163,0.13653116,0.13628104,-0.10113419,-0.047728874,0.07362711,-0.10056476,-0.18086964,-0.19089389,0.118871465,0.07672391,-0.018414827,0.20452614,-0.16753146,-0.07498601,0.14654276,0.033053678,0.17882843,-0.07866162,-0.1482318,-0.019762106,-0.016926885,-0.14462805,0.04445775,0.20184231,-0.13323417,0.1860851,-0.109224886,0.045676716,0.18220136,-0.21552277,0.07926097,0.060972027,0.15049137,-0.12105554,0.021005306,-0.10881288,-0.0780894,-0.06754762,0.18120229,0.19592892,0.02256047,-0.13665418,-0.17350757,-0.049954075,-0.103348225,0.053826336,-0.013344513,0.03044021,-0.19319461,0.047166415,0.1991137,-0.05073438,-0.11313532,0.16764207,-0.07447348,-0.10110112,-0.1035672,0.13168645,0.1872409,0.037611544,0.0137791345,-0.09865617,0.0069432887,-0.17711169,-0.13834827,-0.18840748,-0.18865623,-0.0995565,0.057885986,0.073363215,-0.047901336,0.19823512,-0.07710216,-0.11480733,-0.12961742,-0.15504019,0.17198412,-0.015329248,-0.0006798756,0.1515115,0.1168847,0.050019037,-0.21211764,0.08239593,-0.13973352,-0.032914218,0.21578877,-0.0034427098,0.07510677,0.050939698,0.12556836,-0.16516082,-0.081564605,-0.023493474,0.2088518,-0.015437714,0.16009562,0.014455397,-0.008837818,-0.089295454,-0.080911264,0.029053576,0.15252201,0.038741212,0.14606981,0.21601836,-0.17082527,0.17698242,0.10363615,0.088412866,-0.0947292,-0.13617621,0.03566565,-0.036890518,0.10879763,0.052165877,0.005746158,0.0041969116,-0.06461508,0.19270845,-0.034357164,0.040268138,-0.07890883,-0.15641725,0.049020912,0.2015266,-0.06499157,0.16913497,-0.0025627147,0.09514085,-0.19672965,-0.11538314,-0.024668355,-0.1669911,-0.014959018,0.14276189,0.0665278,-0.14918163,0.16149184,-0.15121353,0.06983932,-0.03739313,-0.058921874,0.09058543,-0.19536775,0.03935481,0.08568893,-0.15308723,0.06739889,0.12412152,0.13897558,0.2141749,-0.16638419,-0.17606252,-0.20747797,-0.082795635,-0.026416624,0.01757167,0.0034414097,-0.13684894,-0.09513323,-0.10238179,0.18044981,0.17479241,0.1525648,-0.09689973,-0.21071865,0.07366869,-0.02749243,-0.09503734,-0.07675321,0.12769951,-0.051642682,0.017778052,-0.18592511,0.09881714,-0.026446432,0.13672426,0.06722049,-0.09860497,-0.121831805,-0.094186775,-0.08208744,0.044055272,-0.12695844,0.14152206,0.11565598,0.18999955,0.057291873,0.14421932,-0.17458795,0.053956885,0.19554333,0.17385645,-0.02624455,0.15417291,-0.13992538,-0.115377545,-0.056476645,-0.12809403,-0.21594198,0.070756726,0.012952586,0.00048284538,0.097808145,0.045033377,0.10565258,0.19136453,-0.033391308,0.053409822,-0.09894835,-0.15584484,-0.10648898,0.061627157,-0.0056934743,0.10127616,0.20304598,-0.18349354,-0.16022019,0.10620689,-0.1642049,0.11021968,0.030880947,0.21908346,0.059024416,-0.110307425,0.20367315,-0.17324497,0.050959233,0.16448537,0.041677848,-0.021306042,0.09908425,0.13595843,-0.2066097,0.17480193,-0.16045846,0.15432872,-0.1747863,-0.062524624,0.17082502,0.15762092,0.03004034,0.06727833,-0.0282173,-0.15921353,0.21495965,0.11126322,-0.117857635,-0.07473086,0.011954915,-0.12780535,-0.028377453,0.194904,0.13513215,-0.07232422,0.069667995,0.16827607,-0.17054933,-0.12094456,0.20558313,-0.03375336,-0.07241412,0.1061363,-0.033458125,0.18949503,0.065144464,0.11127741,0.016973145,-0.046492245,-0.06715381,0.14211266,0.014829997,0.18585162,0.04210509,0.17106146,-0.04643569,0.11034932,0.023898492,0.05322826,-0.21509884,0.13041936,-0.070174515,-0.18461071,0.15737604,0.16388474,0.16196097,-0.16609374,-0.20902303,-0.002716594,-0.21393538,0.18563206,-0.04271007,0.044336066,0.18869181,-0.14160872,-0.0063615576,-0.017065156,0.05975085,-0.16534518,0.07036673,0.16632831,-0.1114504,0.17422573,-0.11437704,-0.13472164,0.027066058,-0.1641399,0.099416204,0.12949923,-0.010814814,0.026615255,-0.071151115,-0.102329284,0.03910488,0.068182886,-0.17590228,-0.18199469,-0.008026703,0.08696203,0.18535961,-0.034481376,-0.15749457,-0.0024266355,-0.11002638,-0.22511987,-0.057611182,-0.20382562,0.15608434,-0.14463976,0.19841686,-0.14097929,-0.09459998,0.066828445,-0.036451768,-0.18929484,-0.067702696,-0.14874692,0.12031503,-0.064703085,0.05802694,-0.06529111,0.11794668,-0.07064111,0.19957872,0.018460603,-0.20082594,0.17750494,0.06098443,-0.09193443,0.13473807,0.009967044,-0.21203731,-0.15128325,0.158359,-0.1885572,0.025715569,0.2005329,0.02881194,0.123393856,-0.12763096,0.20231377,0.15847309,-0.019012487,-0.18048918,0.0034585255,0.13679066,-0.03288549,-0.1391211,-0.19755314,0.08352245,0.13245907,0.16011216,-0.09453948,-0.2046958,-0.07714811,0.043046515,0.027827153,-0.12395398,-0.028344568,0.17988628,-0.010319104,0.10809815,-0.18452138,0.13017085,0.17426166,0.014184371,-0.011379434,0.015571973,-0.09629014,0.18492831,-0.17188592,-0.090429254,-0.020646492,-0.01178456,0.09683978,0.21521606,-0.06840974,-0.16215609,0.12774272,-0.03843468,-0.105229534,0.13842474,-0.12621328,0.091047056,-0.014866117,-0.103470005,-0.15251392,-0.13258834,-0.12227537,-0.12864417,-0.018882344,0.14113688,0.073639214,-0.026753042,0.19201303,-0.12128127,-0.11639374,0.17745078,0.17371367,-0.07387249,0.0885389,0.15884383,-0.17858441,0.21120316,0.17843826,0.19652745,-0.18874715,0.111536436,-0.0126772085,0.17948304,0.10889853,0.19751498,0.21487616,-0.11330914,-0.048228405,0.028749779,-0.08463339,-0.094926514,-0.18329638,0.02232892,-0.13146606,-0.18470436,0.06444888,0.1099118,-0.07233203,0.16378726,-0.020144697,-0.18902093,0.16034299,0.20506278,-0.18072914,0.12665007,-0.15620786,0.051053062,-0.17989106,-0.08425183,-0.055692866,-0.09279659,0.15089412,-0.006960479,-0.11505498,0.012374036,0.21998857,0.08244237,0.17839989,0.20605291,-0.04753242,0.1805,-0.024351805,-0.15229745,0.028723877,0.19788589,0.15649858,-0.044806622,-0.023537422,-0.016265145,-0.02430354,0.03682811,0.060858656,-0.15565722,-0.10917161,0.0036278698,0.1353629,0.1683344,0.11892496,-0.0019482928,0.051206924,-0.16835529,-0.15597476,0.06591232,-0.019936254,0.19854535,0.18552518,0.101948425,-0.04789336,-0.17449191,-0.09061911,-0.20815934,0.07888741,-0.17473435,0.22286029,-0.14251079,0.13363372,0.18653007,-0.10054238,-0.11926258,0.24174154,-0.07045687,-0.09361722,-0.05600111,0.15949197,-0.09911011,0.042398583,0.1554418,0.14668804,0.14187314,-0.045668464,-0.14532585,0.16656832,0.08468189,-0.21354866,-0.12822217,0.11706074,-0.16244377,0.08169455,0.1426127,-0.16193737,0.05735544,0.09594978,-0.18948378,0.20026861,-0.09545009,-0.025143346,0.22835933,0.042212505,0.171837,-0.16025698,0.20913899,-0.10787619,0.07079823,0.15861079,-0.15978545,-0.2603361,0.17085086,-0.1698712,-0.015880667,0.12646443,0.18525092,0.0017875566,-0.17915212,-0.059897635,-0.14174698,-0.02310702,-0.014240419,-0.18555759,-0.060578,-0.14022419,-0.01359506,0.0021583275,0.17382154,0.16571619,-0.14625397,0.025560427,-0.0755815,-0.085193895,-0.102230124,0.022314252,-0.065101035,-0.11607385,-0.10757902,-0.086705126,-0.14516371,-0.083208285,0.17531067,0.017904717,0.1550793,-0.017035533,0.016242374,0.024841152,-0.08753193,0.25882867,0.039921593,0.1528859,-0.19781965,0.015981853,-0.23064062,-0.11011051,-0.2077912,-0.0182127,-0.18120831,-0.1654277,0.17728417,-0.13226725,-0.1412321,0.17588694,0.14596064,-0.20633611,0.03983544,0.25095382,-0.1957806,-0.180135,-0.14029534,-0.037953574,0.15499493,-0.17450984,0.1728698,0.16227098,0.07328126,0.12328802,-0.2081263,0.050649315,-0.021979881,-0.20790713,-0.10138879,0.09191696,-0.011804819,-0.11426801,0.083823465,-0.062146857,-0.08685745,-0.17167625,0.009034201,0.109890714,0.14622715,-0.10133383,0.16223708,-0.16393752,0.13300553,0.009130083,-0.087663375,0.060528368,0.13519894,-0.02278368,-0.014117408,-0.06680812,-0.19040954,0.1718242,-0.1694505,0.13397914,-0.10274561,-0.091207415,0.06597021,-0.10203692,-0.0474161,-0.12271669,0.14111118,-0.092141844,0.1671817,0.17583,-0.093686216,-0.18591526,-0.051897697,-0.041432098,0.16552034,-0.10884278,-0.13024363,-0.07944327,-0.04583463,-0.05837,-0.14526293,0.06952713,0.123601556,-0.005918921,-0.02760363,-0.19181049,-0.1578672,-0.0920204,0.10167514,-0.042268872,-0.15937258,-0.07728581,-0.12115595,-0.010877094,-0.11255101,0.18007702,0.15323795,-0.11578707,-0.16220719,-0.1880842,-0.18516396,0.11030978,-0.008560943,-0.15840514,-0.039607298,0.029765477,0.014527974,-0.17350756,0.19671376,-0.015417268,-0.11092805,0.12627114,-0.093117595,-0.17769729,-0.0024425788,-0.09855746,