{"chain":["d1","r1","d2","r2","d3","r3","d4","s1"],"name":"spiral","inputSize":2,"nodes":[{"name":"input","kind":"input"},{"dense":{"w":[1.1874672,-0.32223946,-0.090616874,-0.64282537,0.83593965,0.94110656,-1.438669,-0.24127682,-0.7149767,0.10847366,-1.48456,1.7619439,-1.587763,0.97222275,0.86897737,-0.32114366,0.87485904,-0.639001,-0.00615011,-0.8275202,-0.9277194,-1.7113205,0.83405966,-0.37054393,1.0987513,0.44149446,-0.6693149,1.5037624,1.5257189,1.4302487,-0.28661704,0.1667885,-0.9435592,1.5453553,-0.47431406,0.513912,-0.44305268,0.4414441,-1.3859317,0.5508489,0.3178033,0.84082925,-0.03223832,-1.1622671,0.045640633,1.3815037,1.4363207,1.3604645,0.61732584,0.17076437,-0.33942443,0.9374529,0.53672075,-0.2625861,-0.7523668,-0.89231193,-1.1407864,-0.88900435,1.1624377,-0.63159496,-0.8948912,0.665986,1.3644949,0.0074414997,0.011988235,-1.4237943,0.25812057,1.0995053,1.7530484,-1.3940479,-0.19841622,-1.2954208,-1.2758863,-1.1125401,-1.1456482,-1.147929,1.255594,0.5196536,1.1693904,-0.89771324,1.0423794,-0.08848874,-0.18088058,-1.2879874,-0.43140766,-0.87820894,-1.3012209,0.5320452,-1.0749499,0.37781733,-1.5818241,0.5118588,0.7258189,0.97585756,0.6515924,-0.7830584,-0.12710255,1.7237002,0.43230045,1.6221019,-1.5769252,1.7950194,-1.3848534,-1.1476855,1.0738568,0.80388796,-1.5072758,-0.005456762,1.2146791,0.8762912,-1.268966,1.4718615,0.15310256,-0.24650903,-1.2508037,-0.13966693,-1.5507829,1.7027895,0.6740161,1.4465328,-0.16941307,-0.35309038,0.33455494,0.31040296,0.26240313,-0.116518885,-1.2355108,0.008029666],"b":[0.40378654,-0.005870736,-0.45246437,-0.008872129,0.1247101,0.21351017,0.105729476,0.2629587,-0.011863582,-0.0020946437,0.004997692,0.036593422,0.08116495,-0.031563163,-0.07621585,0.0021545808,-0.21042918,0.30269966,-0.08712287,0.010524538,-0.2895475,-0.0003241515,-0.011229757,-0.13974652,0.15220727,0.10665031,-0.0024195109,-0.002085917,-0.006452566,0.36694813,0.0020270632,0.07907561,0.0065671657,-0.27768636,0.06370784,-0.0007459706,-0.005099663,0.00079161406,-0.5720772,0.23224412,0.013362657,-0.0017563748,0.004083402,-0.011649519,0.010697334,0.024958588,0.14906235,-0.021773754,-0.013721319,0.04463331,-0.079206064,0.0057031405,-0.16935888,0.0043980633,-0.14776045,0.0740774,0.001482813,-0.0032213007,0.29885998,-0.46739858,0.0020702838,-0.22886655,-0.06385251,0.0012322282],"inSize":2,"outSize":64},"name":"d1","kind":"dense"},{"name":"r1","kind":"relu"},{"dense":{"inSize":64,"outSize":64,"w":[0.16930246,-0.09248295,0.14145675,0.03572403,-0.28165612,0.13850084,-0.015255693,-0.2248829,0.10971538,0.29085335,0.07145306,0.112407185,0.010980735,-0.025253018,-0.079676,-0.19505267,0.25152194,0.051892344,0.24609627,-0.113553144,0.06290328,0.30087313,-0.20659049,-0.2425677,-0.188441,0.22796984,-0.2398693,-0.140932,-0.19639736,-0.05191565,0.25160044,-0.27657187,-0.07449623,0.2064941,0.09987668,0.13124159,-0.17666534,0.06649245,0.27736288,-0.014898419,-0.0098345,0.20299837,-0.019783003,0.018656025,0.29482993,-0.12718143,-0.08353592,0.043585915,-0.047799543,0.024846042,0.06705675,-0.19122306,0.29712284,-0.01536392,0.02740894,-0.095828846,0.21481808,-0.09990007,0.2122904,0.24879834,0.17707181,-0.050800942,0.13494444,-0.27982727,0.1030208,0.063984856,0.089773454,-0.25069854,0.13886996,-0.23944399,-0.038857054,-0.0944001,0.3423247,-0.09370386,0.035193533,-0.28628632,0.21818103,0.26930624,-0.012142396,0.08843531,0.32441646,0.14196496,-0.1221249,0.18098813,0.2254623,-0.017968649,0.048238754,0.120607466,-0.25380462,0.2115622,-0.07307022,0.27300546,-0.18893065,0.16474588,-0.23616023,-0.12274073,-0.20079361,0.048573036,-0.1867988,-0.12891625,-0.27631068,0.19637258,-0.045304827,-0.1602264,-0.12590776,0.28476632,0.014252505,0.2643581,0.032130897,0.03832298,0.050222605,0.113285,0.055441014,0.00744593,-0.18996239,0.20639563,0.096742034,-0.23560964,0.31995198,-0.17727624,0.19544595,-0.18828881,0.29009056,0.2490231,-0.24195188,0.09934801,0.28191698,0.26076433,0.21450509,0.2734053,0.43625852,-0.04265338,0.012250596,-0.30274895,0.1040903,0.06515591,0.3017921,0.01491451,-0.26844597,-0.28852916,-0.14740464,-0.25425875,0.42293122,-0.23216729,0.09248395,-0.31604612,0.2734496,-0.064360894,0.3630479,0.19306843,0.086413875,0.23515011,0.20980392,-0.0019099539,-0.01540427,0.052140232,-0.24337664,-0.3449286,0.17152908,0.14632685,-0.16833295,0.05775735,0.20449947,-0.3019291,-0.20688057,-0.05555359,0.4059554,0.07557228,-0.12153289,-0.20587675,-0.060111575,-0.021543154,0.20898673,-0.1491835,-0.19141196,0.19388601,0.20191076,0.18529497,-0.15393916,-0.10685484,0.15702283,0.1962918,0.36356306,-0.049663436,0.191638,-0.09034217,-0.22497706,0.41253868,0.055572387,0.27540007,0.20298636,0.054493148,-0.19057842,0.28701502,0.3131338,0.06886107,0.044760883,-0.09282254,-0.25116694,-0.18872947,0.27050456,0.12528263,0.19572617,0.18970023,0.07042627,-0.20506552,0.22046885,0.09723421,0.027383722,0.17335515,0.10324247,-0.21154574,0.2543627,0.124123566,0.25775734,0.15007642,0.1370135,-0.16891876,0.15919669,0.26588294,0.067834094,0.27816316,0.1315453,0.22786258,0.08454248,-0.09396121,-0.24066928,0.23799962,0.08666588,0.049062457,-0.04728273,0.21624067,-0.23422791,-0.11930176,-0.2525857,-0.2770384,-0.026824782,-0.15873948,0.10003444,0.22126187,0.038250703,0.23640332,-0.20090127,0.056858033,-0.20342027,0.2592547,-0.19444266,0.07775413,0.22496557,-0.14912981,-0.101312816,-0.098662466,0.20916785,-0.06898846,0.28690037,0.20290442,-0.054689243,-0.08743564,-0.26791814,0.1597869,0.055098247,-0.06989707,-0.17990595,0.17265327,0.15047014,-0.14159448,-0.26803836,0.06438424,-0.17889357,0.20161891,-0.017458431,0.038996276,-0.097586595,0.11407695,0.0008165469,-0.14806822,0.22300503,-0.18036081,-0.03763071,-0.0498459,-0.07280156,-0.09757544,-0.07232107,-0.21475199,0.3033574,-0.018814707,0.11278429,0.14522655,-0.18330292,0.154771,0.2772587,-0.14916004,-0.094262056,0.17864178,0.105793834,-0.2215153,0.15684608,0.029142926,0.26542506,0.18540199,0.1398823,-0.119415455,-0.26079962,0.08246894,-0.19698459,-0.057768915,0.10470372,0.30128348,-0.14895335,-0.20635901,-0.20467493,-0.2540091,0.21526529,-0.24222894,-0.1669433,0.0478178,0.15762134,0.2322821,-0.14463845,0.1916757,-0.2249322,0.2093857,0.08212631,0.04001693,-0.17969514,0.23672788,0.0044975234,0.18405415,-0.22827621,-0.036525484,-0.1941357,-0.06212009,-0.08355004,-0.25941247,-0.28019667,-0.12697288,-0.27615252,0.0029948084,-0.22637407,-0.15679678,-0.2322025,0.21096542,-0.11661173,-0.27423942,0.09264024,-0.017794563,0.10533985,-0.29610288,-0.1903472,-0.17193264,0.14488417,0.121695496,-0.0005582165,-0.25896034,-0.11074338,0.25873566,-0.22567265,-0.0067646997,0.0389858,0.18163905,0.059771266,-0.29021233,-0.16740827,-0.08523006,-0.10934969,0.2795081,-0.04923089,-0.086970955,0.06978985,-0.27286986,-0.29072133,-0.2978799,-0.10755169,-0.0052196076,-0.06675135,0.25516555,0.16102713,-0.012963883,-0.22672743,-0.26768076,-0.28182346,-0.29585826,0.2769927,-0.24323164,-0.109612405,0.16099867,-0.10552935,-0.2660323,0.19002983,0.27942458,0.19448991,-0.2897615,0.18131648,0.28275296,0.20387204,-0.3014082,-0.16033277,-0.110374406,0.31216326,-0.17600857,0.33607906,-0.22576043,-0.2598669,0.011524796,0.081968844,0.20681165,0.0019401365,0.028902622,0.10736918,0.113084264,0.034615647,-0.26604545,0.11912792,-0.22012608,0.29294735,-0.3403471,-0.27248687,-0.12568784,-0.1283845,-0.23400114,0.02617093,0.16930021,-0.055365417,0.10885464,-0.17197847,0.09880988,0.12296315,-0.26769862,0.12090981,0.15540479,-0.10054206,-0.28182557,-0.17872,-0.23643143,0.09145751,-0.13266219,0.120881274,0.056163434,0.23026791,0.3776733,0.20564142,-0.26168337,0.386333,-0.01408476,0.019693013,0.1373232,0.22920237,-0.14594185,-0.041727405,-0.03842864,0.043845553,-0.23338448,-0.13222623,-0.2757521,0.026813079,0.07635044,-0.2608219,0.04760982,0.1275821,0.19760738,-0.14976878,0.27375108,0.06424408,-0.050602037,0.011670478,0.29949376,-0.033282015,-0.18683924,0.17983943,-0.21679242,-0.059468914,0.118779056,-0.12066323,-0.26226297,-0.25025788,0.2665704,0.08017519,-0.20413469,-0.23894554,-0.07225816,0.09042428,0.16145484,0.16916285,0.09801476,0.06272833,0.21810238,-0.09502169,0.01092226,-0.29156512,-0.17823164,-0.08862422,-0.17055453,0.28800336,0.20876291,-0.17937581,0.2755754,-0.0041187787,-0.29462382,0.039287914,0.030803176,0.11101724,0.20728199,0.18141052,-0.077237874,0.2515795,-0.10332406,-0.15638545,-0.26640466,-0.0044546905,-0.08116152,0.061251424,-0.2671639,-0.20536065,0.022167802,0.26241818,0.2705755,0.300503,0.23494938,-0.33911002,0.113202326,0.13299035,-0.2907514,-0.14535813,-0.034219537,-0.10265143,0.10619578,0.35323414,0.015257879,0.02969429,0.04941248,0.115240864,0.092991956,0.03371008,0.09822595,0.18848367,-0.090883516,-0.046522614,0.25415933,0.011038826,-0.084236026,0.10079933,-0.23356919,-0.0609087,0.30939424,-0.071637236,0.19217303,-0.16495657,0.037391324,0.15741402,0.10553917,0.28992578,0.24723881,0.15889144,0.18952978,-0.29609445,-0.00821218,-0.23488635,-0.32981914,0.062033422,0.26530987,0.2005175,0.32143706,0.2464589,0.16486856,-0.024462918,-0.07163755,0.12729593,0.010437331,-0.27172983,-0.30036306,0.17783561,0.06852972,0.0071336073,0.26140982,0.08241779,0.22393878,-0.25148323,-0.18661694,-0.10606949,-0.26472634,-0.26555926,0.1312218,-0.08847854,0.06416648,-0.0008479919,-0.21675771,0.08182168,0.26543185,-0.11469314,0.017658416,0.08244813,-0.28072512,-0.28983963,0.2600051,0.024382163,0.15935634,0.023990843,-0.09676539,0.27665937,-0.014016094,0.27806404,-0.27554303,-0.077394255,0.106846504,0.07462175,-0.11414839,0.23247096,-0.27476588,-0.1484204,-0.26200578,0.07993889,0.04293896,-0.2128584,-0.30161318,0.20287418,-0.24057966,-0.26938602,0.26950005,0.18855686,0.29557416,0.2459873,0.15443815,-0.28488374,-0.09948218,0.13172656,-0.23732413,-0.13915966,-0.10426785,0.036814,0.09069595,-0.099690616,-0.07315473,0.12644415,0.13411543,-0.08842735,-0.25633773,0.01578818,0.03561982,0.1272248,0.014273456,-0.26000813,0.24723008,-0.052056883,-0.19784707,0.13941224,-0.08930272,-0.18611306,0.06696667,-0.14586093,-0.13405915,-0.29190764,0.13119994,-0.17692554,0.18600035,0.12979734,-0.070872664,-0.217687,0.2826578,-0.13180579,0.27457935,-0.27153802,0.004582934,-0.113721,-0.26339203,-0.1295573,-0.19807062,0.1340285,0.09216391,-0.089013636,-0.14517528,-0.176729,-0.0830666,0.12878859,-0.11516794,0.17474319,0.074161306,-0.06099543,0.16473523,-0.05213536,0.047309935,0.1290507,-0.12735116,0.017798724,0.24484034,-0.036551837,-0.16686228,-0.21039613,0.23871513,0.09100321,-0.17304935,-0.24022491,0.2041571,0.1937652,0.26508152,-0.13268234,0.114266165,-0.259237,-0.10038842,0.027458403,0.1588307,-0.18516198,0.13600323,-0.1244543,0.21034594,-0.17909834,0.22386259,0.18761994,-0.17058349,0.104928344,0.20016745,-0.07334992,-0.30559263,-0.12434111,0.29799303,-0.064579315,-0.032223456,-0.06945531,-0.15592119,-0.100237094,-0.1842149,0.08097177,0.012840457,0.06866688,-0.112110786,-0.11945999,0.14316526,0.071617454,-0.19981776,-0.27802745,-0.24865203,0.30516627,-0.23147777,-0.14683276,0.30194092,0.29219794,0.015992362,-0.2831278,-0.061893407,0.21252204,0.15240647,0.06915599,0.19110826,-0.012157392,0.25744903,-0.1256808,0.19669138,0.29745507,0.26995054,-0.026397012,0.102115124,-0.28662834,0.21632613,0.1051157,0.006689509,-0.24839298,-0.2702925,0.1416244,0.10629553,-0.15675482,0.03286219,0.21049248,-0.18137448,0.062424175,-0.04112455,-0.10525602,-0.30293265,0.11240275,0.08724459,0.31784952,-0.05862178,0.18535788,0.09844878,-0.23847234,-0.05276554,0.11035579,-0.02933381,-0.021950241,0.03435392,-0.06149636,0.057626437,0.004706769,-0.18660176,0.13214396,0.07419349,-0.10899885,0.23377024,0.11117253,0.10983419,-0.04834137,-0.12615965,-0.2365517,0.06307858,-0.21243252,-0.10349612,0.22776009,-0.087425835,0.19766645,0.2610778,0.2246757,0.30113414,-0.25960463,-0.17234738,0.23355126,-0.053848807,-0.0851484,-0.17946178,-0.15053222,-0.07714098,0.18282293,-0.2224785,0.035863277,-0.031264514,-0.04157593,-0.03198874,-0.2192439,-0.24652594,0.039199732,-0.020790718,-0.26920503,-0.2221496,0.15845549,-0.06429779,0.06283452,-0.1976605,-0.063082114,0.08220457,-0.02368748,-0.13526876,-0.14801863,-0.014780903,0.057941202,-0.11125862,0.08561521,0.21027191,0.106293105,-0.18748704,-0.18503104,-0.25840724,0.14540997,0.15447783,-0.0030049365,0.05860731,-0.26878902,0.2956537,-0.23458323,-0.20979398,0.14118949,0.0484266,0.18685414,0.13675243,0.26866746,-0.16497996,0.04068531,0.026779534,-0.020321479,0.33849093,0.22915919,0.28878018,0.16075286,0.1870072,0.0052036205,0.1765923,-0.014493691,-0.07978952,0.25780073,0.04405079,0.18817413,-0.114484034,0.17750886,0.26869395,0.41395453,0.13412355,-0.020193001,0.14840871,-0.14611892,-0.08846866,0.23531252,0.050102606,-0.1710275,-0.05399335,-0.072683044,-0.24487923,0.15949969,0.12875432,0.36000165,0.24819355,0.37530488,0.25801885,-0.09034026,0.10172523,0.03279623,0.005501375,-0.03513769,-0.015183379,0.31597042,-0.21805947,-0.050309636,-0.017025465,0.23059036,0.041081935,-0.28199098,-0.24124607,0.2352391,-0.29414988,-0.23869038,-0.30266124,-0.08432109,0.19282323,-0.08539476,-0.27983004,0.2084907,-0.21140437,-0.24961118,0.16181386,0.24287243,0.30242714,-0.049455512,0.2416488,-0.11552885,0.26045153,-0.17701027,-0.09124772,-0.21566388,-0.24648036,-0.0771977,-0.15774696,0.19392943,-0.30091482,-0.028595569,-0.042207565,-0.22538221,0.1249707,-0.041788816,-0.17048062,0.20736992,-0.16790421,-0.098640025,-0.09891905,-0.12985407,0.2478435,0.1558207,-0.050542563,-0.2629121,0.23730224,-0.29510772,-0.21550597,-0.076672845,-0.23970953,-0.15979259,0.10722581,-0.29795817,0.10013776,0.27368292,0.23547204,-0.26474744,0.22210814,-0.27818125,0.2791048,0.29034674,0.017731452,-0.06245014,0.001795301,-0.2361745,0.15081427,-0.27120447,0.021335738,0.11352151,0.24386843,-0.03272453,0.29421815,-0.27121955,-0.23055269,-0.05147021,0.025045842,-0.26123798,-0.08108166,-0.18190165,-0.07412711,0.063951015,0.19394061,-0.035819482,-0.2927562,0.27885497,0.13111936,0.16828382,-0.24699211,0.21709126,0.23616628,-0.14958511,0.27993435,-0.15748572,0.040049966,-0.23007485,-0.1671755,-0.2494837,-0.25063735,0.011040484,0.09460418,-0.07060506,-0.12135125,0.05833564,-0.25518182,0.007816272,-0.13372561,-0.021432012,-0.2180503,0.087278515,-0.2619701,-0.20339113,-0.13753107,-0.14072812,0.15735441,0.22840478,-0.276874,0.0064533665,-0.023945602,-0.050701253,-0.05789559,-0.13904168,0.12417975,0.12513769,0.24862288,0.04576785,-0.090763606,0.11588371,0.27301577,-0.072774336,0.11453864,-0.25664926,0.10788244,0.11852224,0.030068237,-0.17156155,0.20781475,0.24048372,0.07839943,0.21609335,-0.29209563,0.16594507,0.24648103,0.19425783,0.25059694,0.22829707,0.28675234,-0.2393302,-0.15821615,0.18249227,-0.27601188,0.05397199,0.23961793,0.038122322,-0.20220771,-0.07817425,0.25977483,-0.050266895,-0.25769684,-0.13399684,0.10322592,0.059614092,-0.21801887,0.1621232,-0.05778567,0.0020019428,0.29515502,-0.036806174,0.22791103,-0.16825844,0.19500645,0.17267825,-0.076876074,0.086956546,-0.13440004,-0.25384754,-0.31469184,-0.19270986,0.02292124,-8.668471e-05,-0.15346919,-0.22536692,0.013991358,-0.07782051,0.12317774,0.24763888,-0.32534865,0.19929338,0.22239682,-0.19497944,0.06035717,-0.03153012,0.20152101,0.070890285,-0.16483057,-0.2526946,0.2770007,0.255294,0.1230657,0.26596907,-0.20548531,0.19223481,-0.13617142,0.20636825,0.3025741,-0.1259447,0.22514859,-0.022400292,-0.09272355,0.033390768,0.23828697,0.18014234,-0.09841728,-0.17332739,0.13367242,0.21870467,-0.061880786,-0.16454655,0.13200535,-0.014388633,0.05244361,0.04087576,0.10629297,-0.08140162,0.2268203,-0.06405878,0.16559716,-0.013623898,-0.08534921,0.028256483,0.2651901,-0.27725077,-0.07967826,-0.24073808,-0.16604584,-0.06645294,-0.30762738,0.15695597,0.18708159,-0.19270974,0.0132029485,-0.24318592,0.0315219,0.1766263,0.27542517,-0.2356118,0.31651846,-0.08179052,-0.16271983,0.114028975,-0.06395803,0.27155787,0.22534391,0.14204678,0.10979284,0.25107956,-0.18464243,-0.046475008,-0.069078095,0.17466545,0.31252983,-0.1859497,0.21202335,-0.1125897,0.109422036,0.015298967,0.22427733,0.22880979,0.07824144,0.09960902,-0.16504228,-0.27219948,0.24556258,-0.0010345811,-0.11116749,-0.23549148,-0.17684284,-0.2167624,0.08814881,-0.19914971,-0.2706154,0.17321374,-0.05401441,0.1902124,-0.14409074,0.01870234,-0.26866165,0.1401046,-0.13670927,-0.028914774,-0.13788404,0.078362405,0.12155001,-0.08606196,-0.1343662,-0.26388004,0.20317681,-0.17530136,0.09012231,-0.204487,-0.052299995,0.31361392,0.13765897,0.028350435,-0.21003014,-0.2050304,-0.13061926,-0.21078852,0.077521294,-0.17540626,-0.2869105,0.25129485,-0.2659219,0.11040143,-0.17353447,0.10219345,-0.24799259,-0.02511881,-0.30308238,-0.080939606,-0.09546874,0.032069776,-0.17322005,-0.1917455,-0.37245345,-0.15685663,0.34596172,0.046202954,0.122540005,0.15415877,0.18209921,0.20367442,-0.23008795,0.13230082,-0.18635531,-0.15715574,-0.2585059,0.08861443,-0.121056326,0.024245368,-0.036191195,0.21516298,-0.21487808,0.2017121,-0.015091474,-0.109267086,0.19976309,-0.20755419,-0.11961193,-0.13938814,0.1854962,-0.23471306,-0.13355853,-0.23232985,0.07856666,0.08854787,0.29350284,-0.065408334,-0.0029465558,0.14638197,0.06741898,0.045141272,0.15173246,0.015488805,-0.15010838,0.064945005,-0.29421625,0.121753745,-0.1905793,-0.013796455,-0.16184455,-0.300403,-0.13736247,0.08740887,0.2010371,-0.25050864,0.26162603,-0.31023985,0.16596597,-0.29050145,0.1892475,0.15218925,0.21751812,0.23733763,-0.18395841,-0.27555108,0.04333006,0.24591957,0.13428864,0.2419866,0.05855762,0.013989306,-0.2492825,-0.22708291,-0.11836368,-0.0273482,0.101621315,0.103129625,0.08311319,0.22824107,0.006896672,0.2786074,-0.14321782,-0.27992818,0.042669002,-0.060079,-0.09056709,0.14569981,0.2923334,-0.14788246,0.15182644,0.25248265,-0.014147594,0.08943824,0.12911272,0.27078775,-0.050938983,0.30831835,0.008441082,-0.30257246,0.27262217,0.14194587,-0.256216,-0.20142227,-0.04380093,0.23283103,-0.22671074,-0.22464886,0.2951476,-0.26285672,-0.27508718,-0.209347,0.09034759,-0.07554622,0.10012476,-0.20991988,-0.019079352,-0.115677014,-0.21144436,-0.25577822,0.22671352,0.10283311,-0.024714034,0.14186199,-0.056613673,-0.2770757,0.104428396,-0.18045099,0.05686446,0.299078,-0.13101377,0.2974399,0.059059,-0.12871458,0.28152394,-0.024792604,0.30321857,-0.10711943,-0.2838464,-0.13952443,0.1686356,-0.24755663,0.05541978,-0.07275497,-0.20561557,0.11155023,0.052409217,0.14219481,-0.15676641,0.2736202,0.23987336,0.25573325,-0.14862612,0.077890724,0.030795364,-0.19022962,0.25196692,-0.0613019,-0.25247565,0.25938624,0.28727925,-0.07924395,0.1260832,-0.023239741,0.17123851,-0.07187796,0.21143559,0.04333055,0.17592248,0.057777036,0.10373558,0.13928208,-0.090101756,-0.20715494,-0.0064360723,-0.0505337,0.23314883,0.3386673,-0.23525403,-0.2314445,0.30041382,0.21992287,0.14061946,0.14411758,-0.16441391,-0.027757116,-0.07894976,0.26084515,0.24401154,-0.19683467,-0.21792132,0.072206676,0.21666467,0.092878625,0.011015846,-0.27118543,-0.18274577,0.07718181,0.097495325,0.09033565,-0.11697056,-0.1706193,-0.26559332,-0.07480133,-0.0658577,-0.033988643,0.11641471,0.21817178,-0.04544304,0.010867583,-0.024558531,-0.2988888,0.2316475,-0.04208905,0.15134764,0.21360691,0.30048075,-0.2633911,-0.09885205,-0.0824546,-0.24061985,-0.05105163,0.046495542,-0.050453883,0.19756699,-0.059127346,-0.22808054,-0.01482837,0.24458122,0.23394878,-0.2182581,-0.18060087,-0.22697933,-0.28030077,0.19207709,0.07480875,-0.19244216,-0.09961851,0.13816024,0.07452718,-0.22136877,-0.0020137,0.05939447,-0.010726819,-0.0685906,-0.28828865,-0.1549141,-0.025197286,-0.037744317,-0.042144366,-0.22652642,0.27040136,0.1692121,0.15068866,0.2799829,-0.3133578,-0.14956811,0.049179755,-0.15429072,0.09110626,0.33275658,0.19726674,-0.2508237,-0.18017365,-0.24142088,0.029005246,-0.020944836,0.022650234,0.2796452,0.06557723,-0.07458232,-0.025205962,-0.16213141,0.044846162,0.22683483,0.19764525,-0.17628366,0.11691449,0.08165628,0.043158136,-0.11227128,-0.18159992,0.07072239,-0.18247108,-0.23536862,0.35317478,-0.40137368,0.030401966,-0.107349254,0.18624541,-0.097667076,0.06230639,-0.2512285,-0.36470783,-0.004540839,-0.10177084,-0.09109721,-0.11181504,0.030568175,-0.115868375,0.08052753,-0.17066269,0.117779225,-0.026928717,0.31776324,0.33198422,0.14591001,0.1084681,-0.060210783,-0.34672782,0.29690886,0.007326775,0.18058473,0.21773109,0.1415182,0.20912333,-0.24232174,0.053745333,-0.07197795,0.31510898,-0.28018278,0.20674221,0.25052285,0.12273822,0.28223133,0.23509987,0.2655598,-0.27507287,-0.2889948,0.22063339,-0.23242599,-0.1816362,-0.11926455,-0.23418982,-0.0075057205,-0.007584586,0.10184577,0.12279765,0.09297336,-0.2033107,0.25039917,0.10487476,-0.2359423,-0.13158196,0.24547522,0.2458913,0.10464784,-0.0077259517,-0.21789844,0.014572902,0.12197245,0.19596575,-0.27528733,0.007866549,0.09742229,-0.081561744,0.14002271,-0.3120265,0.21198678,0.24969898,0.22969657,-0.19230983,0.04388494,0.019508,0.09296073,0.25528893,-0.27575105,-0.11209704,-0.28268912,0.026769085,-0.089909695,-0.19805026,-0.3009724,0.22705288,-0.28862312,0.15370446,0.041961044,0.24531041,-0.20689586,-0.21653068,-0.07747601,0.056382228,-0.0311571,0.07713521,-0.13363749,-0.09141854,0.24912395,-0.08439654,-0.12890314,0.20524213,0.21886341,-0.07480283,0.18664253,-0.27829772,-0.09098349,0.14203207,-0.025646638,-0.17962486,0.020779086,-0.06693711,0.17318776,-0.18202765,-0.29058436,-0.2919067,-0.12313669,-0.07069314,0.2679624,-0.2696676,0.005256328,0.020562086,-0.17131041,0.059173755,0.19076735,-0.26570383,0.052741017,-0.21870238,-0.060334366,0.03584835,0.045256834,0.012210865,0.17987998,-0.15344247,0.2504255,-0.31618404,0.122891575,0.21150723,-0.044507027,0.014289991,0.19113272,-0.006278121,0.07582492,0.08457464,-0.1684989,0.14518909,0.04704947,0.1842838,-0.1365325,-0.25812536,-0.17838567,-0.27636507,0.12872365,-0.20657034,0.009657634,0.1496732,0.16406132,0.17830856,0.27114603,0.07298242,0.107421234,0.07619272,0.094774485,0.2545498,-0.12446336,0.0069698635,0.17138189,-0.3052802,0.02354879,-0.29948357,0.0038776882,-0.0030672995,0.27964893,-0.13345383,0.2850635,0.07838493,-0.06776003,0.12031874,0.13601735,0.29856232,-0.124227375,-0.27774495,0.042730954,-0.22394107,0.23682556,0.2239163,-0.03837223,-0.20713313,0.055037476,0.28748575,-0.2691346,0.19444786,-0.2710212,0.21267696,0.29029623,0.14841291,0.03679082,-0.16864263,0.19889799,0.19253168,0.010366361,0.29365087,-0.08772859,-0.16546859,-0.2945814,-0.147758,-0.2092015,-0.058493495,0.20580934,-0.0695731,0.17303604,-0.21332574,-0.021277871,-0.24603376,-0.0151377255,0.024634853,0.26706973,-0.1195502,0.29256204,0.031770214,0.2884559,0.1722615,-0.26122704,-0.22677821,0.04310423,-0.1878553,0.24408077,-0.067358606,-0.17354377,0.11190702,0.28988287,-0.081697516,0.23106027,-0.18064074,-0.24148454,-0.26901713,-0.21013,0.13099486,0.0042418255,-0.21170333,0.28652328,-0.16214135,0.25386193,-0.056652714,-0.081240855,0.12737617,0.30763757,0.2351192,0.035563793,0.14787628,-0.25812522,0.27434355,0.006011908,0.14247826,0.21479945,0.09859387,0.24414855,-0.28501633,0.17118727,-0.12195859,-0.04653476,0.20459163,0.04996084,0.21488656,0.20066144,-0.13585956,-0.19206512,-0.07011157,0.0054979417,-0.056375377,0.024296867,-0.18837567,0.1346419,-0.1734701,-0.2714004,0.2268648,0.14316322,0.1220459,-0.14412673,0.09396305,0.23484632,-0.0756248,0.29420143,0.18219092,-0.1610037,0.08671028,-0.18999714,0.31307697,-0.04614302,-0.08822996,0.20940521,-0.24508682,-0.005582381,0.07855168,0.18658473,-0.34215602,0.14515175,0.123923615,-0.10699404,0.13195924,0.25908983,0.072771505,-0.23869887,-0.18531959,0.25241658,-0.062337164,0.2265638,-0.17212011,0.053315684,0.08738747,0.05451718,-0.2630796,-0.07786552,0.056517687,-0.089325234,0.048225764,0.19122566,-0.20528688,0.005444845,-0.21034794,-0.25514606,-0.3515892,0.13376021,-0.067411825,-0.09745114,0.13169928,-0.005142743,-0.020046502,-0.30131617,0.18541068,-0.16550706,-0.0786606,-0.1356143,0.14411508,0.022807563,0.13494916,-0.03982798,-0.0026846018,0.086318985,-0.29216382,-0.019029073,-0.21437687,0.14764486,0.17655814,-0.03490281,0.21864437,0.19716252,-0.15131538,-0.095425956,0.12254476,0.2930213,0.11430182,-0.25684342,-0.25438878,0.20279758,0.23405752,-0.2570058,0.23279089,0.19117646,0.18379234,0.08086147,-0.28903985,0.080927975,0.17551625,0.06804985,-0.113226995,0.23601232,-0.15801819,0.109418154,-0.017631844,0.052031096,0.17770976,0.019111052,-0.16806151,-0.20123181,0.017633118,0.012143704,0.0321791,-0.23667674,-0.05365698,-0.17590235,-0.24037579,-0.20804396,0.29026625,-0.25277525,0.2050346,0.13388355,-0.05434974,-0.24187215,0.22661924,-0.27206033,0.28750166,0.18820255,0.007012171,-0.14952461,-0.27871418,0.27961448,-0.11202687,-0.049893267,-0.119949505,-0.2268113,-0.2089604,-0.061312523,0.3010432,0.17876355,-0.011386938,0.06749395,0.18487702,-0.21521625,-0.16782518,-0.00060016353,-0.017069539,0.28471798,-0.20232014,0.060326762,0.17568351,0.07008821,0.053410113,0.10070319,-0.1435063,-0.18764576,0.17827854,0.12726755,-0.25824133,0.28917533,-0.08108078,-0.25177032,-0.23639104,-0.20397715,-0.11368185,0.0774998,-0.20934303,0.12912071,-0.14699374,0.004291735,-0.044507995,0.022413777,0.2926483,-0.17410861,-0.20659652,-0.19744128,0.245496,0.042341486,-0.1972134,-0.22907048,-0.07234852,-0.23189147,0.2642552,-0.05361871,0.15596098,0.2733743,-0.14080967,0.2165071,-0.21505885,-0.0054056128,0.2934546,0.1900906,-0.18751758,0.090799466,0.21999411,0.16213806,-0.123527534,-0.11938437,0.077173926,-0.14975403,0.02883198,-0.29732046,0.14755584,-0.1801017,-0.121917255,0.20902339,0.10169161,-0.004840717,0.27003822,-0.105257414,0.28304073,0.17508776,-0.13004504,-0.29074717,0.068976134,0.13404663,0.14016773,-0.060851287,-0.15996873,0.23314638,-0.0584937,-0.059087846,-0.2404293,0.24768284,-0.04853996,0.2723114,0.017461993,-0.24489036,-0.03283709,0.023598649,-0.08689819,0.09416061,0.17114952,0.265851,-0.08731546,-0.19829477,-0.10208589,0.1746006,0.12289431,0.17485575,-0.06662933,0.1680742,0.25062856,-0.0586324,0.23991281,0.13208346,-0.19167522,-0.08079079,-0.29636738,0.27090326,0.24981233,0.23538949,0.17478448,0.07087067,-0.033427626,-0.0016952903,-0.086528026,-0.008612597,-0.29945138,-0.087638415,-0.26590088,0.15596677,-0.25803283,-0.098492764,-0.038646985,-8.079329e-05,-0.17773381,-0.04335486,-0.08959564,-0.022214547,-0.25531074,-0.022720635,-0.018886678,-0.11748329,-0.050571505,0.3047846,-0.17545302,0.22298229,-0.14630814,0.16018713,0.04415814,0.1918202,-0.2730764,0.099731766,0.23191155,0.050071068,0.10417184,0.11866572,0.0045311768,0.059512842,0.0630234,-0.033509832,-0.28606904,0.016565489,0.13873574,0.12625591,0.2594244,-0.27249488,0.092086315,0.016692217,-0.06003549,-0.13122231,-0.2523061,0.16625883,-0.20981842,0.2292841,0.07882282,-0.025922436,0.2178498,-0.12417815,0.25759506,-0.18747674,0.06813599,0.26822445,0.0764671,-0.24879014,-0.11413059,-0.28875217,0.149112,-0.27969527,-0.027780937,-0.09238339,0.03102601,0.01672817,0.30347604,0.06339643,-0.17862971,-0.16662547,0.24354571,-0.059761465,-0.28689256,0.22949429,-0.22377114,-0.008812162,0.097073056,0.18181081,-0.023620293,-0.10853216,0.07326602,0.16341239,0.14701097,0.005963483,0.083680876,0.017257862,0.01101855,-0.22927302,-0.12856337,-0.22503695,0.09199693,-0.12668414,-0.2130683,0.07064593,-0.20919067,0.24615793,-0.22981939,0.19650112,0.14680141,0.026595758,-0.24515876,0.11212044,-0.27483118,0.20105034,-0.1486879,0.16496886,-0.021720696,0.17761093,0.021336526,0.0026540875,-0.22809726,0.25919592,-0.21221387,0.28842452,0.066951774,0.06337398,-0.0684074,-0.09499041,0.12927191,-0.22207886,0.13755397,0.27100304,-0.26835176,0.21471018,-0.013848407,-0.2505329,-0.06252988,-0.007961214,-0.13059452,-0.06577174,-0.20773897,-0.11335747,0.0155915385,-0.095588125,-0.26107877,0.10913167,-0.07245092,0.20179367,0.15003209,0.13342148,-0.22466089,-0.11915391,-0.27571622,-0.22611083,0.036326393,-0.30496034,0.04490185,0.06584578,0.1012976,-0.035214666,-0.07880453,0.14222327,0.20583549,-0.26447558,-0.10134444,0.060559206,0.19265471,0.22432768,-0.12871663,-0.060957305,0.12374712,0.09529938,-0.09278066,0.20633024,-0.23316239,0.09795528,0.13655365,-0.1637602,0.014394342,0.033613585,-0.26968074,-0.17862183,0.18558721,0.021036413,-0.2777263,0.09109541,-0.124964096,0.28229246,0.09838892,0.27304485,0.15389827,-0.10883797,-0.016895875,-0.2275658,0.25716278,0.27463576,-0.14442678,-0.14532061,-0.25948048,0.030984035,0.14060745,0.2860765,-0.051240135,0.22086808,0.10283679,-0.019056698,-0.16880684,0.14095375,-0.21688712,-0.16324991,-0.1836755,-0.18116863,0.015487963,-0.12846346,0.27400222,0.042914174,0.05149583,0.086244866,0.086036585,0.046016872,0.27137166,0.14592998,-0.090372704,0.26751032,-0.31013048,0.15433,-0.19852087,-0.14124252,-0.2670672,-0.25353447,0.12251606,0.26077417,-0.21435367,0.17849983,0.17783393,-0.3027284,0.08329157,0.14856552,0.20161705,0.19566247,-0.12526016,0.22478177,0.2513798,-0.22910866,-0.16279475,-0.06308577,0.22530924,-0.18980096,-0.034788184,-0.09221567,0.0070787477,0.18650609,-0.057632018,0.23154752,-0.17234443,0.16040139,-0.17218341,-0.24401787,-0.25033063,0.113554515,0.1934637,-0.18866701,0.21424691,0.07772632,0.20658375,-0.04305824,-0.27334067,0.21612002,-0.014278304,0.1522223,0.08343294,-0.024116857,0.030892747,0.29108083,-0.02468721,-0.23688985,0.12452838,0.19845174,0.13508388,-0.25065348,0.23908947,-0.22892205,0.30353498,0.09573241,-0.17108537,-0.07161671,-0.29877824,-0.16572203,0.13962963,0.040207427,0.16314965,-0.2222642,0.26549008,0.037102792,-0.058834743,-0.00606269,-0.25778386,0.14798997,0.20840009,0.19970706,-0.13600782,0.011311383,-0.1623763,-0.09546437,-0.24375626,0.11979412,0.33235765,-0.3009812,-0.18353209,0.20574808,0.08839395,0.088024184,0.1194358,-0.07378769,0.053745404,-0.24669114,-0.14474626,-0.15507738,-0.2755173,0.0010160377,0.065890215,0.09041599,-0.035184134,0.15236932,0.254974,-0.012417131,-0.038387608,0.057400867,-0.29603806,-0.000934799,-0.21355937,-0.16586438,0.25740963,-0.21302713,0.028083913,0.0875539,0.28207323,0.22973011,0.24078482,-0.14875686,0.16179596,-0.30711547,0.031603232,0.22590989,-0.13825943,-0.13469306,-0.061762955,0.20645982,0.050015353,-0.20454742,0.25477794,-0.28559673,-0.05598248,-0.16861188,-0.23158666,0.1498794,-0.02000655,-0.2842943,0.31368256,-0.09364302,0.283488,0.13056651,0.26983982,0.1537488,0.08455389,0.10647295,0.062854275,0.13454665,-0.14669625,0.029351562,-0.19759825,0.124016434,-0.016901944,-0.12089916,-0.24254072,-0.14802124,0.19136651,0.087483965,-0.018182943,0.20491958,0.26935148,0.15814112,0.30467215,0.26978603,0.10023495,0.15518793,0.06326886,0.09255706,0.3137956,0.06799198,0.29058778,-0.040162038,-0.22404127,-0.20127214,0.10644855,0.13240099,-0.26299426,0.08076955,0.06296579,0.033372663,0.038409274,-0.056852266,0.108999915,-0.049339294,0.045669876,-0.18091118,0.10422944,-0.13799857,-0.07200321,0.008930877,-0.102971144,-0.07741388,0.28389755,-0.1708552,-0.289989,0.2367097,0.03796518,-0.25414357,-0.01693761,0.2896343,0.07231983,0.24669679,-0.28782302,0.11065954,0.21925806,0.16296223,0.18772379,-0.3004908,-0.01870486,-0.2239184,0.19159883,-0.119826175,-0.21698059,-0.065389894,-0.29869995,-0.00792851,-0.2565943,-0.15943317,-0.22287852,-0.20537926,0.10080002,-0.096656546,-0.16933157,0.03602056,0.12577294,-0.1934024,-0.07740804,0.23428072,-0.29510126,-0.05746801,-0.004581602,0.24468099,-0.26002946,0.29618913,0.07874212,0.15782098,-0.23195294,-0.086990826,0.25658485,0.23514596,-0.14266768,0.21936387,0.081192344,-0.07881567,0.15621977,-0.25373465,0.013411686,-0.23547131,-0.25622806,-0.022983218,-0.046835013,0.2031854,0.20609234,-0.30260682,0.018285308,-0.007352445,0.12609622,0.09930406,0.2834075,0.15178995,-0.013032461,-0.28982136,-0.01742337,-0.09231688,0.030329965,0.14689323,0.065498605,0.047968656,-0.108655185,-0.16246076,-0.023865638,0.25795642,0.13267595,-0.06807007,-0.115651794,-0.26662552,-0.17662644,-0.17629778,-0.11444354,0.19988453,-0.021978173,0.108175084,0.27251792,0.2003219,0.14972599,0.06845051,0.17167377,-0.11994935,0.08151434,0.29640388,-0.02025789,-0.22998971,-0.12198951,-0.058417562,-0.19146381,0.09017323,0.030140294,0.23223494,-0.18421558,-0.09063848,0.2042538,-0.05172069,-0.0981456,0.2565451,-0.29168656,-0.14438002,0.10526849,-0.04668714,-0.2690906,-0.12180759,0.10654186,-0.13729268,-0.08771745,-0.28482276,-0.069675565,0.28333512,0.15993711,-0.14225891,-0.24260946,0.09701295,-0.31492004,0.27856368,-0.1588268,-0.23999764,0.24510816,-0.00460759,0.09075628,0.12010634,0.09350199,0.10001615,0.08485847,-0.1310676,-0.13411209,0.16439778,0.1928804,0.28011915,-0.09897844,0.2768188,-0.0839755,0.032388404,0.13403206,0.21779081,-0.024659079,0.25098196,-0.27058604,0.26189485,-0.27953455,-0.22841828,0.07666114,0.23064752,-0.09642667,0.24558498,-0.12678897,-0.23989712,-0.15743156,-0.15071297,-0.18697236,-0.10900321,-0.12719907,0.23443511,-0.32182118,-0.1411284,-0.18596442,0.08042387,-0.18856405,0.021556776,0.27995488,-0.06542086,-0.20917855,-0.1965035,0.29314563,0.20774713,0.32969373,0.019960267,0.114094324,-0.22287859,0.06327371,0.16186373,-0.04486548,0.064669594,-0.07931814,0.045491353,0.29868457,0.08958046,0.18583418,0.1945985,0.21045198,0.049983285,-0.15730314,0.2655031,0.29670697,0.14913884,-0.18748935,0.21864535,-0.21549667,-0.20948604,0.16550598,-0.1434872,0.13147387,-0.06738147,0.09532094,-0.041925628,-0.015595174,-0.24373887,0.119659886,-0.14521001,-0.110358894,-0.2610065,-0.01013175,-0.15993442,-0.014859469,0.23008017,-0.30895847,0.024715811,-0.2948047,0.3099523,0.24365066,-0.26658636,-0.12880246,-0.29722047,0.12713124,-0.30067912,-0.19678576,-0.087338455,-0.3871691,0.23115212,0.16402012,0.29590362,-0.15936579,0.28605366,0.0474562,-0.11655014,0.14597028,-0.1541603,0.17040053,0.12717916,0.123597756,0.04022732,0.0774502,0.04694581,-0.068541385,0.164804,0.08384347,-0.037942585,0.27228007,-0.085663535,0.018117808,-0.10735421,-0.08927887,-0.20709026,-0.269665,0.08525781,-0.13139072,-0.10856322,-0.28808126,0.12659489,0.2156062,0.16291544,0.2568699,0.2639117,-0.009090969,-0.29707474,-0.03376975,0.17639166,0.090519615,-0.10420546,-0.20367306,0.03828609,-0.16630872,-0.2219606,-0.1958367,-0.07973507,-0.20260425,-0.06743922,0.036831886,9.836815e-05,0.09979969,0.26325843,-0.1875626,-0.27932936,0.05708722,-0.20537825,-0.009952886,-0.20752022,-0.1604158,0.13732684,-0.20353334,0.21431191,0.13327454,-0.29653594,-0.018555373,-0.22723942,0.07797331,-0.14809172,0.22935048,0.2895874,-0.023440858,-0.22617948,-0.13327183,-0.039793696,-0.18659027,-0.16051045,0.10848515,-0.22846813,-0.14930339,-0.002923998,-0.15041597,0.3043554,0.0032514415,0.15659119,-0.17692173,0.04982699,-0.21614079,0.06441687,0.32904416,-0.12838997,0.16616005,0.054489642,-0.092114404,-0.16200928,-0.15684623,0.1991846,-0.06455248,-0.1185785,-0.18542427,-0.02726223,0.14932202,0.014422556,-0.026412344,0.13214646,0.23288721,-0.06166802,-0.25895804,0.12424596,0.028787151,0.06568051,-0.27552795,0.15682884,-0.10021945,0.18159021,-0.08589909,-0.13681945,0.29175094,0.24377832,-0.16353203,-0.14715567,0.2588183,-0.2792854,0.073390916,0.02477151,-0.2149266,-0.10368664,0.12745917,0.2753991,-0.31018835,0.021039287,0.16551101,0.0151562365,-0.2551154,-0.10604979,0.057429217,-0.14020579,0.16578113,0.08791925,0.15692444,0.11345144,-0.028505776,0.20309271,0.14278667,0.16144188,-0.09440584,0.08790927,-0.07633452,-0.18863724,-0.2600213,-0.21212634,0.16970411,0.18139806,-0.21506503,0.21321139,0.220198,0.0044819014,-0.28520915,-0.15109125,-0.24680749,0.27120364,-0.21452901,0.30616063,-0.15764262,-0.090194084,0.13553603,-0.18525319,0.11754689,0.28353125,0.04527675,-0.21508528,-0.18384421,-0.23204325,-0.21992797,-0.21402869,0.2673072,0.28069308,-0.059264332,-0.20956138,0.20799729,-0.17367356,0.054991633,-0.32937914,-0.21361908,-0.21029583,-0.011801806,-0.045728765,-0.3105454,0.29521865,0.26891422,0.28850347,0.32559073,0.06823016,-0.050845668,-0.25715968,-0.20250443,-0.023349073,0.15284029,0.054812174,-0.2865275,-0.29613778,0.2458697,-0.02993025,-0.013078266,-0.16207246,0.17714791,-0.08551134,0.110033125,0.15303707,0.14396156,-0.15485269,-0.11207993,0.3285444,0.2932142,-0.0728483,0.01432362,-0.26502034,0.25543058,-0.27479017,0.00609701,0.21352065,0.2056379,0.016268246,-0.24228846,0.0968641,0.1694496,-0.10083198,-0.09873387,-0.0047355955,0.13847603,-0.1662832,0.20902969,-0.03761586,0.21325888,0.23508699,0.18184507,-0.24908632,0.04252616,-0.10908581,0.07412748,0.05951589,-0.15550685,-0.17443943,-0.22692601,0.05699148,-0.15270756,-0.05592874,-0.15452883,0.04322832,-0.30193523,0.12605071,0.13405623,-0.18051165,-0.29827607,-0.06763765,-0.31581077,0.18657447,-0.13206793,-0.20042889,0.30184248,-0.21621105,-0.26625612,0.18309921,0.14074665,0.10303697,0.12502636,0.30381966,-0.04909541,0.05659381,-0.2980636,-0.26874235,0.064429596,-0.24922357,0.2544256,0.24805109,0.25752997,-0.29459846,0.21817644,-0.294054,0.1882021,0.088526376,0.08405353,-0.0046383594,0.06253828,-0.29380447,0.0680045,-0.06171588,0.041861795,0.29915297,0.3755733,0.10711339,-0.3003194,0.19967097,-0.1778712,-0.30906564,0.12459037,-0.08258168,-0.13060892,-0.29684138,-0.015443594,0.2972373,-0.0199095,0.2153311,0.042487126,0.16445887,-0.2180617,0.10151196,0.13532674,-0.21338628,0.19957136,0.33852103,0.27754474,0.1432063,0.12951604,-0.076758005,0.34658042,0.005505003,-0.08845878,0.13915005,-0.21657708,0.01814221,0.26491117,-0.19435295,0.12918024,0.041377727,0.051438887,0.16141137,0.14486957,-0.025586635,-0.29799467,0.11050522,-0.3851203,-0.30566874,0.19763185,0.08787871,-0.05528246,-0.13423638,0.124183826,0.044355206,-0.05355986,-0.27304056,-0.2754637,0.03084557,-0.089347824,-0.027815338,-0.0044716983,-0.09867899,0.13876416,0.08317332,0.24051096,0.3052092,0.24415316,0.10638341,0.2082042,-0.0241104,-0.016373152,-0.22439493,-0.14715943,0.039882164,-0.2286062,-0.17940116,0.10060608,0.14883699,-0.24171034,-0.105749495,0.2676273,0.1635389,0.24831627,0.038567804,0.042698696,0.09780438,-0.20606522,0.20016405,-0.2836828,0.01318346,-0.06661796,-0.25854984,-0.04070903,-0.20186312,-0.2184194,0.044785652,-0.20940115,-0.23430853,-0.24870817,-0.069498606,-0.023859931,0.018380938,0.22995387,-0.03531068,0.111095324,0.2902367,0.1155665,-0.22097869,-0.03296991,0.26785922,0.009472321,-0.2698358,-0.19408768,-0.28357816,0.15312573,0.20765309,0.11084877,-0.23128434,0.1816158,-0.066973485,0.14306282,0.0077790846,-0.063473254,-0.28574952,0.02903523,0.22304693,0.074260995,0.16561486,0.114026725,0.19407953,-0.020040132,0.17527853,-0.0069262977,0.08113113,0.26368922,-0.049975444,0.2950971,0.32769915,0.1302332,0.12819459,0.2476589,-0.24230184,-0.17754851,-0.17109941,0.2776374,0.1950158,0.29685318,-0.032900732,-0.26538265,-0.006588893,0.25871494,-0.006590958,0.022548791,-0.0127328085,-0.003742291,-0.13066459,-0.00038688432,-0.11890403,0.25693786,0.17977268,-0.041621502,0.18546982,-0.13446581,-0.052756462,0.26985914,-0.073855996,0.10356849,-0.23159489,-0.303576,0.13365969,0.026136594,-0.20089275,0.07674022,0.04153668,0.1129587,0.08446992,-0.03086795,-0.2239299,0.0607345,0.18530436,-0.09597451,-0.21478769,-0.21003214,0.13959844,-0.18753833,0.3448447,-0.2162288,0.18072376,-0.2881136,0.24311249,-0.006977952,-0.18849958,-0.120929904,0.15488105,-0.16665894,-0.30504265,0.21109046,0.24988584,-0.26028743,-0.17244476,-0.17628366,0.15856151,-0.22777206,-0.043992028,-0.10004248,0.20283747,-0.113458015,0.30001327,-0.006534164,-0.048819475,-0.21330063,-0.04083583,-0.29453152,0.054225784,0.058150217,-0.010038407,-0.08675666,0.030252751,0.21645546,-0.1418072,0.2844644,0.087327816,-0.19810708,-0.08874277,0.020506056,-0.021306816,0.14045188,-0.018843433,0.14264481,-0.29359046,0.19227667,-0.058524363,-0.2841717,0.24942335,-0.11121268,0.21108212,-0.28458753,0.11470223,0.033572778,0.20714964,0.19746734,-0.087367125,0.26859072,-0.17800675,-0.048298035,0.23733261,0.23793954,-0.15780242,-0.20974419,0.2374182,0.02686115,0.02231592,-0.13885933,0.013391064,-0.2647607,-0.0612356,-0.14111452,0.10109092,-0.0041924724,0.06462773,-0.28782162,-0.20191406,-0.27364215,-0.09555882,0.25707424,-0.00035043884,-0.27479625,-0.05956814,-0.12996769,-0.10989754,-0.3052637,-0.18115307,-0.07420769,0.055065837,-0.043103065,-0.29533124,0.062169332,-0.1415588,0.24262588,0.2081488,0.007964024,-0.035585638,0.033086885,-0.2695207,-0.29991874,0.29832128,0.29073566,0.26990736,-0.11430347,0.023601385,-0.05655848,-0.13575335,-0.1453674,-0.117440864,-0.117359065,0.22894734,0.23787339,-0.09391104,0.21771894,0.16514885,-0.10027834,-0.19659401,0.28337908,0.22900894,-0.29762825,-0.20942739,0.034905218,0.12834623,0.11335578,-0.032728326,0.18138288,-0.29585743,-0.0517647,0.10661787,-0.24898732,0.08568348,-0.14241157,-0.25960264,-0.08305809,-0.30501026,-0.22365765,-0.25217572,0.15237659,0.29448596,-0.14452218,-0.1089447,0.25112867,0.27873972,0.2859881,0.10143156,0.21611767,0.01584681,-0.090063445,-0.25999284,-0.038824048,0.24562399,0.06093201,-0.100615785,0.18509296,0.09253399,-0.2868668,-0.19069037,0.21627964,-0.10995399,0.16779713,-0.0114522185,0.2975036,-0.26246622,-0.2071044,-0.017514216,-0.16950099,-0.1070163,0.057713088,0.10762115,-0.32350847,0.29879454,-0.12369752,0.13461721,-0.18746088,0.20820212,0.31449908,0.24199913,0.25533566,0.17180088,-0.067529574,0.10662023,0.08203451,0.19877744,0.036463555,0.076665804,-0.154717,0.057683755,0.04528656,0.27297232,0.24976426,-0.19260639,0.098634206,-0.11317346,0.261381,-0.20041919,-0.18045007,-0.15274319,0.19582772,-0.2497266,-0.26845282,-0.0518028,0.1400818,-0.015522624,0.18919927,0.050167978,-0.120115966,-0.28974053,-0.19288877,0.1412276,0.02767151,0.19991806,0.35878804,0.13905215,0.0017810295,0.16939948,-0.18440537,-0.2013545,0.13445435,-0.1177762,-0.044691294,0.23768415,-0.13294181,-0.2912761,0.050253533,-0.2682125,0.14898524,-0.19763012,-0.017801972,-0.14285381,0.20096824,0.17111562,-0.15491481,-0.07696719,0.24434349,-0.27438337,-0.36426282,-0.2786915,0.24010016,-0.05857598,0.006307474,-0.0043638186,0.20757237,-0.1170429,0.039466802,-0.20326872,0.49566582,-0.020974318,0.0012325712,0.2957312,0.08206343,-0.040431514,-0.19288915,0.14129372,0.30709842,0.08844757,0.21825095,-0.110054694,-0.21313068,-0.26270008,0.18402375,-0.23751535,0.10313016,-0.03650747,-0.14108269,0.03211806,0.22928923,0.27338088,-0.16745909,0.20348611,-0.17539506,0.0029073174,-0.28194296,-0.27083236,-0.29493615,-0.04295201,-0.05257933,0.16271313,-0.02638108,-0.23223262,0.057290453,0.23879568,-0.27165705,0.16586144,-0.23556656,-0.2647956,-0.027729325,0.077563785,0.078133956,-0.2839021,-0.00831492,0.1917918,0.10259423,-0.17134286,0.0069565447,-0.24297857,-0.27666673,0.21569458,0.28123838,-0.10462466,0.05789008,-0.2737389,-0.04401393,-0.2029401,-0.21036306,0.27759025,-0.2485198,-0.0024643503,-0.2314401,-0.28323942,0.22032842,0.26020625,-0.09344553,-0.20366782,-0.26093647,0.22019136,-0.1786869,-0.2818737,-0.20279926,-0.24763077,0.12866203,0.021249529,-0.22226878,-0.24168214,-0.3036262,-0.008466505,-0.120856315,0.13955766,-0.0009673579,-0.24111609,0.23028,0.0767306,0.19192728,0.08208372,0.14817417,0.08672763,0.25612783,-0.022222918,0.024354162,-0.133942,-0.24757893,-0.1351264,0.078604564,0.004779485,-0.11056868,0.1669663,-0.079258434,-0.03118563,-0.29149738,-0.2644587,0.081497766,0.07755579,0.17029046,-0.18800963,-0.032774262,0.1465942,0.073136926,-0.21293513,-0.2540429,-0.1622688,-0.23738988,-0.09220327,-0.14876345,0.1003541,0.26148838,0.24266906,0.08691383,-0.24220286,-0.051683202,0.2077029,-0.17150669,-0.24210049,0.13295874,-0.050626956,0.13079539,0.23236278,-0.025854336,-0.15123405,0.2621048,0.24477185,0.13012859,-0.26744184,0.15207656,0.23157908,-0.109442435,0.16937868,-0.010062731,-0.2608344,-0.42050126,-0.27785125,0.1478627,0.09359681,-0.07139188,0.5514002,0.008510907,-0.41413802,0.29526588,0.15071885,0.29281557,-0.28436154,-0.18086374,0.4910281,-0.07994305,-0.05903687,0.48998475,-0.044235256,0.2697741,0.038573645,0.31567022,-0.059186567,0.093791954,-0.082888246,-0.35619727,-0.17311147,-0.20528862,-0.3032463,-0.13454026,-0.46482208,0.31330943,-0.14332062,-0.15668933,-0.06868679,0.06126062,-0.13414496,-0.107067786,0.056281332,-0.1146372,-0.28427166,-0.16937311,-0.2980288,0.27706453,0.29662815,-0.10671282,0.23719913,-0.23278037,-0.28877637,0.31485772,0.29462743,0.5243711,-0.012881118,0.04234581,0.18052359,-0.09090645,0.1459206,-0.21501498,-0.24087134,0.43896046,-0.24189778,0.013573126,0.2831821,0.30011153,-0.2616944,0.38916007,-0.0051296162,-0.24089022,-0.2278764,0.065885514,-0.582485,-0.15448917,0.13981143,0.32093912,0.30190212,-0.21616907,0.1941607,-0.063506156,-0.41613162,0.28722706,0.16218774,-0.48815754,-0.2965565,-0.10719109,0.06315046,-0.364941,-0.1629064,-0.106890194,0.3201323,-0.12384369,0.118208624,0.21854384,-0.07554796,-0.02482011,0.45366547,0.10169931,0.47995114,0.034374796,-0.37935096,0.47365662,0.24684677,0.0087290695,0.061035413,0.017710827,0.45192167,-0.014704025,-0.2543033,0.2381916,-0.1737535,0.14778076,-0.12318449,-0.1134046,0.29769897,0.086869724,0.058674537,-0.60421777,0.25388685,0.042993475,-0.26724574,0.2913232,-0.5100557,0.15149952,0.17127202,-0.40635383,-0.16653284,-0.15138201,0.06422378,-0.14574279,0.19538945,0.24387988,0.10077611,-0.25530687,0.25486594,0.021870514,-0.18931028,0.009094274,0.024224313,-0.06441395,0.18036471,-0.22965537,0.29668394,0.07966177,-0.16209728,0.019110683,0.23479421,0.057231553,0.17420928,0.25775278,-0.2436238,0.1552115,0.056949213,0.11597163,-0.27570254,0.16371974,-0.0549066,-0.2243636,-0.114789926,0.1808959,-0.04028615,-0.11527888,0.002396718,-0.27999222,-0.108646065,-0.14965035,-0.06464592,0.11102633,-0.12405524,-0.013369835,0.22659545,0.02178522,-0.27547526,-0.081371814,0.3048796,-0.04828834,0.09740645,-0.22757106,0.2479232,0.064995095,0.0909279,0.062506445,-0.21549904,-0.16894461,0.30102685,-0.20928879,0.062025063,-0.05614908,-0.22678776,0.18691584,-0.16265742,-0.06731172,0.16233979,-0.17657116,-0.21835865,-0.2813724,-0.096923895,0.28584498,-0.2680608,-0.17538625,0.05915874,-0.005808051,-0.21093647,0.02710825,0.2103264,0.21770665,0.24805908,0.08209679,0.011000249,-0.17222063,-0.21018812,0.22541112,-0.17312554,-0.10255669,0.055872668,0.30915582,0.06673949,-0.06585484,0.37056443,-0.28391612,0.025182407,0.27947512,-0.29354033,0.1076052,-0.009762476,-0.032484505,-0.12964286,0.0276912,0.21205343,0.14787093,0.050390117,-0.27717555,0.29794472,0.23103437,0.30514216,-0.027227957,0.29414183,0.006349546,-0.12145906,-0.103963405,-0.2796461,0.2720494,-0.06439391,0.2735423,-0.085581854,-0.1764272,-0.2778441,-0.037010115,0.14551307,0.22869094,-0.12962528,-0.17533761,0.18866041,-0.15186496,-0.037783783,0.19215155,0.04195807,0.20582904,-0.24053869,0.12643869,-0.1819615,-0.07473937,-0.23762634,3.3267403e-05,0.18183723,0.114403285,-0.2297444,-0.11376197,-0.034314025,-0.10424599,0.23145051,0.08411687,-0.00308612,-0.061947897,-0.07488356,-0.111302525,-0.10387497,-0.21830575,0.31113803,0.12513277,0.30214307,0.30932075,0.26436847,0.11907737,-0.27668288,-0.16727103,-0.13203473,-0.08778579,0.078414515,-0.12258653,-0.28436673,0.067822196,0.08734583,-0.26115438,0.23922364,0.27907592,-0.20374706,-0.29153103,0.27984893,0.03540193,-0.15948741,-0.21934463,0.1410301,0.33633927,0.021395847,-0.08296878,0.14847043,0.24722056,0.24803466,0.2516031,-0.11543957,0.06530383,0.2139845,0.23977922,0.32816383,0.12924697,-0.10537461,0.3691673,0.07564337,-0.14533043,-0.18208005,0.017075026,-0.252743,-0.2790319,0.087638944,-0.085195124,-0.065415934,-0.18046872,-0.17189494,-0.24412215,0.0920646,0.21793674,0.30410308,0.18344504,0.22539717,-0.07327356,-0.106178656,-0.15373598,-0.18340477,0.22404367,-0.05302613,-0.16020194,0.054954328,0.13061571,-0.2908945,-0.08054934,0.009821047,-0.22091305,0.040034488,0.2528624,0.2808741,-0.15852238,0.1776131,-0.23595642,0.10577033,0.07741796,0.15134004,0.20504431,0.17443678,-0.24520257,0.031938918,0.036747422,-0.2688344,-0.109468535,0.22050159,-0.046666365,-0.1683147,0.29908752,-0.04255381,-0.29532143,-0.047875855,-0.10023695,-0.14043039,-0.06390605,0.08950601,0.25333202,0.01910306,0.04347343,0.26805624,-0.2057008,-0.19129452,0.21750484,-0.054933906,-0.13045073,0.077976525,-0.034353826,0.2865927,-0.042779446,0.1879622,0.08746906,-0.21118139,-0.27349275,-0.21382987,0.23953061,0.19757494,0.1528928,0.08224596,0.006762984,-0.24417427,-0.2919144,0.12962489,-0.030423531,0.01947807,0.25117633,0.06764906,0.17269032,-0.3041628,-0.16266665,0.2851309,-0.012879416,-0.1150606,0.020048035,-0.30615115,-0.24358182,-0.09621524,0.028134715,-0.13582152,0.1019979,0.24122967,0.17524828,-0.010886676,0.020264862,-0.07270726,-0.12634079,0.3051035,0.13654721,0.2977894,-0.2301918,-0.06937789,0.13861424,0.09932553,-0.11467044,0.19614989,-0.13819005,-0.112959914,0.09998646,0.10564311,0.24676947,-0.18113887,-0.08773119,0.020522371,-0.2987607,0.2699852,0.13809349,-0.0010624856,-0.11515998,-0.1332573,-0.08377649,-0.2917825,0.05018674,0.1313961,0.022982268,0.09875568,-0.11752823,-0.18862444,0.2491445,0.22392763,-0.24809489,0.16751921,-0.058929022,0.09749573,-0.30453357,0.26186675,0.24249297,-0.21600066,-0.1570301,-0.09905538,-0.04283336,-0.27672407,-0.16349049,-0.07954378,-0.22908087,-0.26778337,-0.2225749,0.00970921,-0.2354836,-0.07374257,-0.0038857793,0.14138508,-0.015021493,0.12862952,0.159573,-0.17902468,-0.14335781,0.27349848,-0.20461418,-0.30068266,0.022130024,0.01618147,0.1542813,0.21475042,-0.2534402,0.15551633,0.17390782,0.27615926,-0.24262261,-0.008129444,0.25562522,-0.13523771,-0.17686996,-0.27925444,-0.23266353,-0.121628314,-0.2998328,0.01371993,-0.025086926,-0.018259557,-0.15863639,0.09405339,-0.2333802,0.10437244,0.19978024,-0.14947365,0.13833155,0.056572676,0.0061087636,-0.24985848,-0.23737937,0.0571792,0.1671244,0.1768001,0.21487461,0.2779553,-0.14863035,0.20811081,-0.19665608,0.007120443,0.28253582,-0.25044233,-0.3250988,0.24853498,0.30276468,-0.20119268,0.048551492,-0.14841057,-0.28802964,0.14397827,-0.03122718,-0.013511924,0.24512471,-0.26507565,-0.24691145,-0.049889427,-0.3023977,0.10807136,0.027737144,0.26815832,0.017471353,-0.2417878,-0.2701646,0.16400436,-0.061185356,0.19636525,0.12016101,-0.024010142,0.21851502,-0.16404155,-0.14074247,0.21947403,0.13966858,0.13419062,-0.13772604,0.03704558,0.17943381,-0.14099969,-0.19388604,0.18461604,-0.024539012,0.13424782,-0.16998178,0.017884787,-0.13163087,-0.16464415,0.046036396,-0.13895102,-0.066305906,0.21697384,-0.14157592,0.12340367],"b":[0.007782821,-0.25223607,-0.5236358,0.03885237,0.0076624677,0.0050681783,-0.04269147,0.002161567,0.01612911,0.0026849008,-0.007886777,-0.0064753722,-0.073224366,-0.22076976,0.0020591498,0.011464725,0.12937938,-0.0872883,0.0530222,0.14360023,0.095017076,-0.058752038,-0.004283625,-0.123921745,0.09532718,0.06273665,0.005750524,0.0555623,0.16898915,-0.0032201463,0.0074704513,-0.0141356,-0.0072582527,0.15036736,0.08344218,0.1575982,-0.1449117,-0.03963632,0.000460484,0.25499892,-0.018035822,0.40813994,-0.0031172852,0.2107622,-0.097118594,0.21640585,-0.051652655,0.31625155,-0.31072012,0.007946823,0.002826557,-0.047777146,-0.04817757,-0.0035877458,-0.018898819,-0.09570298,0.06051357,0.056114048,-0.2587788,0.191029,0.0049227653,-0.009000944,-0.0022664953,0.02442499]},"name":"d2","kind":"dense"},{"name":"r2","kind":"relu"},{"dense":{"outSize":32,"w":[0.13699019,0.15985715,-0.27744097,-0.11191511,0.07054727,-0.2189405,0.07710596,0.10501306,0.27111503,0.17513838,-0.041646175,-0.083345294,-0.29270566,-0.14352888,-0.07169588,0.19049123,-0.056340862,-0.13668612,-0.10006452,-0.029229412,0.14005356,0.036833707,-0.050264265,-0.023122065,0.20979041,0.01304537,0.16880034,-0.09585334,-0.22093692,0.15928173,-0.0110655045,0.103490636,0.07785918,-0.07850186,0.042534538,-0.0024745157,-0.086861745,0.011728258,-0.22901799,-0.122351825,-0.1778616,0.15165843,-0.21728788,0.1255039,0.05297474,-0.15937068,0.047011472,-0.14762136,0.20976196,-0.07633498,-0.1984884,-0.1474709,0.15142184,0.08065298,-0.09781262,-0.21752104,-0.029723955,0.09728278,-0.14854191,-0.026375841,0.2440626,0.19482498,0.010645661,0.19536243,-0.1962688,-0.2826203,-0.5530736,-0.103679284,0.15612023,0.21266735,-0.06301064,-0.26395416,-0.09294651,-0.2663262,-0.0744773,-0.055002052,0.09763589,-0.28843224,0.14914817,-0.08061226,0.06161406,0.14416642,0.19950308,0.15069728,-0.049869455,0.076847,0.055298306,-0.010979283,-0.11044482,0.14510126,-0.21976845,-0.19742504,-0.08468765,0.25332302,-0.0033736993,0.22147432,-0.070342064,0.3007198,-0.25969347,-0.060144685,-0.25062713,-0.09252171,0.15260164,0.37507018,-0.18293028,0.46525317,0.012597255,0.028569136,-0.2698502,0.28674278,0.052593846,0.32912228,-0.19913776,-0.07509001,0.24414933,-0.16427968,-0.059628714,-0.09969456,0.28265628,0.081391074,0.13248852,-0.053222086,-0.15391956,0.3266333,0.20597477,-0.19798991,0.08468472,-0.065617435,-0.29733577,0.01639446,0.32390088,0.21387067,0.17061469,0.17257023,0.20924626,0.05663947,0.19313511,-0.13634832,-0.29994014,0.22795784,-0.005059456,0.29652882,-0.25451925,-0.15718503,-0.123639554,-0.12099039,-0.015553414,0.22688931,0.04988247,-0.25859827,-0.19103964,0.2533429,0.1177467,-0.216567,-0.05874548,-0.053270943,-0.055180475,0.08601182,-0.054533243,0.27644002,0.2689546,0.26037574,0.031782866,-0.13483891,0.20778194,0.2308977,0.1078968,-0.031647526,-0.34954518,-0.22347286,0.3049138,-0.063261166,-0.274987,-0.18217695,0.40084425,-0.2934559,-0.14722224,-0.2834196,-0.0602813,-0.11929786,-0.13325058,0.2336533,-0.15483299,0.13673674,0.5969383,-0.24740128,0.3116014,-0.27059555,-0.3026994,0.028161762,0.28882295,0.15641697,0.21594343,0.059359524,0.4908644,0.0038325372,-0.10173227,-0.102101125,0.014444326,0.04021648,0.32848597,-0.25486243,-0.18047236,0.08130502,-0.22991659,0.07055976,-0.1518597,-0.05404525,-0.03401648,0.18370642,0.07641718,0.17166752,0.011083773,-0.017531293,0.23787704,0.18861665,0.15073514,0.032082453,-0.21172976,0.27851257,-0.036231976,0.27958262,0.25644997,0.23543069,0.26724872,0.12809278,0.28736934,-0.1880372,0.16725904,-0.026708892,0.11166447,-0.076427385,0.24325852,-0.3051008,-0.2719608,-0.11462332,-0.037648726,-0.12407339,0.33793208,-0.26380187,0.20112199,-0.23503809,0.101463445,0.11292679,0.123195745,0.16535635,-0.060483743,0.20744507,0.20890471,-0.24446735,-0.14584742,0.10804817,0.092316344,0.23694828,0.115755774,-0.105788514,0.16716722,0.042292934,-0.41212672,0.17731412,-0.031363018,-0.24020077,-0.053143818,-0.25191715,-0.08332206,-0.29796052,0.24319012,-0.22796376,-0.3160602,-0.08113284,-0.15041727,-0.082411945,0.22930743,-0.070278935,-0.21371037,-0.18869947,-0.15050551,-0.1806943,0.19059667,-0.12076092,0.15731288,0.14738606,0.04412838,-0.1582333,-0.22756408,-0.17668988,0.13942556,-0.22370557,0.21889871,0.26889893,0.2286983,0.17144392,0.044675134,0.102138504,0.20889458,-0.16594529,0.18182114,0.20118715,-0.002216094,0.27783296,0.26008776,0.33322948,-0.2656817,0.2975023,0.036547672,-0.009020159,0.05865472,0.27007672,-0.38192466,0.28184894,0.037831333,-0.37187633,0.025139729,0.04396787,-0.11090644,0.23325494,-0.03706328,0.17112225,0.029023971,-0.12009546,0.03500181,-0.2440951,0.121938996,0.093665846,0.008445827,0.14273186,0.063438475,-0.13086191,0.00086266233,-0.30602184,-0.2803183,0.18015634,-0.2380482,0.06088831,0.099491596,0.2783837,0.1456345,0.12881137,0.086545125,0.037726507,-0.03008664,0.010729765,0.115832314,-0.017477496,-0.08070408,0.28982055,-0.24857359,0.32133225,-0.19434153,0.2587788,0.21512407,0.042665478,-0.08402409,0.2422412,0.100035526,0.21374518,0.03871215,-0.22548376,0.17653933,0.19890311,0.18071197,-0.06853747,-0.044143885,0.10144192,-0.1995153,-0.066072255,0.30642423,-0.23091044,-0.31006157,-0.27821964,0.20433402,0.17207396,-0.20136842,0.11662193,-0.16014662,-0.25691748,0.19790891,-0.12899771,0.03278631,-0.0028985753,0.20887119,-0.064159214,0.033980448,0.056729022,-0.05558302,-0.05468064,-0.005602244,0.2126926,-0.10996271,0.21398748,0.25603184,-0.16601358,-0.17567039,-0.058696114,-0.004080307,0.1762922,-0.0704805,-0.10008774,0.041863844,0.30255666,0.1081188,-0.093652315,-0.14601812,0.26586854,0.12917925,0.0300657,0.17069076,0.27751955,-0.011088398,-0.18784249,-0.0004964945,-0.10435009,-0.18006869,-0.17898342,-0.13643014,-0.070033036,0.29475346,0.09262373,-0.20997603,0.21256712,0.06451135,-0.29834005,-0.2734438,-0.11803783,0.18231764,-0.115949966,-0.20273426,0.08960823,-0.21498775,0.16286992,0.28823978,-0.111002564,-0.20094015,-0.12602103,0.15714635,0.20272923,0.06803357,-0.21434271,-0.1134783,-0.27615935,0.22015947,-0.14490159,0.0024419136,-0.10561637,0.0100444285,-0.25563163,0.07120347,-0.11765546,0.014793689,-0.28748316,-0.113814324,0.10642906,-0.25437757,0.2304084,0.119752176,-0.0034000706,-0.084348045,0.29957756,-0.055960327,0.24774346,-0.115553275,0.0051393965,0.15433975,-0.058741752,0.15312397,-0.17577866,-0.23985708,-0.0013197894,0.11438078,-0.31977618,0.13975625,-0.17798704,0.06740005,-0.029838704,-0.07146378,0.10365786,0.30925277,-0.043232244,0.21550247,-0.20721279,-0.2615449,0.14411741,0.34275395,0.3160735,-0.17961809,0.073558405,0.21968518,-0.06914482,0.0094657745,0.116642855,0.107984036,0.3101786,-0.0003814187,0.19932868,0.1464716,0.35723996,-0.20417392,0.09233974,0.26476339,-0.15462106,0.05392499,-0.17520288,0.032575995,-0.5331252,-0.42300946,-0.13411728,-0.08050961,0.33781645,0.036860645,0.26431808,-0.1952302,-0.1354631,-0.16797502,-0.16949731,-0.2525971,-0.10057708,0.20295149,0.16583411,0.2985911,-0.037377033,-0.26078987,0.20650995,0.08970577,-0.20717092,-0.0022097246,0.2499495,0.09049947,-0.13987793,-0.1578691,-0.29795247,0.026357666,-0.11730733,0.060677055,0.21522678,0.16305487,-0.24418446,-0.21762882,-0.12728961,-0.022861635,0.014240971,0.0025223128,-0.023848511,-0.10866272,-0.23907973,0.25285774,0.23762625,0.21958926,0.035554703,-0.09836768,0.2723971,-0.06531264,0.08775038,0.23436762,-0.2909463,-0.27641067,-0.30540103,0.19396554,-0.13964039,0.16485214,0.11157069,-0.023254141,0.30435324,0.07488142,-0.15799707,0.28009126,-0.20509295,-0.03653926,0.0894841,-0.23329072,-0.23679073,-0.018301751,-0.20608947,-0.12855105,0.2669113,-0.21294902,-0.18765049,0.021144578,-0.09850694,-0.11050085,0.16752541,-0.20420812,0.039320543,0.14286174,-0.103915535,0.0756223,0.18726179,0.18310726,-0.1069652,-0.23553528,-0.036490556,-0.1489567,-0.091973834,-0.22796378,0.037729025,-0.24002185,-0.25253296,0.2416816,0.0813522,-0.21311872,0.12193514,-0.087653264,0.27795234,0.13095246,0.24636436,0.13626955,-0.08671334,-0.2742088,0.2702831,0.20850329,0.2757323,0.08004562,0.12623322,0.08458325,-0.15203285,-0.019047871,0.039335344,0.16478252,0.34698138,0.0010141593,0.1261997,-0.12693343,0.18752529,-0.2170536,-0.20109628,-0.20585497,0.06811099,0.016286701,-0.046672963,-0.27866805,-0.032486584,-0.291797,-0.23569931,0.023090845,-0.21457689,-0.16128914,-0.017496375,-0.20816103,0.25133464,-0.22645693,0.19137181,-0.07761919,0.04023293,0.13845885,0.086631075,-0.11526083,0.07333819,0.17036143,0.22110839,-0.102187976,0.23543376,-0.22496405,-0.14388996,0.21246909,0.33515483,0.0114535205,0.07193897,0.24564044,0.048903033,-0.26934937,0.21547958,-0.023053475,-0.15558922,-0.27999574,0.0536212,-0.2832787,0.11245564,-0.045949526,-0.09207805,0.182309,-0.0381254,0.014869287,-0.01323497,-0.28485444,-0.22695014,0.07080297,-0.2744093,0.19966489,0.20751518,-0.11066244,0.09811663,0.10782149,0.119613685,-0.118088655,-0.041279934,0.29218736,0.16818836,-0.07328458,-0.1838722,0.32952264,0.19650519,-0.16201243,-0.2784296,0.15751685,0.18615295,0.095213,0.362058,-0.1007224,-0.039943844,0.14784962,0.16761935,-0.010143344,-0.13424234,0.28880462,0.098708354,0.08594705,0.17022017,-0.19512999,0.042315822,-0.03216009,0.1523546,-0.16450451,-0.013151512,0.16799183,-0.26289237,-0.22419946,0.065255426,0.123213045,-0.15148675,0.016991483,-0.0027390795,0.29336455,0.13949947,0.2644687,0.114109695,-0.07967443,0.0812619,-0.18357384,-0.19121467,-0.28592533,0.2915881,-0.25147706,0.16268225,-0.25183088,-0.07362057,0.10592246,0.239991,-0.0478128,-0.08530536,-0.20067309,0.27124348,-0.16391735,-0.22083627,-0.19377059,0.11262109,-0.3049692,-0.1990381,0.08399782,-0.016826058,-0.15368989,0.03608291,-0.16721708,-0.043628443,-0.20236526,-0.30361983,-0.29294643,-0.30211806,-0.24553436,-0.17536499,0.10706134,0.23513445,-0.00048093701,0.24967875,-0.15260348,0.17789625,0.03870628,-0.2827615,-0.23711306,0.2754913,-0.09606073,0.30173704,0.3766489,0.23066558,-0.06204441,0.19624126,0.2971423,-0.18405017,0.34920046,0.19424225,0.072129264,-0.2986401,-0.20878398,0.4127125,0.1727675,0.14280526,-0.26201007,-0.009403033,0.08927967,-0.057165474,-0.27773997,0.23767483,-0.057466075,0.30155003,0.026373513,-0.09629128,-0.22388037,-0.12737927,-0.24191347,-0.1876784,0.16041666,0.29223135,-0.1991786,0.03580992,-0.31039426,-0.2813057,0.02981508,-0.10411723,-0.057344474,0.17677352,-0.14567745,-0.28723365,0.17222778,0.20594971,0.072704054,0.058042448,0.23766685,-0.103353076,0.34437424,0.0007822002,0.0010771952,-0.30478808,0.27843755,0.16603895,-0.11437556,0.10832949,0.050951783,0.20156147,0.30183125,-0.11277336,-0.2448568,-0.20278442,-0.08506595,-0.19877407,0.11308213,0.1383652,0.19767837,-0.20873985,0.22485949,0.099463895,0.10773319,0.03764825,0.12018038,-0.0730463,0.25099814,0.26460126,0.3736862,0.39524755,-0.013749624,0.0430513,-0.036252595,0.31875044,-0.10396275,0.12677264,-0.14675872,0.27575153,0.013014636,0.19924133,0.021825567,-0.1132451,-0.25456423,0.0033552395,-0.12615584,-0.14744326,0.036389902,0.005552969,0.11157978,-0.2536911,0.27679747,0.28547797,-0.14115976,0.042338554,-0.3058626,-0.30399165,-0.0755207,0.15803765,-0.012979815,-0.09837187,-0.28689617,-0.11278237,0.3662822,-0.18516648,0.30473965,0.26890916,-0.30307528,0.124986276,0.19366255,0.2896671,-0.22398245,0.53401864,0.5072277,0.07378444,0.14263162,0.26255238,0.1259996,-0.063421726,0.096685566,-0.1458166,-0.2102085,-0.0098702675,-0.2565258,0.18580519,0.14849076,0.11272355,-0.10494752,0.03974756,0.042214975,0.044933513,-0.09578518,0.21740702,-0.21747054,-0.08609117,0.07454408,0.17016885,-0.19800664,0.025388146,0.075019754,0.19535334,-0.30239177,0.1057808,0.06483253,0.13726585,-0.0269643,0.26657912,-0.28939384,-0.06489889,0.23445077,0.2257418,0.14607397,-0.28372023,0.07316492,0.14804856,-0.12846532,-0.1346331,0.19552626,0.14027981,-0.0679517,-0.18417175,-0.0035281316,-0.1291155,-0.20909138,-0.035508312,-0.24384923,0.20909007,-0.2798913,-0.14075288,0.027194396,0.05894884,0.2972364,0.06380874,-0.07007977,-0.004531834,-0.027090134,-0.05740209,-0.12186349,-0.16011554,-0.068621,-0.05037707,-0.092579566,-0.29349095,-0.23611861,-0.11121104,0.014200851,-0.0042816256,0.11415855,0.20986296,-0.011853509,0.007368961,-0.28455892,-0.26591754,0.22136867,0.24015613,0.060097575,0.23201752,-0.4163342,0.27106148,0.20533153,0.10429608,-0.008070937,0.12524578,-0.20716652,0.04770033,0.35172573,-0.02464807,0.25536874,-0.48618272,0.064123675,-0.009687968,0.06521189,0.3841545,0.32781944,0.18713501,-0.14389583,-0.090225324,0.23280801,0.13734111,0.06333852,-0.08240734,0.30150604,-0.004105636,0.08413321,0.26843584,-0.01422925,0.26894748,-0.0992375,0.33058432,0.07888116,0.18759179,-0.11544741,0.07970457,0.1541424,-0.1153936,0.045506056,-0.1912983,-0.27685675,-0.11596328,-0.24400552,-0.28402877,-0.685271,0.30294666,0.29144844,0.2668362,-0.016505392,0.012271884,0.0004356669,-0.0015219336,-0.06424511,-0.08907674,-0.28279084,0.11562941,-0.20651048,-0.10137163,0.2552337,0.11702332,-0.15375456,0.03169276,0.29038182,0.19656356,0.106729195,-0.097348936,0.26103702,0.09781211,0.0007610728,-0.09508301,0.16763149,0.30065927,-0.15260868,-0.23356485,-0.112582736,0.3221949,0.00048816897,-0.29369587,0.051739752,-0.21981432,0.07406243,-0.08820718,-0.20397153,-0.1661041,0.2185378,0.071184196,-0.093817286,0.25024676,-0.05708501,0.0026006992,0.19355309,-0.01212929,0.15401247,0.18062888,0.06968907,-0.32001477,0.16037852,-0.12679702,-0.2712422,-0.2776073,-0.13201672,0.28633988,0.05316578,0.31303295,-0.094783776,0.21069042,-0.22168115,0.24264814,-0.1837353,0.11603504,0.17620873,0.07024003,-0.29577023,0.05815255,0.21155304,-0.08581611,0.28107026,0.072720885,-0.3445433,-0.13939252,-0.044508487,-0.10171732,-0.068939544,-0.07295649,-0.26867107,0.048021764,0.28776026,0.06217484,0.103261046,0.16997263,0.06282137,0.24157621,-0.06754761,-0.12313096,-0.18666779,-0.054333765,0.07126037,-0.047487963,0.110703446,0.48019806,-0.29122353,0.114848085,0.10072179,0.15527898,0.04953015,-0.27387723,-0.24858354,-0.27305487,-0.0233647,0.08024668,0.08749881,-0.0071781753,0.07360334,-0.017737493,0.029282138,0.23122245,0.26730728,0.23829453,-0.26699635,0.25284624,0.061831225,-0.24908864,0.4210972,0.34631398,0.13448615,0.17333677,0.19319046,0.24496661,0.3711788,-0.28102237,-0.013994319,0.28947368,0.5487361,-0.076536335,-0.40177453,0.151742,-0.11082819,-0.24239334,0.24949902,-0.034826227,0.028270766,0.18050428,0.11834459,-0.20372838,-0.20170856,0.29990417,0.27530393,-0.29277432,-0.065773785,0.07694791,0.17075132,0.14318165,0.26006436,0.15532559,0.17272174,-0.12490111,0.037533194,0.07957301,0.045500476,0.21844304,-0.18761754,-0.20529889,0.10384436,-0.04796021,-0.08984687,-0.29663387,-0.089698054,-0.09455149,0.11187564,-0.06213843,-0.28981373,-0.24353507,0.13303164,-0.2509522,-0.18647937,0.13389178,-0.18962249,0.23471601,-0.071906224,-0.30433097,0.060141757,-0.096539274,0.24782026,-0.16457999,-0.076929644,0.26406005,0.4095877,-0.0019231302,0.006620068,-0.11658594,0.12545943,0.3312349,0.1973284,0.056145366,-0.13267793,0.57952124,0.67066664,-0.18273087,0.24924436,0.34813476,0.21395913,0.22365782,0.0059958217,0.10937573,-0.018550413,-0.20964614,-0.11395573,-0.23443513,0.16217893,-0.16924722,-0.24364871,0.16036539,-0.02035919,0.27739918,0.1899331,-0.11604517,-0.22576055,-0.16155261,-0.254937,0.057022594,-0.18069752,-0.20997833,0.2832494,-0.15494224,-0.2232852,-0.1626732,0.28964436,-0.19484925,-0.11210096,0.22891723,0.20222768,0.28793678,0.15808997,-0.15877408,0.286295,-0.20792744,-0.081691995,0.24120863,0.2245898,0.07532356,0.2451196,-0.27858245,0.100993834,-0.10972372,0.14534023,0.104498915,0.17479795,0.08325396,0.28254807,0.061617073,0.21730252,-0.29297426,0.14007218,0.08829595,0.023127247,-0.24808921,0.22097598,-0.13325521,-0.15079264,-0.050130345,-0.09156234,-0.19426595,-0.017231911,0.12851673,0.16315536,0.20320821,0.21567099,0.27169374,0.20243655,-0.30032596,0.027795885,-0.2584482,-0.18512703,0.27729502,0.034060605,0.012763843,-0.18473527,-0.124262415,-0.2957854,-0.28184897,-0.025802605,-0.30269626,-0.18542552,0.10005429,0.05442577,0.09805323,-0.15578483,-0.05171736,-0.23776852,0.292957,0.25794122,0.17025173,-0.2688365,-0.109889984,0.24734871,-0.25179976,0.033346366,-0.0153629705,-0.25474855,-0.24657425,0.24581818,-0.25292024,0.21558796,0.009433744,0.036194954,0.11826217,-0.17563686,0.06828458,0.17466293,0.11547812,0.035898793,0.112090565,0.2581377,-0.021889377,0.2984556,-0.27253568,-0.29443458,0.23955664,-0.101233624,0.08062097,-0.17239648,0.17470327,-0.25587064,0.08136722,-0.20304881,0.09025605,0.052341532,-0.18218637,-0.100004844,-0.30428547,-0.30318204,0.25296435,-0.06810635,-0.024848243,-0.24105029,0.17535253,-0.24873948,-0.25897458,0.32124957,-0.13918594,0.11588437,0.042891107,-0.024218915,-0.16538785,0.3359008,-0.18668464,-0.057882797,0.15756622,-0.23315112,0.1336246,-0.07080137,0.29865307,0.2566789,0.122626744,-0.05930284,0.21423379,-0.23799393,0.08532791,-0.05775607,-0.21300155,-0.18363711,-0.044507615,0.27641153,0.1238854,-0.14023726,0.30149958,-0.09269574,-0.11115514,-0.1530852,-0.18381868,-0.04247234,0.10409063,-0.21278745,0.18875077,-0.22811349,0.10772606,-0.3843243,0.29574162,0.28996703,0.25431934,0.0015088548,-0.07704418,0.25670752,0.014991865,0.3911619,-0.047454916,-0.04986671,0.41120744,0.6877221,0.0722355,-0.21754132,0.3274858,0.02316685,-0.27507317,0.24303432,-0.2678483,0.012895182,0.15408647,0.3148257,-0.12795815,0.009282742,-0.23132826,-0.070318304,0.1530702,0.34682438,0.30435732,0.14507544,0.006376556,0.13148299,-0.095463954,-0.29798713,0.20928165,0.34893218,-0.21233438,0.30002105,-0.21512806,0.25231048,0.19270283,0.02281382,-0.43401268,-0.041518684,0.24328876,-0.16466883,0.08301323,0.3098742,-0.2774897,-0.13039093,-0.26145637,0.09666042,-0.17315315,-0.017158087,0.07567635,0.046091028,-0.11058493,0.17256592,0.33267358,-0.25329876,0.29587117,-0.052117676,-0.061341666,0.45427993,0.11109863,0.122225545,0.24563357,0.2565227,0.121428095,0.25257698,-0.37878585,-0.22950555,0.24014828,0.25746235,-0.52916116,-0.55702496,-0.17351702,0.06061289,-0.08677078,-0.10400532,0.119450405,0.041573267,-0.117120445,0.027898049,-0.2025734,-0.27000797,0.036037408,-0.09450816,-0.13077508,0.0153926145,-0.13852684,0.19923268,0.24984741,0.1826513,-0.13791984,0.05192869,-0.10962307,-0.21851295,0.040207006,0.0906058,-0.0672524,0.11248881,-0.05260413,0.109125435,-0.0855688,0.24110962,-0.29671624,0.22192296,0.14496799,-0.0741539,-0.004212007,0.3406392,-0.2995668,0.21746713,-0.027899247,0.0731555,0.29417133,0.30782163,-0.12638111,-0.14135231,0.051503446,0.16872263,-0.050034452,-0.22892383,0.1342819,0.03326143,-0.0726854,-0.12944326,0.0033241257,0.29550308,0.33036625,-0.01677495,-0.07317943,0.20587417,0.0051245037,-0.17999768,0.28569925,0.09711934,-0.26434532,-0.17090155,0.09846903,0.09564013,-0.112211086,-0.24639605,0.027588526,0.22033678,0.1989126,-0.2481958,0.0593751,-0.22770736,0.2787649,-0.092459895,0.28504056,0.29631695,-0.13017374,-0.12191113,0.11942481,-0.27648368,-0.04885727,-0.0060545662,-0.009009373,0.0379047,0.04943666,-0.12528385,0.05534747,-0.19236481,-0.12538907,0.2720923,0.27763867,-0.27520445,0.029383082,-0.012941038,-0.20109063,0.09981904,0.11149597,-0.15139541,-0.0039746575,0.13066138,-0.28661838,-0.23838432,-0.026143968,-0.27298278,0.0033785203,0.14411247,0.0029121535,-0.30612415,0.21984991,0.19850631,-0.09361599,-0.09040948,-0.108794875,0.10686137,-0.09476154,-0.27520025,0.00561839,-0.10335665,0.07089179,0.2802266,0.21911743,-0.22603162,-0.0012276309,-0.03933844,0.225747,-0.3050752,-0.10210776,0.10266178,0.29456168,0.12165009,-0.12446881,-0.27865425,-0.17292428,0.03763856,0.1160055,-0.2331252,-0.2923702,-0.18682171,-0.12114847,-0.20920448,0.05929107,0.23359193,-0.07199016,0.018702323,-0.15816362,-0.21207345,0.16746026,-0.01566127,0.25723863,0.22885539,-0.056112885,0.1922311,-0.24984796,-0.1106498,0.029423479,0.13388424,-0.07997477,-0.015149036,-0.080132075,-0.05187276,0.045281414,0.29244044,0.3052025,-0.15618703,0.18054806,-0.22339536,0.19322473,0.2894768,-0.22050062,-0.04539294,-0.30109608,-0.12584908,0.18823199,0.0074462313,0.2486144,-0.14930478,-0.0011650692,-0.19582093,0.1921777,0.025969813,-0.23846895,0.059271,-0.28706458,-0.1898463,-0.06196127,-0.2372226,-0.044704,0.1303271,-0.011731772,-0.02700341,-0.16956565,-0.16291112,-0.18835664,0.2328755,-0.2616611,-0.062398024,-0.11032527,-0.13792898,0.020854816,-0.018633593,-0.28767768,0.021546094,0.18913448,0.07390179,-0.17175636,-0.17897604,-0.255333,-0.27832988,-0.015389726,0.028105078,-0.27744704,0.073795386,0.1360033,0.032519527,-0.29037884,-0.26555845,-0.27356374,0.26949406,0.058717977,0.20517053,0.09020506,-0.23136531,-0.13500704,0.076931745,0.19368295,0.28480792,0.012302626,-0.037527323,0.1363099,-0.2988427,-0.22138251,-0.24916008,0.28338015,0.24937178,-0.17841074,-0.17572337,-0.08360722,0.13101657,-0.15081231,0.291029,-0.26373053,0.06810712,-0.23476471,-0.2124466,-0.2615837,-0.1383354,-0.104310304,0.019885004,-0.03283854,0.123619534,0.2955167,0.22408795,-0.23806849,0.015015762,0.050503526,-0.25440994,0.18983714,-0.11448624,0.15061267,-0.27148744,0.08565549,0.24787219,0.21738309,-0.15941074,-0.1378543,0.2531595,-0.055269107,0.2551327,-0.24398965,-0.26405227,-0.062368587,-0.12189773,-0.10179197,-0.13601519,0.28667438,0.05899173,-0.2729802,0.1542935,-0.25697243,0.19357735,-0.30042353,-0.30815133,0.107578516,-0.16999225,0.16741818,-0.016300471,0.21501313,-0.046133425,0.13973291,-0.043572575,0.16382965,0.19015466,-0.09383945,-0.18967052,0.3039243,0.24124831,0.07922147,-0.12101732,0.27757496,-0.14322436,-0.2779235,0.3228321,0.18917753,0.19361904,-0.19004227,0.05567119,0.27240664,-0.19748808,-0.05130713,-0.19043887,-0.23484457,-0.18863054,0.06150278,-0.13708022,0.033435937,0.15326644,0.3254174,0.051291972,-0.14264368,0.014054331,0.093627244,0.12860784,0.24045879,-0.010422937,-0.2102241,-0.16679981,-0.14360373,-0.14053161,-0.26787135,-0.21379451,-0.03867093,0.095165856,-0.15253644,-0.049637094,-0.003361855,0.15054591,0.0832053,-0.059785217,0.098135225,0.13131177,-0.117086425,0.048481643,-0.11837167,0.30661428,-0.050054867,0.10129398,0.2107292,-0.0075098886,0.10334093,-0.07366502,-0.1991024,-0.1579189,-0.11097162,0.06863575,0.116414346,-0.18371065,0.10433373,-0.23170426,0.16307597,-0.018829113,-0.0904933,-0.29705456,-0.28609788,-0.04524176,0.19917417,-0.20126295,0.058814883,0.13620591,0.023975885,0.18750215,-0.057918213,-0.2562747,0.22793086,-0.23153567,0.27435076,-0.020913817,0.052822802,0.26553684,-0.06973629,0.17382215,-0.25723776,0.12740324,0.25770342,-0.28417802,-0.12466327,-0.25575498,0.19731636,-0.2240428,0.12870663,-0.20318165,-0.2023437,-0.10593161,-0.28519395,0.1374732,0.17777415,0.2087512,-0.0070404042,-0.18622778,0.116508596,0.28261313,-0.18891424,0.06837368,0.1170592,0.23153368,0.039075665,-0.017610181,0.17271462,-0.28283808,0.06145345,0.2492277,-0.15853964,0.23192061,0.0041885125,-0.017175317,0.016776169,-0.2609879,0.12979673,0.19910207,-0.22869645,0.17302947,0.17966376,0.20052361,-0.20441271,0.16466121,0.28161573,0.015719268,0.108404696,-0.1487233,0.015389049,0.12437633,-0.27279183,-0.2952801,-0.030435855,0.27779192,-0.20840679,0.14425203,-0.2928497,0.14513883,-0.049115676,-0.19799797,0.20861356,0.29574755,-0.1866952,0.058433093,-0.17652306,-0.06999203,0.073592335,-0.22497162,-0.11377995,-0.1487465,-0.09057694,-0.07286644,-0.22542799,0.02115678,0.02016839,-0.05205611,-0.19181795,0.04156783,-0.070611544,0.354565,0.295665,0.16820732,-0.14976396,0.17857489,-0.18557085,0.1616952,0.104723684,0.08568607,-0.28710136,0.05454768,0.09815305,-0.20992434,0.2968125,-0.0665715,0.28471783,0.27755216,0.1676101,0.21842198,0.2166804,-0.09901625,0.14144212,-0.029255772,0.18457171,0.070288554,-0.14485537,-0.051184,0.051120643,0.009094973,-0.28354457,-0.13565029,-0.14845294,0.18505773,0.2645702,0.26412374,0.025572672,0.2889295,0.21218608,-0.04184458,0.07861889,-0.16819404,0.22649008,-0.3273406,-0.15613069,0.14121138,-0.22360319,-0.14754535,0.21223392,-0.16464989,0.3995023,0.06880475,-0.259447,0.095731735,0.12788576,0.08358015,0.11133972,-0.015505266,-0.23251778,-0.22399771,0.15235867,0.16006309,0.06105056,0.0763058,-0.109574474,-0.063991204,-0.040461633,-0.28062987,0.031459194,0.24692841,0.29554906,0.022734055,0.25916067,0.2903807,-0.23527607,-0.18794146,0.13003796,-0.15973777,0.13315924,0.09274598,-0.17557365,0.27616882,0.11712092,0.237706,-0.17950845,-0.25021586,-0.24287708,0.15313092,-0.30163616,0.20238702,0.10033862,0.24216002,-0.26662782,-0.011427611,-0.06684397,-0.2201781,0.064826205,0.020995049,-0.01631082,-0.26898006,-0.09327571,-0.1914107,0.0010063158,-0.10453386,0.26358554,0.041238215,-0.13470846,0.27444088,0.24824059,-0.014135723,-0.11701808,0.15835784,-0.17167988,0.27080655,0.21193358,0.059089627,0.0049913847,-0.29720137,-0.24200916,-0.011516101,-0.27677697,-0.11578505,-0.08163979],"b":[0.0039938116,0.5519314,-0.025111932,-0.18128812,0.265006,0.0652963,-0.0058966186,0.46998575,0.009697856,0.09164942,-0.15417343,-0.03878076,-0.21249801,-0.13405676,0.0047320784,0.1466124,0.029279178,0.098217376,-0.11985129,-0.028590497,0.009628002,-0.067720786,0.2554809,0.21679828,0.044319566,0.044996932,-0.002693035,-0.080241054,0.048403982,-0.0027624266,0.04677346,0.058552094],"inSize":64},"name":"d3","kind":"dense"},{"name":"r3","kind":"relu"},{"dense":{"b":[0.36102217,0.1507048,-0.5310253],"outSize":3,"inSize":32,"w":[-0.4270159,0.56236583,-0.7194408,-0.17609859,0.5064773,-0.38261506,0.11804962,0.7547769,0.26334766,-0.12739235,-0.43553853,0.05709222,-0.4336897,-0.78234005,-0.25049075,0.9487905,0.24074686,-0.62278885,-0.7792741,-0.34662914,-0.006859925,-0.95669645,0.92848015,0.5968623,-0.18679658,0.07165963,0.39335454,-0.49619225,0.25111178,-0.117002465,-0.5028859,0.18800266,0.26930422,0.7554002,-0.25814235,-0.1931044,0.10164814,0.12216,0.37067217,0.32595086,0.026096106,-0.084239505,-0.31889555,0.17677939,-0.5875711,-0.086625084,-0.30678785,-0.7904861,0.45598873,0.86066645,0.34941167,-0.009317705,0.3146614,0.8623675,-0.6086305,0.021637626,-0.13922147,-0.25232682,-0.25066182,0.013230018,-0.070714824,-0.009990006,0.016693233,0.40570858,-0.33550775,-0.87075347,0.5625807,0.6476345,-0.55809015,-0.25138575,0.38021997,-0.7208856,0.11108856,-0.58295965,0.21023056,0.3830735,0.5048826,0.59501415,0.2796556,-0.19418818,-0.124430306,-0.18534583,0.61159515,0.3205415,-0.0034480034,0.029803514,-0.3618524,-0.28762183,-0.3890139,-0.25842282,0.097128116,-0.108725846,-0.3568444,-0.4245914,-0.31038854,0.20440009]},"name":"d4","kind":"dense"},{"name":"s1","kind":"softmax"}]}