{"inputSize":2,"name":"spiral","nodes":[{"name":"input","kind":"input"},{"name":"d1","dense":{"b":[0.3703001,-0.005870736,-0.40137586,-0.008872129,0.1039874,0.20808266,0.103733286,0.24591576,-0.011849741,-0.0020946437,0.004997692,0.02867466,0.06747015,-0.03148972,-0.06338559,0.0018784854,-0.20445465,0.25530747,-0.08646162,0.01400359,-0.27347797,-0.0003241515,-0.0068830764,-0.13897263,0.14648356,0.10074912,0.0033567976,-0.002085917,-0.006452566,0.33579865,0.006564931,0.07703591,0.0065671657,-0.26589105,0.07281226,-0.0007459706,-0.005099663,0.00079161406,-0.54883367,0.21752714,0.012876243,-0.0017563748,0.004083402,-0.0074162697,0.01179956,0.026279839,0.1360318,-0.012680758,-0.007059284,0.050410103,-0.0705653,0.0057031405,-0.16000389,0.0043980633,-0.13628511,0.07739162,0.0022799228,-0.0032213007,0.28516054,-0.41657552,0.0020702838,-0.22061831,-0.05855089,0.0012322282],"inSize":2,"outSize":64,"w":[1.1821713,-0.31474334,-0.090616874,-0.64282537,0.831536,0.93791306,-1.438669,-0.24127682,-0.71591604,0.10678353,-1.4663513,1.7561252,-1.5855249,0.96793413,0.8606143,-0.31674778,0.86782354,-0.6337851,-0.00615011,-0.8275202,-0.9277194,-1.7113205,0.82640857,-0.36847332,1.0976511,0.44115305,-0.65797687,1.4958162,1.5190445,1.4320298,-0.286366,0.16639315,-0.9430933,1.5267555,-0.48494008,0.51412123,-0.44025886,0.43865743,-1.3852051,0.5535818,0.29478866,0.8294337,-0.03223832,-1.1622671,0.047446605,1.3792688,1.4229887,1.355044,0.6169501,0.17268008,-0.34143013,0.94024473,0.52319366,-0.2662477,-0.7523668,-0.89231193,-1.1407864,-0.88900435,1.1537404,-0.62134534,-0.89046204,0.6581559,1.3529407,0.017545654,0.011988235,-1.4237943,0.24014935,1.097033,1.7413605,-1.3946886,-0.19841622,-1.2954208,-1.2758863,-1.1125401,-1.1456482,-1.147929,1.2398146,0.48481932,1.1619939,-0.89630216,1.0373052,-0.08423894,-0.18088058,-1.2879874,-0.43140766,-0.87820894,-1.2987545,0.5370928,-1.0744523,0.37906882,-1.5787162,0.5165391,0.72530675,0.97721785,0.6527248,-0.78251225,-0.12861401,1.7180848,0.43182132,1.6165544,-1.5725437,1.7720923,-1.3848534,-1.1476855,1.0678536,0.7997287,-1.5072758,-0.005456762,1.202055,0.87371457,-1.2607566,1.4639436,0.15292706,-0.24645849,-1.2508037,-0.13966693,-1.5333568,1.696581,0.6696958,1.4461296,-0.16941307,-0.35309038,0.32018995,0.3041486,0.2560426,-0.11846835,-1.2355108,0.008029666]},"kind":"dense"},{"name":"r1","kind":"relu"},{"name":"d2","dense":{"inSize":64,"w":[0.17111671,-0.09248295,0.14006577,0.03572403,-0.28114098,0.13560505,-0.016398273,-0.22347592,0.1101212,0.29085335,0.07145306,0.11341627,0.010513409,-0.028219253,-0.0823169,-0.19519852,0.24871069,0.051616162,0.24571636,-0.113340996,0.061559647,0.30087313,-0.20917585,-0.24527666,-0.18826576,0.22646141,-0.23925115,-0.140932,-0.19639736,-0.04954728,0.2507178,-0.27619484,-0.07449623,0.20459501,0.10121077,0.13124159,-0.17666534,0.06649245,0.2772107,-0.012428751,-0.009492024,0.20299837,-0.019783003,0.018853672,0.29502052,-0.12688123,-0.084862396,0.043585915,-0.05104396,0.022025444,0.06358765,-0.19122306,0.29562497,-0.01536392,0.025716837,-0.09852391,0.21481808,-0.09990007,0.2097171,0.24639244,0.17707181,-0.05112573,0.13496368,-0.27982727,0.106191024,0.063984856,0.0819306,-0.25069854,0.13987944,-0.2402765,-0.04034728,-0.09235935,0.33997825,-0.09370386,0.035193533,-0.28639165,0.21667787,0.26754218,-0.017298631,0.08841263,0.32357535,0.14342014,-0.12331488,0.1820945,0.22048293,-0.017968649,0.046564315,0.11479265,-0.2531785,0.21074755,-0.07341472,0.27300546,-0.18893065,0.16813032,-0.23755184,-0.124199055,-0.20079361,0.04349502,-0.19086212,-0.12891625,-0.27631068,0.19637258,-0.05361035,-0.15840447,-0.12751062,0.28476632,0.014252505,0.26536244,0.033083636,0.039804976,0.049701575,0.112435564,0.053706616,0.0055520553,-0.19045539,0.20639563,0.091847256,-0.23560964,0.31502837,-0.17779805,0.19529456,-0.18828881,0.28931764,0.24068113,-0.24195188,0.09590351,0.28083107,0.26076433,0.2265955,0.2734053,0.41582286,-0.04265338,0.014709293,-0.29445457,0.1081678,0.07250224,0.29791015,0.01491451,-0.26844597,-0.28959525,-0.14743112,-0.2524001,0.41691133,-0.23132439,0.09394128,-0.30634317,0.2727873,-0.06147698,0.35101074,0.19306843,0.08878724,0.2262,0.21448381,0.0019082897,-0.017280465,0.052140232,-0.24337664,-0.33414033,0.17290415,0.14452396,-0.16833295,0.046956487,0.19934839,-0.3019291,-0.20688057,-0.05555359,0.37810844,0.07911588,-0.12518843,-0.20587675,-0.060111575,-0.018911224,0.21155357,-0.14514397,-0.18574005,0.19162972,0.20566308,0.18922198,-0.14893301,-0.10685484,0.14714618,0.1962918,0.3543397,-0.043821383,0.19121486,-0.09034217,-0.21565367,0.39315185,0.055572387,0.26439428,0.20038809,0.054493148,-0.19245225,0.28701502,0.31012824,0.06886107,0.044296887,-0.091399334,-0.24864326,-0.19008851,0.27101296,0.12528263,0.19572617,0.18848114,0.06872646,-0.20430128,0.21812412,0.09753092,0.02803387,0.1737408,0.104158305,-0.21148668,0.25275245,0.124123566,0.2576465,0.14788747,0.13603862,-0.16866428,0.15838286,0.26588294,0.067834094,0.27641338,0.13341948,0.22577983,0.08454248,-0.095330976,-0.23945975,0.23799962,0.08666588,0.049062457,-0.052656826,0.21435519,-0.23580611,-0.11930176,-0.2525857,-0.27697733,-0.02673979,-0.158588,0.09887058,0.22106297,0.038394526,0.23568664,-0.19916186,0.056858033,-0.20538186,0.2592547,-0.19645834,0.07916668,0.22492813,-0.14912981,-0.09995933,-0.10134372,0.20916785,-0.07088476,0.28674778,0.20290442,-0.054689243,-0.08743564,-0.26791814,0.1597869,0.055098247,-0.06989707,-0.17990595,0.17265327,0.15047014,-0.14159448,-0.26803836,0.06438424,-0.17889357,0.20161891,-0.017458431,0.038996276,-0.097586595,0.11407695,0.0008165469,-0.14806822,0.22300503,-0.18036081,-0.03763071,-0.0498459,-0.07280156,-0.09757544,-0.07232107,-0.21475199,0.3033574,-0.018814707,0.11278429,0.14522655,-0.18330292,0.154771,0.2772587,-0.14916004,-0.094262056,0.17864178,0.105793834,-0.2215153,0.15684608,0.029142926,0.26542506,0.18540199,0.1398823,-0.119415455,-0.26079962,0.08246894,-0.19698459,-0.057768915,0.10470372,0.30128348,-0.14895335,-0.20635901,-0.20467493,-0.2540091,0.21526529,-0.24222894,-0.1669433,0.0478178,0.15762134,0.2322821,-0.14463845,0.1916757,-0.2249322,0.2093857,0.08212631,0.04001693,-0.17969514,0.23672788,0.0044975234,0.18405415,-0.22827621,-0.036525484,-0.1941357,-0.06212009,-0.08355004,-0.25941247,-0.28019667,-0.12697288,-0.27615252,0.0029948084,-0.22637407,-0.15679678,-0.2322025,0.21096542,-0.11661173,-0.27423942,0.09264024,-0.017794563,0.10533985,-0.29610288,-0.1903472,-0.17193264,0.14488417,0.121695496,-0.0005582165,-0.25896034,-0.11074338,0.25873566,-0.22567265,-0.0067646997,0.0389858,0.18163905,0.059771266,-0.29021233,-0.16740827,-0.08523006,-0.10934969,0.2795081,-0.04923089,-0.086970955,0.06978985,-0.27286986,-0.29072133,-0.2978799,-0.10755169,-0.0052196076,-0.06675135,0.25516555,0.16102713,-0.012963883,-0.22672743,-0.26768076,-0.28182346,-0.29585826,0.2769927,-0.24323164,-0.10337941,0.16099867,-0.10729397,-0.2660323,0.19055259,0.2722251,0.18844834,-0.28515822,0.18131754,0.28275296,0.20387204,-0.2980038,-0.15809157,-0.116155066,0.31218475,-0.17678285,0.32843176,-0.22678111,-0.2619855,0.01160037,0.07949732,0.20681165,-0.001507186,0.028450843,0.10945348,0.110385105,0.036760394,-0.26604545,0.11912792,-0.21335903,0.2889012,-0.33629164,-0.27248687,-0.12924993,-0.12838368,-0.23400114,0.02617093,0.16930021,-0.051873457,0.11579605,-0.16890223,0.09880988,0.12296315,-0.2676239,0.12094362,0.15543506,-0.10026163,-0.28182557,-0.18350641,-0.2391256,0.08226815,-0.13266219,0.12074286,0.056163434,0.23044524,0.37099218,0.20564142,-0.26168337,0.37957737,-0.018062329,0.019693013,0.13792793,0.22920263,-0.14594185,-0.041727405,-0.03842864,0.043845553,-0.23338448,-0.13222623,-0.2757521,0.026813079,0.07635044,-0.2608219,0.04760982,0.1275821,0.19760738,-0.14976878,0.27375108,0.06424408,-0.050602037,0.011670478,0.29949376,-0.033282015,-0.18683924,0.17983943,-0.21679242,-0.059468914,0.118779056,-0.12066323,-0.26226297,-0.25025788,0.2665704,0.08017519,-0.20413469,-0.23894554,-0.07225816,0.09042428,0.16145484,0.16916285,0.09801476,0.06272833,0.21810238,-0.09502169,0.01092226,-0.29156512,-0.17823164,-0.08862422,-0.17055453,0.28800336,0.20876291,-0.17937581,0.2755754,-0.0041187787,-0.29462382,0.039287914,0.030803176,0.11101724,0.20728199,0.18141052,-0.077237874,0.2515795,-0.10332406,-0.15638545,-0.26640466,-0.0044546905,-0.08116152,0.061251424,-0.2671639,-0.20837393,0.022167802,0.25320786,0.2705755,0.29970098,0.23349229,-0.3374726,0.11106177,0.13241223,-0.2907514,-0.14535813,-0.035736628,-0.10603163,0.10592874,0.34792316,0.015889697,0.0296339,0.048311424,0.11564754,0.09399335,0.028205737,0.09822595,0.18734774,-0.09590028,-0.048346758,0.25285342,0.009954242,-0.084236026,0.10079933,-0.23592877,-0.059459176,0.30560142,-0.071637236,0.18721925,-0.16581115,0.037391324,0.15741402,0.10553917,0.2756476,0.2443725,0.15606615,0.18952978,-0.29609445,-0.0072951443,-0.23393327,-0.32828206,0.059319563,0.2643388,0.19962114,0.31905967,0.24757226,0.16486856,-0.029215787,-0.07163755,0.122652024,0.010530186,-0.27190578,-0.30036306,0.17553422,0.059747092,0.0071336073,0.25581545,0.081370816,0.22393878,-0.25148323,-0.18661694,-0.10606949,-0.26472634,-0.26555926,0.1312218,-0.08847854,0.06416648,-0.0008479919,-0.21675771,0.08182168,0.26543185,-0.11469314,0.017658416,0.08244813,-0.28072512,-0.28983963,0.2600051,0.024382163,0.15935634,0.023990843,-0.09676539,0.27665937,-0.014016094,0.27806404,-0.27554303,-0.077394255,0.106846504,0.07462175,-0.11414839,0.23247096,-0.27476588,-0.1484204,-0.26200578,0.07993889,0.04293896,-0.2128584,-0.30161318,0.20287418,-0.24057966,-0.26938602,0.26950005,0.18855686,0.29557416,0.2459873,0.15443815,-0.28488374,-0.09948218,0.13172656,-0.23732413,-0.13915966,-0.10426785,0.036814,0.09069595,-0.099690616,-0.07315473,0.12644415,0.13411543,-0.08842735,-0.25633773,0.01578818,0.03561982,0.1272248,0.014273456,-0.26000813,0.24723008,-0.052056883,-0.19784707,0.13941224,-0.08930272,-0.18611306,0.06696667,-0.14586093,-0.13405915,-0.29190764,0.13119994,-0.17692554,0.18600035,0.12979734,-0.070872664,-0.217687,0.2826578,-0.13180579,0.27457935,-0.27153802,0.004582934,-0.113721,-0.26339203,-0.1295573,-0.19807062,0.1340285,0.09216391,-0.089013636,-0.14517528,-0.176729,-0.0830666,0.12878859,-0.11516794,0.17474319,0.074161306,-0.06099543,0.16473523,-0.05213536,0.047309935,0.1290507,-0.12735116,0.017798724,0.24484034,-0.036551837,-0.16686228,-0.21039613,0.23871513,0.09100321,-0.17304935,-0.24022491,0.2041571,0.1937652,0.26508152,-0.13268234,0.114266165,-0.259237,-0.10038842,0.027458403,0.1588307,-0.18516198,0.13600323,-0.1244543,0.21034594,-0.17909834,0.22386259,0.18761994,-0.17058349,0.104928344,0.20016745,-0.07334992,-0.30559263,-0.12434111,0.29799303,-0.064579315,-0.032223456,-0.06945531,-0.15592119,-0.100237094,-0.1842149,0.08097177,0.012840457,0.06866688,-0.112110786,-0.11945999,0.14316526,0.071617454,-0.19981776,-0.27802745,-0.24865203,0.30516627,-0.23147777,-0.14683276,0.30194092,0.29219794,0.015992362,-0.2831278,-0.061893407,0.21252204,0.15240647,0.06915599,0.19110826,-0.012157392,0.25744903,-0.1256808,0.19669138,0.29745507,0.26995054,-0.026397012,0.102115124,-0.28662834,0.21632613,0.1051157,0.006689509,-0.24839298,-0.2702925,0.1416244,0.10629553,-0.15675482,0.03286219,0.21049248,-0.18137448,0.062424175,-0.04112455,-0.10525602,-0.30293265,0.11240275,0.08724459,0.31594282,-0.05862178,0.18973671,0.09844878,-0.23633555,-0.045205846,0.11272878,-0.030937884,-0.024821807,0.03435392,-0.06149636,0.05501865,0.0022360217,-0.18327451,0.12863477,0.07422837,-0.10196863,0.23706557,0.11117479,0.10983419,-0.04460433,-0.12615965,-0.23550023,0.05944363,-0.21337096,-0.101068325,0.225978,-0.087425835,0.19766645,0.25880024,0.22494751,0.29754195,-0.25960463,-0.16891909,0.22772643,-0.053848807,-0.0851484,-0.17946178,-0.14446852,-0.080281384,0.17976344,-0.2224785,0.035863277,-0.031264514,-0.04157593,-0.03198874,-0.21981798,-0.24628566,0.041061133,-0.020382926,-0.26149154,-0.2221496,0.1567542,-0.06429779,0.06019485,-0.1917854,-0.06303946,0.08220457,-0.01548624,-0.1304816,-0.14801863,-0.011768199,0.058024175,-0.11125862,0.08581586,0.21027191,0.096356794,-0.18748704,-0.1837358,-0.2603003,0.1435673,0.15452723,-0.006696193,0.05860731,-0.26878902,0.29439977,-0.23912686,-0.21245576,0.13116474,0.048453644,0.18629955,0.1374781,0.26720202,-0.16351603,0.034580585,0.026779534,-0.023835687,0.3282581,0.22792579,0.28687963,0.15969107,0.1870072,0.0052036205,0.17770363,-0.016253663,-0.08429657,0.25780073,0.037648715,0.18131576,-0.114484034,0.17750886,0.26869395,0.40352646,0.13400307,-0.023891797,0.14840871,-0.14611892,-0.087131426,0.23662071,0.052164342,-0.17464642,-0.055322275,-0.076323435,-0.24985774,0.15925063,0.12875432,0.3522099,0.24819355,0.367049,0.25709,-0.09058863,0.10172523,0.030764326,-0.0051546926,-0.03513769,-0.019367784,0.31453767,-0.21805947,-0.050309636,-0.017025465,0.23059036,0.041081935,-0.28199098,-0.24124607,0.2352391,-0.29414988,-0.23869038,-0.30266124,-0.08432109,0.19282323,-0.08539476,-0.27983004,0.2084907,-0.21140437,-0.24961118,0.16181386,0.24287243,0.30242714,-0.049455512,0.2416488,-0.11552885,0.26045153,-0.17701027,-0.09124772,-0.21566388,-0.24648036,-0.0771977,-0.15774696,0.19392943,-0.30091482,-0.028595569,-0.042207565,-0.22538221,0.1249707,-0.041788816,-0.17048062,0.20736992,-0.16790421,-0.098640025,-0.09891905,-0.12985407,0.2478435,0.1558207,-0.050542563,-0.2629121,0.23730224,-0.29510772,-0.21550597,-0.076672845,-0.23970953,-0.15979259,0.10722581,-0.29795817,0.10013776,0.27368292,0.23547204,-0.26474744,0.22210814,-0.27818125,0.2791048,0.29034674,0.017731452,-0.061437402,0.001795301,-0.23593411,0.15081427,-0.27124637,0.021223364,0.11348429,0.24456257,-0.032327592,0.29421815,-0.27121955,-0.23007981,-0.050592206,0.025040787,-0.25996587,-0.08108166,-0.18190165,-0.07408567,0.063951015,0.19394061,-0.035768352,-0.2927562,0.27921274,0.13225418,0.16884997,-0.24689634,0.21736889,0.23616628,-0.14958511,0.2808237,-0.15748572,0.04099514,-0.23007485,-0.16707814,-0.24863838,-0.25063735,0.011040484,0.09460418,-0.07038769,-0.12062843,0.058996186,-0.25518182,0.007816272,-0.13372561,-0.021432012,-0.2180503,0.08810387,-0.26176515,-0.20306383,-0.1368187,-0.14072812,0.15735441,0.22911674,-0.276874,0.007308068,-0.023988524,-0.050661888,-0.05789559,-0.13919131,0.12442744,0.12513769,0.24862327,0.045827866,-0.090763606,0.11388449,0.27301577,-0.067040555,0.11453864,-0.25836343,0.109369315,0.11762573,0.028561233,-0.17106873,0.20781475,0.24048372,0.07886316,0.22048342,-0.2873068,0.17736334,0.2465236,0.19667539,0.24894093,0.22842701,0.28643152,-0.23535284,-0.15821615,0.18852872,-0.26440933,0.05492057,0.24187179,0.038448293,-0.20220771,-0.07817425,0.25679535,-0.04985077,-0.2543624,-0.13399684,0.10852457,0.059466142,-0.21801887,0.1621232,-0.05778567,0.004153728,0.29210535,-0.034136537,0.22791103,-0.16825844,0.19472337,0.17248544,-0.077126145,0.09169479,-0.13435028,-0.24690603,-0.30710688,-0.19062652,0.02292124,0.0073299906,-0.15346919,-0.21698889,0.015729703,-0.0778062,0.12317774,0.24809875,-0.3175383,0.19929338,0.2232459,-0.19479339,0.06035717,-0.030732933,0.20152101,0.06994903,-0.16483057,-0.2516649,0.27496898,0.2528283,0.12372636,0.26445946,-0.20548531,0.19223481,-0.13578428,0.20502427,0.30021808,-0.12973203,0.22492547,-0.02322307,-0.0929764,0.032149184,0.23869419,0.1792885,-0.09841728,-0.17585325,0.12989105,0.21837685,-0.063337915,-0.16429059,0.13200535,-0.014388633,0.053786565,0.038766325,0.105551474,-0.08140162,0.22533311,-0.06707031,0.16559716,-0.013623898,-0.08534921,0.029853266,0.26670334,-0.27776995,-0.07967826,-0.24073808,-0.16568215,-0.06612849,-0.30713725,0.15509453,0.18711649,-0.19572768,0.010139249,-0.24462579,0.0315219,0.17448127,0.27542517,-0.23813944,0.3149079,-0.08177954,-0.16271983,0.112148836,-0.06586524,0.27155787,0.22578743,0.1418735,0.10979284,0.25102496,-0.18464243,-0.045853842,-0.069078095,0.17410699,0.3096873,-0.1868654,0.21220088,-0.11101755,0.109422036,0.015298967,0.2255848,0.22960633,0.07719877,0.10090683,-0.16505797,-0.27256975,0.2430893,-0.0010345811,-0.11116749,-0.23556456,-0.17684284,-0.21779293,0.089745305,-0.19919701,-0.2723292,0.17417479,-0.05401441,0.1902124,-0.1437385,0.018484006,-0.26716897,0.1401046,-0.13694228,-0.02590918,-0.13788404,0.078362405,0.12155001,-0.08510637,-0.13314109,-0.26241916,0.20317681,-0.17530136,0.09012231,-0.204487,-0.052299995,0.3130946,0.1386615,0.026800059,-0.21101128,-0.2058188,-0.13061926,-0.20947027,0.077521294,-0.17390317,-0.28843874,0.2515308,-0.2659219,0.10699903,-0.17336488,0.10219345,-0.24793485,-0.024826864,-0.30308238,-0.087635405,-0.09546874,0.035060223,-0.17322005,-0.19118218,-0.3690746,-0.15634517,0.34124234,0.043191947,0.122540005,0.15415877,0.17902009,0.19978079,-0.22722515,0.12847382,-0.18635531,-0.150249,-0.25910383,0.08861698,-0.121056326,0.02712595,-0.036191195,0.21567549,-0.21795222,0.1987391,-0.014651596,-0.11109379,0.19976309,-0.20755419,-0.12609455,-0.13938813,0.18055493,-0.23471306,-0.13059448,-0.23906077,0.07856666,0.08854787,0.29350284,-0.062055845,-0.008683989,0.14288561,0.06741898,0.045141272,0.15173246,0.015488805,-0.15010838,0.062014993,-0.2942824,0.12298588,-0.19160795,-0.006755616,-0.16184455,-0.30189255,-0.13736247,0.08511317,0.20499524,-0.2505233,0.26162603,-0.3074606,0.16978797,-0.29050145,0.19117877,0.15194382,0.21751812,0.23563682,-0.18395841,-0.27264035,0.04333006,0.24404596,0.13339627,0.24010965,0.05737636,0.013989171,-0.2492825,-0.22708291,-0.11861588,-0.024939956,0.10379656,0.10966671,0.0828529,0.22941235,0.0047368077,0.27808994,-0.14465077,-0.2779928,0.042669002,-0.056986462,-0.083770186,0.14597179,0.29278776,-0.1481714,0.15182644,0.25248265,-0.016434217,0.08901435,0.13107625,0.27078775,-0.04824342,0.30733436,0.008441082,-0.30257246,0.27262217,0.14196253,-0.25941095,-0.19973254,-0.04380093,0.23283103,-0.22799936,-0.22556145,0.29392728,-0.26061118,-0.27508718,-0.2058599,0.0942005,-0.07488369,0.10012476,-0.2055861,-0.019079352,-0.11073539,-0.21140079,-0.25577822,0.22671352,0.100998536,-0.020687427,0.14186199,-0.05655018,-0.2770757,0.104428396,-0.17923304,0.05686446,0.29692566,-0.13101377,0.29784742,0.05684588,-0.1303463,0.28246418,-0.025320783,0.30321857,-0.10711943,-0.28330788,-0.14024189,0.16648477,-0.25020692,0.055306222,-0.07436046,-0.20596588,0.11075569,0.052654818,0.1405205,-0.15676641,0.271565,0.23715949,0.2557361,-0.14995468,0.078229845,0.030795364,-0.19022962,0.25356886,-0.062570125,-0.2526144,0.25938624,0.28521112,-0.08015349,0.1260832,-0.023239741,0.17123851,-0.072862,0.21304606,0.043238778,0.17592248,0.057777036,0.10395002,0.1394844,-0.08979009,-0.20837812,-0.0064372765,-0.053046145,0.23080513,0.33672193,-0.23525403,-0.23321128,0.30041382,0.21802373,0.13885292,0.14412566,-0.16441391,-0.02989488,-0.08186816,0.26084515,0.24341644,-0.19701017,-0.21792132,0.072206676,0.21666467,0.092878625,0.011015846,-0.27118543,-0.18274577,0.07718181,0.097495325,0.09033565,-0.11697056,-0.1706193,-0.26559332,-0.07480133,-0.0658577,-0.033988643,0.11641471,0.21817178,-0.04544304,0.010867583,-0.024558531,-0.2988888,0.2316475,-0.04208905,0.15134764,0.21360691,0.30048075,-0.2633911,-0.09885205,-0.0824546,-0.24061985,-0.05105163,0.046495542,-0.050453883,0.19756699,-0.059127346,-0.22808054,-0.01482837,0.24458122,0.23394878,-0.2182581,-0.18060087,-0.22697933,-0.28030077,0.19207709,0.07480875,-0.19244216,-0.09961851,0.13816024,0.07452718,-0.22136877,-0.0020137,0.05939447,-0.010726819,-0.0685906,-0.28828865,-0.1549141,-0.025197286,-0.037744317,-0.042144366,-0.22652642,0.27040136,0.1692121,0.15068866,0.2799829,-0.3050339,-0.14956811,0.048177637,-0.15429072,0.09121943,0.31950516,0.18618748,-0.24451287,-0.18017289,-0.24142088,0.029005246,-0.015333386,0.026559621,0.27052656,0.06725489,-0.0759135,-0.036428582,-0.16553651,0.04147696,0.22687526,0.19496518,-0.17628366,0.11179355,0.08292541,0.0460148,-0.117195114,-0.17783964,0.07072239,-0.18247108,-0.22621436,0.34628758,-0.3945303,0.030401966,-0.11128866,0.18624596,-0.097667076,0.06230639,-0.2512285,-0.35776424,0.0060454914,-0.09632822,-0.09109721,-0.11181504,0.030595955,-0.115984954,0.0802532,-0.17039873,0.117779225,-0.034214392,0.31379622,0.317182,0.14591001,0.11004293,-0.060210783,-0.34468615,0.2853441,0.007326775,0.18058473,0.20465897,0.13772105,0.20912333,-0.24079362,0.053745333,-0.07197795,0.3126046,-0.28018278,0.2106052,0.25052285,0.121755816,0.28192943,0.23539402,0.26382676,-0.27342528,-0.2889948,0.22063339,-0.23101336,-0.17862819,-0.11590064,-0.22577657,-0.0070506535,-0.004891519,0.09892868,0.12382035,0.09441833,-0.20071828,0.25039917,0.10888543,-0.22714354,-0.13135731,0.24606186,0.24718736,0.10464784,-0.0077259517,-0.22068642,0.015829751,0.12438483,0.19596575,-0.27169928,0.010651991,0.09742229,-0.081561744,0.14002271,-0.31092802,0.21136166,0.25183564,0.22969657,-0.19230983,0.045184985,0.020429937,0.09419474,0.25807142,-0.27524713,-0.10756238,-0.2777511,0.029191684,-0.089909695,-0.19242282,-0.3009724,0.23345353,-0.28760535,0.15382275,0.041961044,0.24369523,-0.20155698,-0.21653068,-0.0772767,0.056528643,-0.0311571,0.07486954,-0.13363749,-0.08648332,0.24912395,-0.08405405,-0.12790012,0.20555077,0.21745266,-0.074064784,0.18664253,-0.27829772,-0.09067746,0.14197369,-0.025185373,-0.17856295,0.020779384,-0.0669369,0.17278393,-0.18202765,-0.29058436,-0.28883415,-0.12313669,-0.07092003,0.26953495,-0.27052286,0.005620266,0.020920595,-0.17131041,0.059173755,0.18884538,-0.26570168,0.05289927,-0.21870238,-0.057518248,0.03663586,0.045256834,0.012210865,0.17987998,-0.14655228,0.24954978,-0.3156753,0.122891575,0.21150723,-0.044507027,0.014289991,0.19113272,-0.007206368,0.07660978,0.08417597,-0.16900563,0.14519508,0.04704947,0.18626672,-0.1365325,-0.2563978,-0.17802487,-0.2762136,0.12872365,-0.20522037,0.014486795,0.1496732,0.16670646,0.17918089,0.27114603,0.0728221,0.107421234,0.07619272,0.094774485,0.25451842,-0.124546975,0.0069421767,0.1712771,-0.3052802,0.02354879,-0.29948357,0.0038569884,-0.003123501,0.2796452,-0.13348287,0.2850635,0.07838493,-0.0678625,0.12031874,0.13601735,0.29856232,-0.124227375,-0.27776784,0.04273093,-0.22401142,0.23677583,0.22391103,-0.03837223,-0.20713313,0.054897048,0.28748575,-0.269189,0.19444786,-0.2710212,0.21264489,0.29029623,0.14841291,0.03679082,-0.16864263,0.19880934,0.19250914,0.010366361,0.29365087,-0.08772859,-0.16546859,-0.2945814,-0.14784275,-0.2092015,-0.058519248,0.2057536,-0.0695731,0.17303604,-0.21332574,-0.021277871,-0.24603376,-0.01516955,0.024634853,0.26706973,-0.119661644,0.29256204,0.031770214,0.2884559,0.1722615,-0.26122704,-0.22877866,0.04310423,-0.19228207,0.24408077,-0.06787439,-0.17381734,0.11439269,0.28854007,-0.08061323,0.23106027,-0.18064074,-0.2423485,-0.2712319,-0.21068552,0.12734506,0.0046107564,-0.21285698,0.28638682,-0.16131023,0.25407213,-0.059372738,-0.081240855,0.1259915,0.3042859,0.23381618,0.035009027,0.14727652,-0.25812522,0.27434355,0.00452464,0.14435549,0.21258569,0.09859387,0.24153303,-0.28259248,0.17118727,-0.12195859,-0.04653476,0.19756207,0.04834683,0.21334758,0.20066144,-0.13585956,-0.19186828,-0.069836855,0.0059819655,-0.05860943,0.024069767,-0.18981521,0.13236167,-0.17359826,-0.2714004,0.22413358,0.14316322,0.11924017,-0.1441355,0.09392097,0.23484632,-0.07593326,0.2897416,0.18219092,-0.16373721,0.08659967,-0.18999714,0.30675793,-0.04614302,-0.089519456,0.20940521,-0.24759248,-0.0077958214,0.08106736,0.18238255,-0.33958548,0.14515175,0.123923615,-0.10787516,0.13102445,0.2603154,0.07463238,-0.23815137,-0.18625423,0.24890219,-0.060726274,0.22622028,-0.17280765,0.053315684,0.08825304,0.05745357,-0.26536947,-0.07862473,0.056147326,-0.089325234,0.048225764,0.18534115,-0.20243862,0.00422075,-0.21034794,-0.2550751,-0.3470847,0.13376021,-0.067411825,-0.09745114,0.12565856,-0.009791202,-0.020284234,-0.30131617,0.18541068,-0.16581036,-0.078821816,-0.13578345,0.14236191,0.022630202,0.13600418,-0.039739825,-0.0029410557,0.086318985,-0.29074323,-0.019029073,-0.21251461,0.14698361,0.17652091,-0.03490281,0.21533248,0.1968097,-0.15131538,-0.09774308,0.12268282,0.2930213,0.114561744,-0.25684342,-0.254476,0.20279758,0.23405752,-0.2570058,0.23279089,0.19134884,0.18382722,0.08086147,-0.28903985,0.080992416,0.17565903,0.06804985,-0.113070875,0.23601232,-0.15801819,0.10944255,-0.017631844,0.052031096,0.17764273,0.019111052,-0.16799825,-0.2011189,0.017759949,0.012143704,0.0322095,-0.23667674,-0.05365698,-0.17567597,-0.24037579,-0.20789827,0.29026625,-0.25283,0.20514163,0.13388355,-0.05434974,-0.24187215,0.2264825,-0.27190432,0.28758693,0.18820255,0.007012171,-0.14952461,-0.27871418,0.27961448,-0.1118574,-0.049885094,-0.11988487,-0.22667985,-0.2089604,-0.061312523,0.30108988,0.17876355,-0.011315127,0.06749395,0.1848788,-0.21521625,-0.16782518,-0.0006839628,-0.017069539,0.28465462,-0.20233311,0.060326762,0.17568351,0.07008821,0.053410113,0.10070319,-0.1435063,-0.18764576,0.17827854,0.12726755,-0.25824133,0.28917533,-0.08108078,-0.25177032,-0.23639104,-0.20397715,-0.11368185,0.0774998,-0.20934303,0.12912071,-0.14699374,0.004291735,-0.044507995,0.022413777,0.2926483,-0.17410861,-0.20659652,-0.19744128,0.245496,0.042341486,-0.1972134,-0.22907048,-0.07234852,-0.23189147,0.2642552,-0.05361871,0.15596098,0.2733743,-0.14080967,0.2165071,-0.21505885,-0.0054056128,0.2934546,0.1900906,-0.18751758,0.090799466,0.21999411,0.16213806,-0.123527534,-0.11938437,0.077173926,-0.14975403,0.02883198,-0.29732046,0.14755584,-0.1801017,-0.121917255,0.20902339,0.10169161,-0.004840717,0.27003822,-0.105257414,0.28304073,0.17508776,-0.13004504,-0.29074717,0.07061696,0.13404663,0.14016773,-0.060851287,-0.15964906,0.2340036,-0.05821016,-0.058015905,-0.2404293,0.24768284,-0.04853996,0.27252132,0.018036818,-0.24485171,-0.03253878,0.023598649,-0.08689819,0.095205076,0.17114952,0.265851,-0.08731546,-0.19829477,-0.10184956,0.1746006,0.123615615,0.17536525,-0.06657833,0.1680742,0.25062856,-0.057195824,0.23991281,0.1326417,-0.19167522,-0.08079079,-0.29604095,0.27090326,0.24981233,0.23538949,0.17478448,0.07177753,-0.03319755,-0.0016952903,-0.086528026,-0.008612597,-0.29945138,-0.087638415,-0.26503384,0.15596677,-0.25776848,-0.097921126,-0.038646985,-8.079329e-05,-0.17773381,-0.04335486,-0.08959564,-0.021886867,-0.25531074,-0.022720635,-0.017745012,-0.11748329,-0.050571505,0.3047846,-0.17545302,0.22298229,-0.14630814,0.16018713,0.04415814,0.1918202,-0.2730764,0.099731766,0.23191155,0.050071068,0.10417184,0.11866572,0.0045311768,0.059512842,0.0630234,-0.033509832,-0.28606904,0.016565489,0.13873574,0.12625591,0.2594244,-0.27249488,0.092086315,0.016692217,-0.06003549,-0.13122231,-0.2523061,0.16625883,-0.20981842,0.2292841,0.07882282,-0.025922436,0.2178498,-0.12417815,0.25759506,-0.18747674,0.06813599,0.26822445,0.0764671,-0.24879014,-0.11413059,-0.28875217,0.149112,-0.27969527,-0.027780937,-0.09238339,0.03102601,0.01672817,0.30347604,0.06339643,-0.17862971,-0.16662547,0.24354571,-0.059761465,-0.28689256,0.22949429,-0.22377114,-0.008812162,0.097073056,0.18181081,-0.023620293,-0.10853216,0.07326602,0.16341239,0.14701097,0.005963483,0.080665626,0.017257862,0.018228168,-0.22927302,-0.12801504,-0.2228147,0.092613615,-0.1286543,-0.21256714,0.07064593,-0.20919067,0.24626392,-0.22952949,0.1980686,0.14923994,0.026602613,-0.24418853,0.1119666,-0.27483118,0.20105034,-0.14400391,0.16496886,-0.020931074,0.1806256,0.020425422,0.003775979,-0.22785376,0.25919592,-0.21221387,0.2855937,0.067021914,0.06359933,-0.0684074,-0.090483725,0.1292472,-0.22207886,0.13755397,0.27100304,-0.2587299,0.21295583,-0.013272117,-0.2505329,-0.06252988,-0.007961214,-0.13059452,-0.06577174,-0.20811364,-0.11258168,0.016430179,-0.09495305,-0.2602075,0.10913167,-0.06931543,0.20179367,0.15288581,0.13462672,-0.22451448,-0.11915391,-0.27311188,-0.21870421,0.036326393,-0.30119145,0.045921896,0.06584578,0.09834088,-0.035214666,-0.07792377,0.14222327,0.20526436,-0.2653317,-0.10204479,0.05857805,0.1922992,0.22432768,-0.12871663,-0.06142561,0.12311244,0.09581665,-0.09231217,0.20631602,-0.23317434,0.096605636,0.13655365,-0.1637602,0.015105836,0.033613585,-0.26933074,-0.17767031,0.18447384,0.020812016,-0.277894,0.09109541,-0.124964096,0.27952713,0.09827842,0.27223614,0.15389827,-0.10789206,-0.018102255,-0.2275658,0.25716278,0.27463576,-0.1439091,-0.1472863,-0.25979912,0.030984035,0.14060745,0.2860765,-0.051240135,0.22086808,0.10192457,-0.01936091,-0.16834183,0.14088784,-0.21717513,-0.16324991,-0.18295695,-0.18116863,0.016206238,-0.12887065,0.27393922,0.042914174,0.050265446,0.08754354,0.086036585,0.046285722,0.27134922,0.14592998,-0.092427135,0.26751032,-0.30709106,0.15433,-0.19900693,-0.14144346,-0.2663117,-0.2548215,0.12386887,0.26077417,-0.21435367,0.17845859,0.17774877,-0.30265033,0.08419705,0.14847694,0.20122048,0.19474837,-0.124656335,0.22423397,0.2532376,-0.22910866,-0.16297086,-0.061726376,0.22453173,-0.1899046,-0.034688536,-0.09221567,0.0070787477,0.18466674,-0.056842353,0.23163381,-0.17234443,0.16213569,-0.16983144,-0.24401787,-0.25033063,0.113554515,0.19722222,-0.18958753,0.2146503,0.07772632,0.20658375,-0.043543536,-0.27377948,0.21545388,-0.01510827,0.15263349,0.083118066,-0.024551501,0.030453628,0.29108083,-0.023225797,-0.23688985,0.12588464,0.19818094,0.13515192,-0.25065348,0.23895486,-0.22592762,0.30353498,0.09727936,-0.17048949,-0.07161671,-0.29642886,-0.16572203,0.12906474,0.040207427,0.16376303,-0.21888687,0.26958075,0.03845521,-0.05924288,-0.00606269,-0.25778386,0.14634109,0.2053257,0.19925039,-0.14382012,0.011780261,-0.16254537,-0.09171901,-0.24309303,0.12043327,0.32601166,-0.3009812,-0.1852486,0.19722457,0.08845242,0.08860542,0.11802766,-0.07378769,0.053745404,-0.24431264,-0.14259075,-0.15854837,-0.2755173,-0.005248455,0.06623319,0.09041599,-0.035184134,0.15236932,0.24183197,-0.012152884,-0.041678723,0.057400867,-0.29603806,-0.0003536596,-0.21296355,-0.16490878,0.25615966,-0.21364444,0.026608847,0.085160695,0.2842473,0.22973011,0.23367201,-0.14875686,0.15449819,-0.30468035,0.031495202,0.22590989,-0.13420823,-0.14545701,-0.061762955,0.20148821,0.04923959,-0.20454742,0.25479373,-0.28559673,-0.057635687,-0.16861188,-0.23139904,0.1503988,-0.020674625,-0.28441173,0.31224042,-0.09364302,0.283488,0.13008834,0.26958063,0.1545089,0.084271,0.10644588,0.063836396,0.13490513,-0.14704023,0.0297639,-0.19839898,0.124016434,-0.016077837,-0.12135144,-0.24245238,-0.1476792,0.1909773,0.087483965,-0.018182943,0.20479003,0.2688997,0.15744795,0.30467215,0.2692303,0.097316794,0.15518793,0.06326886,0.09255706,0.3115791,0.06734847,0.2898791,-0.040162038,-0.22404127,-0.20089392,0.10679444,0.13293189,-0.26248428,0.08019478,0.064120844,0.034240313,0.039412465,-0.056852266,0.108230785,-0.049339294,0.044981424,-0.18025015,0.104120016,-0.13799857,-0.07172272,0.007642603,-0.102971144,-0.078230724,0.28337452,-0.1708552,-0.289989,0.2367097,0.03796518,-0.25414357,-0.01693761,0.2896343,0.07231983,0.24669679,-0.28782302,0.11065954,0.21925806,0.16296223,0.18772379,-0.3004908,-0.01870486,-0.2239184,0.19159883,-0.119826175,-0.21698059,-0.065389894,-0.29869995,-0.00792851,-0.2565943,-0.15943317,-0.22287852,-0.20537926,0.10080002,-0.096656546,-0.16933157,0.03602056,0.12577294,-0.1934024,-0.07740804,0.23428072,-0.29510126,-0.05746801,-0.004581602,0.24468099,-0.26002946,0.29618913,0.07874212,0.15782098,-0.23195294,-0.086990826,0.25658485,0.23514596,-0.14266768,0.21936387,0.081192344,-0.07881567,0.15621977,-0.25373465,0.013411686,-0.23547131,-0.25622806,-0.022983218,-0.046835013,0.2031854,0.20609234,-0.30260682,0.018285308,-0.007352445,0.12609622,0.09930406,0.27782154,0.15178995,-0.010241115,-0.28982136,-0.018483171,-0.09107221,0.03387469,0.14319056,0.06803624,0.047968656,-0.108655185,-0.16318475,-0.025219101,0.2595662,0.13312323,-0.06758571,-0.114391156,-0.26824352,-0.17489527,-0.176326,-0.11248554,0.19988453,-0.021797372,0.109581865,0.27031648,0.20046826,0.1496097,0.06845051,0.17167377,-0.12505278,0.08436534,0.29487798,-0.02025789,-0.22787414,-0.11748575,-0.058417562,-0.19146381,0.09017323,0.03164552,0.22941881,-0.18476446,-0.09063848,0.2042538,-0.05173448,-0.09827045,0.2562831,-0.2937885,-0.14353876,0.10554153,-0.047387507,-0.26683003,-0.12180759,0.1078954,-0.13729268,-0.08648587,-0.28330684,-0.06951256,0.28333512,0.16090138,-0.13902864,-0.24260946,0.09782505,-0.31409433,0.27856368,-0.15830679,-0.23999764,0.24497259,-0.00460759,0.09096466,0.11853633,0.09202765,0.10045692,0.08460507,-0.1310676,-0.13411209,0.16484042,0.19275326,0.2788516,-0.09980833,0.27650845,-0.08535372,0.03195602,0.13350423,0.21778476,-0.02501304,0.25098196,-0.27163172,0.26109198,-0.27952972,-0.22917767,0.07698718,0.23064752,-0.09642667,0.2463243,-0.12773614,-0.23965019,-0.15743156,-0.15146352,-0.18777598,-0.10900321,-0.12719907,0.23443511,-0.31982914,-0.14000872,-0.18571036,0.08042387,-0.18856405,0.021554139,0.27991802,-0.06549917,-0.20976926,-0.1965035,0.2918091,0.20659795,0.32802916,0.019960267,0.11364726,-0.22287859,0.062799335,0.16053078,-0.04486548,0.064669594,-0.0808412,0.04470834,0.29868457,0.09023808,0.18585041,0.1945985,0.2027844,0.049983285,-0.14761087,0.2655031,0.29464895,0.14426357,-0.18811476,0.21398476,-0.21194887,-0.20948604,0.16550598,-0.14323728,0.13070212,-0.06895607,0.09735408,-0.042180818,-0.017958565,-0.24914531,0.12063069,-0.14732082,-0.10480441,-0.2610065,-0.0123943575,-0.15603141,-0.018084468,0.22774325,-0.3081804,0.024715811,-0.2948047,0.30324996,0.24413055,-0.2661791,-0.12880246,-0.29236183,0.13288562,-0.30067912,-0.19678576,-0.087338455,-0.3748096,0.2283247,0.16576049,0.29590362,-0.15936579,0.28413552,0.045723405,-0.119190454,0.14163052,-0.152765,0.16719325,0.12364887,0.11988591,0.04022732,0.08211123,0.04694581,-0.06424766,0.16118857,0.08410924,-0.037942585,0.26698783,-0.07670118,0.018117808,-0.10242564,-0.08760567,-0.20709026,-0.269665,0.08525781,-0.13139072,-0.10856322,-0.28808126,0.12659489,0.2156062,0.16291544,0.2568699,0.2639117,-0.009090969,-0.29707474,-0.03376975,0.17639166,0.090519615,-0.10420546,-0.20367306,0.03828609,-0.16630872,-0.2219606,-0.1958367,-0.07973507,-0.20260425,-0.06743922,0.036831886,9.836815e-05,0.09979969,0.26325843,-0.1875626,-0.27932936,0.05708722,-0.20537825,-0.009952886,-0.20752022,-0.1604158,0.13732684,-0.20353334,0.21431191,0.13327454,-0.29653594,-0.018555373,-0.22723942,0.07797331,-0.14809172,0.22935048,0.2895874,-0.023440858,-0.22617948,-0.13327183,-0.039793696,-0.18659027,-0.16051045,0.10848515,-0.22846813,-0.14930339,-0.002923998,-0.15041597,0.3043554,0.0032514415,0.15659119,-0.17692173,0.04982699,-0.21614079,0.06441687,0.32444242,-0.12838997,0.16753197,0.054489642,-0.092712194,-0.16349326,-0.1550692,0.19632275,-0.062422607,-0.1185785,-0.18542427,-0.027840938,0.14663002,0.012877447,-0.029992772,0.1321895,0.23116653,-0.06343468,-0.258009,0.123677485,0.029455274,0.06568051,-0.27838922,0.1542547,-0.10276056,0.18016468,-0.0860335,-0.13681945,0.29175094,0.24017411,-0.1620659,-0.14920987,0.2588183,-0.27916136,0.07725898,0.02477151,-0.2149266,-0.10368664,0.12972401,0.27354172,-0.31104442,0.021039287,0.16551101,0.01465022,-0.25553727,-0.10666664,0.053169515,-0.1395528,0.1623584,0.083595395,0.15560415,0.11345144,-0.02942057,0.20309271,0.14139268,0.16027886,-0.094287395,0.08790927,-0.077655494,-0.18797742,-0.2600213,-0.2111669,0.17053173,0.18139806,-0.21396662,0.21321139,0.21046089,0.0044819014,-0.28540874,-0.14631961,-0.2408312,0.2718027,-0.21337458,0.30616063,-0.15764262,-0.0926388,0.13182116,-0.18585715,0.10890195,0.28389445,0.04320239,-0.21092464,-0.18295361,-0.23303233,-0.22586475,-0.21402869,0.2646788,0.27164412,-0.059901375,-0.20869423,0.2059147,-0.17367356,0.054991633,-0.32811016,-0.21031539,-0.21414864,-0.011801806,-0.05178909,-0.30765703,0.29521865,0.26891422,0.28850347,0.31349805,0.066596,-0.05420365,-0.25715968,-0.20250443,-0.024225252,0.15237135,0.054318152,-0.28900707,-0.29623345,0.24326448,-0.033629633,-0.011952839,-0.16207246,0.17000273,-0.08551134,0.10256056,0.1557673,0.14396156,-0.15485269,-0.10598434,0.31833184,0.2932142,-0.077266455,0.014323296,-0.26502034,0.25079435,-0.27479017,0.010255332,0.21352065,0.20478782,0.013173507,-0.24277838,0.09403077,0.17109758,-0.10083198,-0.09873387,-0.0045687845,0.13736047,-0.16759335,0.20885666,-0.037711766,0.21133852,0.23202354,0.18216954,-0.24977946,0.04481732,-0.10908581,0.07229814,0.060440972,-0.15763608,-0.17603272,-0.22651398,0.05699148,-0.15270756,-0.059709217,-0.15444022,0.042817563,-0.30193523,0.12787487,0.13650289,-0.18051165,-0.29827607,-0.06763765,-0.30996096,0.18491393,-0.13154942,-0.20042889,0.30184248,-0.21683079,-0.26679116,0.18230341,0.13762438,0.1036463,0.12261926,0.3010172,-0.05160636,0.05659381,-0.29642996,-0.26874235,0.06581687,-0.25153717,0.25453958,0.24805109,0.2542203,-0.29101115,0.21817644,-0.29181308,0.18903154,0.088526376,0.081649095,-0.0046383594,0.06381861,-0.29380447,0.06989091,-0.052295867,0.044596963,0.29702118,0.37125134,0.10711339,-0.3003194,0.19573969,-0.18129762,-0.3044649,0.11974359,-0.082538776,-0.1224108,-0.29235795,-0.015440739,0.2972373,-0.017709896,0.2153311,0.044455588,0.15930307,-0.21919778,0.104839884,0.13261211,-0.21338628,0.19957136,0.33542424,0.2780919,0.13799854,0.12951604,-0.07445999,0.33787566,0.005505003,-0.08845878,0.13915005,-0.21482633,0.013519124,0.26037294,-0.19435295,0.12918024,0.041377727,0.051438887,0.16141137,0.14451087,-0.026039438,-0.2947233,0.111672156,-0.37558627,-0.30566874,0.19421554,0.08787871,-0.059595883,-0.12674518,0.12409334,0.044355206,-0.04358885,-0.27074733,-0.2754637,0.032443617,-0.08982575,-0.027815338,-0.003327006,-0.09867899,0.139271,0.08317332,0.23876193,0.30053264,0.24384128,0.10738356,0.21075736,-0.0241104,-0.016373152,-0.22388662,-0.14618304,0.037323598,-0.22772355,-0.17974779,0.097697504,0.1468685,-0.24064322,-0.10773866,0.26735714,0.1635389,0.24689437,0.03957346,0.043054316,0.09599999,-0.20561689,0.20016405,-0.2836828,0.014182544,-0.066017725,-0.25672957,-0.04070903,-0.20248058,-0.21261412,0.044785652,-0.20940115,-0.23430853,-0.24825798,-0.067741856,-0.0222655,0.018380938,0.22995387,-0.03711619,0.109431155,0.28767952,0.11522019,-0.2209485,-0.03502544,0.26660645,0.005337215,-0.2698358,-0.19311285,-0.28357816,0.1542445,0.20400092,0.11084877,-0.23128434,0.17669982,-0.06721933,0.14306282,0.008074549,-0.06331905,-0.28574952,0.034030657,0.22304693,0.06263134,0.16561486,0.11523797,0.19400616,-0.01939861,0.17852078,-0.0084195575,0.08113113,0.26368922,-0.050040517,0.2931225,0.32520205,0.12292205,0.1285557,0.24539581,-0.23931806,-0.17826201,-0.16967623,0.27020264,0.1950158,0.29435346,-0.04121235,-0.26430726,-0.007191459,0.25822142,-0.006590958,0.022548791,-0.007436106,-0.003958127,-0.1325013,-0.00038688432,-0.12643425,0.2553643,0.17977268,-0.041621502,0.18546982,-0.14863022,-0.04998537,0.26773283,-0.073855996,0.10356849,-0.23029846,-0.30229917,0.13567644,0.025518369,-0.2018809,0.07410229,0.038799383,0.111854844,0.08446992,-0.037889306,-0.2239299,0.053701818,0.18494284,-0.09615159,-0.21478769,-0.20959428,0.12726218,-0.18753833,0.33904463,-0.21742761,0.18072376,-0.2881136,0.24311249,-0.006977952,-0.18849958,-0.120929904,0.15488105,-0.16665894,-0.30504265,0.21109046,0.24988584,-0.26028743,-0.17244476,-0.17628366,0.15856151,-0.22777206,-0.043992028,-0.10004248,0.20283747,-0.113458015,0.30001327,-0.006534164,-0.048819475,-0.21330063,-0.04083583,-0.29453152,0.054225784,0.058150217,-0.010038407,-0.08675666,0.030252751,0.21645546,-0.1418072,0.2844644,0.087327816,-0.19810708,-0.08874277,0.020506056,-0.021306816,0.14045188,-0.018843433,0.14264481,-0.29359046,0.19227667,-0.058524363,-0.2841717,0.24942335,-0.11121268,0.21108212,-0.28458753,0.11470223,0.033572778,0.20714964,0.19746734,-0.087367125,0.26859072,-0.17800675,-0.048298035,0.23733261,0.23793954,-0.15780242,-0.20974419,0.2374182,0.02686115,0.02231592,-0.13885933,0.013391064,-0.2647607,-0.0612356,-0.14111452,0.10109092,-0.0041924724,0.06462773,-0.28782162,-0.20191406,-0.27364215,-0.09555882,0.25707424,-0.00035043884,-0.27479625,-0.05956814,-0.12996769,-0.10989754,-0.3052637,-0.18115307,-0.07420769,0.055065837,-0.043103065,-0.29533124,0.062169332,-0.1415588,0.24262588,0.2081488,0.007964024,-0.035585638,0.033086885,-0.2695207,-0.29991874,0.29832128,0.29073566,0.26990736,-0.11430347,0.023601385,-0.05655848,-0.13575335,-0.1453674,-0.117440864,-0.117359065,0.22894734,0.23787339,-0.09391104,0.21771894,0.16514885,-0.10027834,-0.19659401,0.28337908,0.22900894,-0.29762825,-0.20942739,0.034905218,0.12834623,0.11335578,-0.032728326,0.18138288,-0.29585743,-0.0517647,0.10661787,-0.24898732,0.08568348,-0.1430241,-0.25960264,-0.07840847,-0.30501026,-0.22299865,-0.25435972,0.14846328,0.2942427,-0.14595756,-0.1089447,0.25112867,0.27943832,0.2861584,0.100251414,0.21651939,0.015192639,-0.09015902,-0.2615808,-0.04017195,0.24544813,0.06356611,-0.100615785,0.18409838,0.09323424,-0.2872054,-0.19180673,0.21695623,-0.10995399,0.16779713,-0.011805203,0.29471716,-0.26176822,-0.2071044,-0.015593068,-0.17330892,-0.1070163,0.057713088,0.10762115,-0.3136369,0.29982015,-0.12287983,0.13461721,-0.18746088,0.20803593,0.3142429,0.24153757,0.25448516,0.17215228,-0.06892068,0.105483025,0.08062979,0.19877744,0.037848357,0.076665804,-0.15358514,0.056007717,0.04535547,0.27297232,0.24747673,-0.18878622,0.098634206,-0.1094201,0.2616477,-0.20041919,-0.17231968,-0.15274319,0.19412622,-0.2497266,-0.26787558,-0.063723095,0.13032722,-0.009404919,0.18920478,0.050167978,-0.120115966,-0.28432944,-0.18933232,0.13271281,0.028834078,0.19884297,0.34811303,0.1363047,-0.0015241156,0.16991149,-0.18737818,-0.2013545,0.1295928,-0.117070824,-0.041924946,0.23324525,-0.12943025,-0.2912761,0.050253533,-0.2591649,0.14268057,-0.1913534,-0.017801972,-0.14699183,0.2009705,0.17111562,-0.15491481,-0.07696719,0.24970055,-0.26461318,-0.3593207,-0.2786915,0.24010016,-0.058117192,0.0066737323,-0.0038401114,0.20785736,-0.1170429,0.032597374,-0.20704739,0.48192343,-0.020974318,0.0022690836,0.2957312,0.08354292,-0.050984237,-0.19288915,0.14129372,0.29547185,0.084118955,0.21825095,-0.10922581,-0.2131297,-0.26270008,0.18402375,-0.23751535,0.10313016,-0.03650747,-0.14108269,0.03211806,0.22928923,0.27338088,-0.16745909,0.20348611,-0.17539506,0.0029073174,-0.28194296,-0.27083236,-0.29493615,-0.04295201,-0.05257933,0.16271313,-0.02638108,-0.23223262,0.057290453,0.23879568,-0.27165705,0.16586144,-0.23556656,-0.2647956,-0.027729325,0.077563785,0.078133956,-0.2839021,-0.00831492,0.1917918,0.10259423,-0.17134286,0.0069565447,-0.24297857,-0.27666673,0.21569458,0.28123838,-0.10462466,0.05789008,-0.2737389,-0.04401393,-0.2029401,-0.21036306,0.27759025,-0.2485198,-0.0024643503,-0.2314401,-0.28323942,0.22032842,0.26020625,-0.09344553,-0.20366782,-0.26093647,0.22019136,-0.1786869,-0.2818737,-0.20279926,-0.24763077,0.12866203,0.021249529,-0.22226878,-0.24168214,-0.3036262,-0.008466505,-0.120856315,0.13955766,-0.0009673579,-0.24111609,0.23028,0.0767306,0.19192728,0.08208372,0.14817417,0.08672763,0.25612783,-0.022222918,0.024354162,-0.133942,-0.24757893,-0.1351264,0.078604564,0.004779485,-0.11056868,0.1669663,-0.079258434,-0.03118563,-0.29149738,-0.2644587,0.081497766,0.07755579,0.17029046,-0.18800963,-0.032774262,0.1465942,0.073136926,-0.21293513,-0.2540429,-0.1622688,-0.23738988,-0.09220327,-0.14876345,0.1003541,0.26148838,0.24266906,0.08691383,-0.24220286,-0.051683202,0.2077029,-0.17150669,-0.24210049,0.13295874,-0.050626956,0.13079539,0.23236278,-0.025854336,-0.15123405,0.2621048,0.24477185,0.13012859,-0.26744184,0.15207656,0.23157908,-0.109442435,0.16937868,-0.010062731,-0.2608344,-0.4058655,-0.27785125,0.14597729,0.09359681,-0.07066769,0.5295405,-0.009416822,-0.40311596,0.29528156,0.15071885,0.29281557,-0.2745955,-0.1739111,0.47587308,-0.07663096,-0.06091858,0.47101468,-0.049589988,0.2637939,0.03914255,0.31102702,-0.059186567,0.085484736,-0.080396235,-0.35105303,-0.18110299,-0.19886087,-0.3032463,-0.13454026,-0.4487901,0.30173868,-0.13147159,-0.15668933,-0.07538699,0.061269753,-0.13414496,-0.107067786,0.056281332,-0.104223184,-0.26666346,-0.16003954,-0.2980288,0.27706453,0.2971177,-0.10639892,0.23758493,-0.23180799,-0.28877637,0.3029571,0.2884571,0.4995074,-0.012881118,0.04513759,0.18052359,-0.08725855,0.12668522,-0.21501498,-0.24087134,0.41748264,-0.24842234,0.013573126,0.28504077,0.30011466,-0.2616944,0.38031343,-0.0051296162,-0.226758,-0.2278764,0.07124809,-0.5638048,-0.14972794,0.13300008,0.31189603,0.30190212,-0.21616907,0.18630064,-0.07160582,-0.40682423,0.27692634,0.16218774,-0.46550503,-0.2899393,-0.10718362,0.06315046,-0.35287568,-0.1629064,-0.104190364,0.31009305,-0.1279665,0.12370758,0.2133552,-0.07554796,-0.02482011,0.44414592,0.101699375,0.4686475,0.034374796,-0.3674495,0.45572641,0.24684677,0.0087290695,0.061035413,0.035268445,0.44102237,-0.023836501,-0.2543033,0.2381916,-0.1737535,0.14778076,-0.12318449,-0.11667039,0.29811573,0.09185242,0.05889678,-0.5816666,0.25388685,0.039178804,-0.26724574,0.28446302,-0.49455777,0.15157992,0.17127202,-0.38677853,-0.15006872,-0.15138201,0.07302504,-0.14582992,0.19538945,0.24555418,0.10077611,-0.25400954,0.25486594,0.020956425,-0.19395302,0.0077021406,0.025763376,-0.06090222,0.18036471,-0.22965537,0.29972413,0.08222445,-0.16384637,0.022781087,0.23477049,0.05676773,0.17000951,0.25775278,-0.2436238,0.15499249,0.056949213,0.11435701,-0.27176166,0.1645072,-0.05785056,-0.22224249,-0.114789926,0.1808959,-0.038033873,-0.11558334,0.006376935,-0.27999222,-0.109157726,-0.14275448,-0.06464592,0.11102633,-0.12405524,-0.011234458,0.23011254,0.025285432,-0.27547526,-0.081371814,0.3048796,-0.04828834,0.09740645,-0.22744204,0.25027198,0.062352013,0.089886904,0.061440434,-0.21549904,-0.16588049,0.30102685,-0.20573959,0.059612874,-0.055598523,-0.22678776,0.18133141,-0.16227187,-0.06731172,0.1624728,-0.17588937,-0.21835865,-0.27668968,-0.096923895,0.2730523,-0.2680608,-0.1743212,0.059177455,-0.004745771,-0.2079648,0.025170546,0.2103264,0.21770665,0.24729365,0.079455875,0.008608065,-0.18067108,-0.2097864,0.22350697,-0.16990112,-0.10286692,0.057032984,0.3011419,0.06673949,-0.068358555,0.36108264,-0.28306726,0.02461202,0.27851558,-0.29354033,0.1076052,-0.004896286,-0.032466806,-0.13233808,0.0276912,0.20400171,0.14570741,0.050390117,-0.27717555,0.29794472,0.21576864,0.3072884,-0.030084113,0.29414183,0.006349546,-0.12040281,-0.10290382,-0.27796072,0.27114558,-0.065794304,0.2710351,-0.08851107,-0.17722274,-0.2778441,-0.044999693,0.14551307,0.22062773,-0.12982678,-0.1755955,0.18866041,-0.15141018,-0.051175985,0.19215155,0.03590088,0.20433123,-0.24053869,0.12275674,-0.1819615,-0.069725595,-0.23762634,0.00051599613,0.17578341,0.11042449,-0.23168889,-0.11380085,-0.034314025,-0.10424599,0.23183478,0.08074278,-0.008481585,-0.06833493,-0.07563335,-0.115063995,-0.107033044,-0.21943368,0.31001866,0.12751704,0.30214307,0.30304924,0.2592072,0.11622762,-0.28041565,-0.16665335,-0.13203473,-0.08778579,0.07633683,-0.12543185,-0.2859204,0.067822196,0.08798372,-0.26195857,0.23922364,0.27907592,-0.20374706,-0.27965447,0.28049755,0.035208777,-0.15948741,-0.21934463,0.14001825,0.33542666,0.020007772,-0.089485504,0.14923342,0.23946136,0.2398201,0.2460084,-0.11543957,0.064002626,0.2139845,0.23740208,0.32300755,0.12938432,-0.10537461,0.3635194,0.07830736,-0.14533043,-0.17752331,0.018009309,-0.252743,-0.2790319,0.087638944,-0.085195124,-0.065415934,-0.18046872,-0.17189494,-0.24412215,0.0920646,0.21793674,0.30410308,0.18344504,0.22539717,-0.07327356,-0.106178656,-0.15373598,-0.18340477,0.22404367,-0.05302613,-0.16020194,0.054954328,0.13061571,-0.2908945,-0.08054934,0.009821047,-0.22091305,0.040034488,0.2528624,0.2808741,-0.15852238,0.1776131,-0.23595642,0.10577033,0.07741796,0.15134004,0.20504431,0.17443678,-0.24520257,0.031938918,0.036747422,-0.2688344,-0.109468535,0.22050159,-0.046666365,-0.1683147,0.29908752,-0.04255381,-0.29532143,-0.047875855,-0.10023695,-0.14043039,-0.06390605,0.08950601,0.25333202,0.01910306,0.04347343,0.26805624,-0.2057008,-0.19129452,0.21750484,-0.054933906,-0.13045073,0.077976525,-0.034353826,0.2865927,-0.042779446,0.1879622,0.08746906,-0.21118139,-0.27349275,-0.21382987,0.23953061,0.19757494,0.1528928,0.08224596,0.006762984,-0.24417427,-0.2919144,0.12962489,-0.030423531,0.01947807,0.25117633,0.06764906,0.17269032,-0.3041628,-0.16266665,0.2851309,-0.012879416,-0.1150606,0.020048035,-0.30615115,-0.24358182,-0.09621524,0.028134715,-0.13582152,0.1019979,0.24122967,0.17524828,-0.010886676,0.020264862,-0.07270726,-0.12634079,0.3051035,0.13654721,0.2977894,-0.2301918,-0.06937789,0.13861424,0.09932553,-0.11467044,0.19614989,-0.13819005,-0.112959914,0.09998646,0.10564311,0.24676947,-0.18113887,-0.08773119,0.020522371,-0.2987607,0.2699852,0.13809349,-0.0010624856,-0.11515998,-0.1332573,-0.08377649,-0.2917825,0.05018674,0.1313961,0.022982268,0.09875568,-0.11752823,-0.18862444,0.2491445,0.22392763,-0.24809489,0.16751921,-0.058929022,0.09749573,-0.30453357,0.26186675,0.24249297,-0.21600066,-0.1570301,-0.09905538,-0.04283336,-0.27672407,-0.16349049,-0.07954378,-0.22908087,-0.26778337,-0.2225749,0.00970921,-0.2354836,-0.07374257,-0.0038857793,0.14138508,-0.015021493,0.12862952,0.159573,-0.17902468,-0.14335781,0.27349848,-0.20461418,-0.30068266,0.022130024,0.01618147,0.1542813,0.21475042,-0.2534402,0.15551633,0.17390782,0.27615926,-0.24262261,-0.008129444,0.25562522,-0.13523771,-0.17686996,-0.27925444,-0.23266353,-0.121628314,-0.2998328,0.01371993,-0.025086926,-0.018259557,-0.15863639,0.09405339,-0.2333802,0.10437244,0.19978024,-0.14947365,0.13833155,0.056572676,0.0074045956,-0.24985848,-0.23656699,0.0571792,0.16656078,0.17494407,0.21425591,0.2790077,-0.14673671,0.20811081,-0.19665608,0.008817197,0.28451377,-0.25078592,-0.3219557,0.24852629,0.30275723,-0.20315799,0.048551492,-0.14841057,-0.2880294,0.14397827,-0.03134763,-0.010328612,0.2459052,-0.26619425,-0.24576046,-0.049889427,-0.3023977,0.109483145,0.027669095,0.27074292,0.017471353,-0.2417876,-0.26653713,0.16400436,-0.061185356,0.19636525,0.121314734,-0.022132628,0.2206602,-0.16404155,-0.14074247,0.21947403,0.13966858,0.13419062,-0.13684055,0.038316406,0.17889115,-0.1405393,-0.19406337,0.18461604,-0.022323227,0.13424782,-0.16737655,0.017055769,-0.13133346,-0.16464415,0.043671343,-0.13840665,-0.066305906,0.21704407,-0.1412079,0.12340367],"outSize":64,"b":[0.010522308,-0.2393888,-0.47870332,0.038643092,0.0076624677,0.0050681783,-0.03686089,0.002161567,0.016319966,0.0026849008,-0.007886777,-0.0064753722,-0.06844058,-0.21020977,0.0020591498,0.012305743,0.11829685,-0.08459096,0.047882993,0.13664578,0.08650762,-0.056031954,-0.004283625,-0.120515384,0.083718166,0.054966435,0.0053788796,0.05434898,0.15305346,-0.0027573304,0.0074704513,-0.010325583,-0.0072582527,0.14077781,0.07660581,0.15072086,-0.1291102,-0.037023835,0.000460484,0.241713,-0.01786689,0.38102195,-0.0031172852,0.19976452,-0.08491938,0.20150466,-0.043213297,0.3136866,-0.29165873,0.007946823,0.002826557,-0.052335985,-0.04362012,-0.0035877458,-0.018898819,-0.08862671,0.06608052,0.049142454,-0.23831193,0.1789797,0.0049227653,-0.009000944,-0.0022664953,0.021237608]},"kind":"dense"},{"name":"r2","kind":"relu"},{"name":"d3","dense":{"w":[0.13699019,0.15985715,-0.27744097,-0.11191511,0.07054727,-0.2189405,0.07710596,0.10501306,0.27111503,0.17513838,-0.041646175,-0.083345294,-0.29270566,-0.14352888,-0.07169588,0.19049123,-0.056340862,-0.13668612,-0.10006452,-0.029229412,0.14005356,0.036833707,-0.050264265,-0.023122065,0.20979041,0.01304537,0.16880034,-0.09585334,-0.22093692,0.15928173,-0.0110655045,0.103490636,0.07785918,-0.07850186,0.042534538,-0.0024745157,-0.086861745,0.011728258,-0.22901799,-0.122351825,-0.1778616,0.15165843,-0.21728788,0.1255039,0.05297474,-0.15937068,0.047011472,-0.14762136,0.20976196,-0.07633498,-0.1984884,-0.1474709,0.15142184,0.08065298,-0.09781262,-0.21752104,-0.029723955,0.09728278,-0.14854191,-0.026375841,0.2440626,0.19482498,0.010645661,0.19536243,-0.19503918,-0.2698081,-0.51098883,-0.10083299,0.15612023,0.21266735,-0.06572517,-0.26395416,-0.07921708,-0.2663262,-0.0744773,-0.055002052,0.09585705,-0.2720644,0.14914817,-0.0809487,0.052683007,0.14835775,0.2001657,0.14773297,-0.051359493,0.08128667,0.055298306,-0.015301826,-0.10962143,0.13969347,-0.2196697,-0.19046365,-0.09574032,0.25591826,-0.0033736993,0.22147678,-0.070342064,0.29066578,-0.2654982,-0.062275145,-0.2330673,-0.08617428,0.15260164,0.3655021,-0.18460001,0.43852752,0.012597255,0.020670328,-0.26101935,0.27227825,0.049243364,0.3220724,-0.18653525,-0.07509001,0.24414933,-0.17250888,-0.061099607,-0.09969456,0.28265628,0.07716132,0.12458398,-0.052536454,-0.12987642,0.31650886,0.20597477,-0.19798991,0.08468472,-0.06516685,-0.29293805,0.017009243,0.31691256,0.21128708,0.17061469,0.17257023,0.20924711,0.05663947,0.19399045,-0.13634832,-0.29994014,0.22795784,-0.012120197,0.29134047,-0.25451925,-0.1570032,-0.11946835,-0.12224273,-0.015550107,0.22515768,0.04988247,-0.2562921,-0.19103964,0.25334305,0.11773415,-0.21363455,-0.05874548,-0.05700723,-0.05308735,0.084693335,-0.054533243,0.27644002,0.2689546,0.26428112,0.034700714,-0.1349457,0.2062872,0.22644426,0.1078968,-0.034724124,-0.34581238,-0.2218742,0.3049138,-0.064235866,-0.26886705,-0.18287516,0.39129558,-0.2920292,-0.14641033,-0.2834196,-0.0602813,-0.1189669,-0.13324617,0.2336533,-0.15483299,0.13674013,0.578037,-0.24734853,0.30886734,-0.266654,-0.3026994,0.028161762,0.28882295,0.15642326,0.21507724,0.052340344,0.47122228,0.00090437906,-0.10173227,-0.102101125,0.010782306,0.04021648,0.31729963,-0.25486243,-0.18047236,0.08130502,-0.23318572,0.061029866,-0.1518597,-0.053861126,-0.02856079,0.1792335,0.076422565,0.1714177,0.012320854,-0.020134179,0.23787704,0.18358336,0.15108837,0.035052724,-0.21172976,0.27404246,-0.03348892,0.2782478,0.25644997,0.23543069,0.26724872,0.13327841,0.29065984,-0.1877533,0.16053194,-0.031418923,0.11166447,-0.073592186,0.2426702,-0.298745,-0.2719608,-0.11318168,-0.037885502,-0.12218397,0.3337265,-0.26522163,0.19346298,-0.23503809,0.101463445,0.114850685,0.11794631,0.16535635,-0.060483743,0.19828361,0.20079981,-0.24441361,-0.15540291,0.10697258,0.092316344,0.23694828,0.115755774,-0.105782166,0.16807596,0.04542735,-0.40384623,0.17672022,-0.031363018,-0.24020077,-0.046183635,-0.25191715,-0.07989857,-0.29796052,0.24319012,-0.22796376,-0.31134665,-0.07635708,-0.15041727,-0.08260699,0.22146069,-0.067858666,-0.21525942,-0.18747313,-0.15317465,-0.1797811,0.19059667,-0.11071356,0.15372354,0.14416865,0.043901306,-0.15798381,-0.23282833,-0.17563608,0.13942556,-0.2237111,0.21889871,0.26458684,0.22471121,0.16897891,0.046192005,0.10428211,0.20889458,-0.17005074,0.18270676,0.19428416,-0.002216094,0.27330735,0.25501186,0.32947534,-0.25924855,0.29780832,0.04055022,-0.009020159,0.05865472,0.269778,-0.37294146,0.28184894,0.037831333,-0.35532603,0.038089704,0.042110894,-0.10830519,0.23194149,-0.03706328,0.17112225,0.029023971,-0.12116575,0.035122704,-0.24358435,0.1255057,0.09167447,0.008445827,0.14273186,0.06346634,-0.13086191,-0.00044045885,-0.30602184,-0.2803183,0.18015634,-0.23972222,0.060641125,0.099491596,0.2783613,0.14689125,0.12947267,0.08842549,0.03627505,-0.027992299,0.0109843565,0.115832314,-0.017477496,-0.07722146,0.28950605,-0.24829145,0.31932724,-0.1950395,0.25938934,0.21512407,0.042672254,-0.08402409,0.2398371,0.10020402,0.21317768,0.041443475,-0.2260693,0.17653933,0.19696462,0.18045227,-0.07122663,-0.044143885,0.099786535,-0.19890852,-0.06926469,0.30372265,-0.22863108,-0.30981913,-0.27821964,0.20433402,0.16958584,-0.20136838,0.11662193,-0.16014662,-0.25691742,0.19187447,-0.12681177,0.03620612,-0.0056098793,0.20887119,-0.064159214,0.033980448,0.05804957,-0.05558302,-0.054762952,-0.0058309697,0.21269037,-0.10996271,0.21398748,0.25603184,-0.16601358,-0.1757524,-0.058696114,-0.004080307,0.1762922,-0.07047061,-0.10018958,0.041863844,0.30256003,0.10819918,-0.09368445,-0.14601806,0.26589364,0.12917925,0.030038547,0.17069076,0.27751955,-0.0110883815,-0.18779029,-0.0004964945,-0.104383,-0.18000011,-0.17900716,-0.13643014,-0.070033036,0.29475346,0.09270455,-0.20992081,0.21258129,0.06441781,-0.29838294,-0.2734438,-0.11797785,0.18231764,-0.11578948,-0.20273426,0.08967024,-0.21499485,0.16296612,0.2882619,-0.111002564,-0.20100889,-0.12602103,0.15714635,0.20276551,0.06803357,-0.21434271,-0.1134783,-0.27615935,0.2202137,-0.1449008,0.002315927,-0.105572954,0.0100444285,-0.25563163,0.07120347,-0.11765534,0.014343064,-0.28478086,-0.10271476,0.10412302,-0.25437757,0.2304084,0.12629679,-0.0034000706,-0.08520242,0.29957756,-0.055960327,0.24774346,-0.11070529,0.009375834,0.15433975,-0.059027724,0.14216879,-0.17473002,-0.24148585,-0.00011741385,0.11131609,-0.32005942,0.13975625,-0.16861768,0.06359155,-0.035039276,-0.071702264,0.10319596,0.29999113,-0.041627727,0.21550247,-0.20721851,-0.2615449,0.13654691,0.33660266,0.3115244,-0.17624414,0.074730575,0.21968518,-0.07559779,0.008094685,0.102168426,0.107984036,0.3015119,-0.006773774,0.19025996,0.152599,0.35400617,-0.20114025,0.09233974,0.26476339,-0.15749083,0.06283775,-0.17520288,0.032575995,-0.51703,-0.41039798,-0.13609028,-0.07564377,0.32960406,0.036860645,0.26431808,-0.1952302,-0.13658956,-0.16797502,-0.16949731,-0.2525971,-0.10057708,0.20295149,0.16583411,0.2985911,-0.037377033,-0.26078987,0.20650995,0.08970577,-0.20717092,-0.0022097246,0.2499495,0.09049947,-0.13987793,-0.1578691,-0.29795247,0.026357666,-0.11730733,0.060677055,0.21522678,0.16305487,-0.24418446,-0.21762882,-0.12728961,-0.022861635,0.014240971,0.0025223128,-0.023848511,-0.10866272,-0.23907973,0.25285774,0.23762625,0.21958926,0.035554703,-0.09836768,0.2723971,-0.06531264,0.08775038,0.23436762,-0.2909463,-0.27641067,-0.30540103,0.19396554,-0.13964039,0.16485214,0.11157069,-0.023254141,0.30435324,0.07488142,-0.15799707,0.28009126,-0.20509295,-0.03653926,0.0894841,-0.23329072,-0.23679073,-0.018301751,-0.20608947,-0.12855105,0.2669113,-0.21294902,-0.18765049,0.020817785,-0.0963573,-0.101756096,0.16789581,-0.20420812,0.039320543,0.14392374,-0.103915535,0.077620655,0.18726179,0.18310726,-0.1069652,-0.23382466,-0.032618154,-0.1489567,-0.09207895,-0.23059295,0.03896014,-0.239862,-0.25250793,0.24150006,0.08174863,-0.21311872,0.12333463,-0.08736334,0.27626148,0.13097636,0.24758132,0.13347712,-0.085913345,-0.2742088,0.2702831,0.20850329,0.27263382,0.07821817,0.12551713,0.087961264,-0.15010919,-0.019047871,0.03780636,0.16402435,0.34175676,0.0010141593,0.12436392,-0.12732854,0.18466276,-0.21489777,-0.20189162,-0.2036277,0.06811099,0.016286701,-0.04828156,-0.27700388,-0.032486584,-0.291797,-0.2328305,0.027178178,-0.21441749,-0.15650985,-0.020151941,-0.20816103,0.25133464,-0.22645693,0.19148049,-0.07836063,0.03593988,0.12697245,0.085033335,-0.11526083,0.07333819,0.16678657,0.22110839,-0.10903744,0.23543376,-0.22496405,-0.14388996,0.20960273,0.32922706,0.0114535205,0.07207065,0.2502486,0.04601218,-0.26888022,0.21493332,-0.021634407,-0.15715814,-0.27999574,0.048571963,-0.2820068,0.11459084,-0.045881055,-0.09459144,0.18458909,-0.03897156,0.014869287,-0.013233341,-0.28485444,-0.22366458,0.07329199,-0.27382326,0.19621652,0.20459689,-0.11066244,0.10032756,0.10718337,0.12375713,-0.118088655,-0.039852224,0.29332775,0.16941275,-0.077106826,-0.18477708,0.32461286,0.19650519,-0.16201243,-0.27762496,0.15264402,0.18615295,0.095213,0.35335582,-0.108295076,-0.039362635,0.14282846,0.16678049,-0.010143344,-0.13424234,0.28880462,0.09903385,0.08594765,0.17022017,-0.19512999,0.04258304,-0.03216009,0.1523546,-0.16450451,-0.013151512,0.1683379,-0.26289237,-0.22419946,0.065255426,0.12341883,-0.15148675,0.016991483,-0.0027240484,0.29422805,0.13977237,0.26485005,0.114110075,-0.0792545,0.08126205,-0.18357384,-0.19121467,-0.2852146,0.29183578,-0.25140852,0.16282198,-0.25098318,-0.07362057,0.10592246,0.23999268,-0.0478128,-0.08504117,-0.20022683,0.27160233,-0.16391735,-0.22069256,-0.19377059,0.11324762,-0.3049692,-0.19761395,0.08399782,-0.016036777,-0.15368989,0.037009332,-0.1669659,-0.042748407,-0.20236526,-0.30361983,-0.29294643,-0.30211806,-0.24553436,-0.17536499,0.10706134,0.23513445,-4.1365685e-05,0.25014043,-0.15260348,0.17858233,0.03870628,-0.2827615,-0.23711306,0.2757838,-0.09698716,0.29296556,0.35030276,0.22757846,-0.06204441,0.19624126,0.29380238,-0.18405017,0.33674225,0.19424225,0.072129264,-0.2986401,-0.21199776,0.4007228,0.1727675,0.14304346,-0.25477144,-0.014198354,0.08928722,-0.057098676,-0.27613503,0.23455615,-0.057466075,0.2970578,0.026837245,-0.09244939,-0.22388037,-0.13268532,-0.23665944,-0.18940449,0.16041666,0.29223135,-0.1991786,0.042838737,-0.30605033,-0.28035748,0.020295735,-0.10970787,-0.057344474,0.18146269,-0.14575362,-0.27564588,0.17222778,0.20916831,0.07110187,0.0629331,0.2336573,-0.102747366,0.3349305,0.0007822002,0.0010771952,-0.3013844,0.27322295,0.16603895,-0.11437556,0.09946791,0.043355558,0.20163107,0.28843275,-0.11119609,-0.2448568,-0.20278442,-0.08506595,-0.19876584,0.11130845,0.13350846,0.18695948,-0.21086796,0.22485949,0.099463895,0.09777979,0.03764825,0.11027051,-0.0730463,0.25099814,0.26460126,0.3660909,0.38803935,-0.013749624,0.043249536,-0.028313763,0.3135778,-0.102689125,0.12442157,-0.14369361,0.27389535,0.013014636,0.18485966,0.025479082,-0.11002579,-0.2543441,0.0007980297,-0.124375395,-0.14853372,0.036389902,0.0055579944,0.11157978,-0.25029716,0.28043038,0.2865684,-0.14214598,0.038294215,-0.3058626,-0.3017634,-0.077688985,0.15835185,-0.012979815,-0.097280115,-0.27995172,-0.114707544,0.35578042,-0.19004771,0.29821107,0.26890916,-0.30307528,0.12392073,0.18082665,0.2896671,-0.22398245,0.51052547,0.48612005,0.07536776,0.14055148,0.2574872,0.1259996,-0.063421726,0.096685566,-0.14487508,-0.2102085,-0.0098702675,-0.2565258,0.18580519,0.14849076,0.11272355,-0.10494752,0.03974756,0.042214975,0.044933513,-0.09578518,0.21740702,-0.21747054,-0.08609117,0.07454408,0.17016885,-0.19800664,0.025388146,0.075019754,0.19535334,-0.30239177,0.1057808,0.06483253,0.13726585,-0.0269643,0.26657912,-0.28939384,-0.06489889,0.23445077,0.2257418,0.14607397,-0.28372023,0.07316492,0.14804856,-0.12846532,-0.1346331,0.19552626,0.14027981,-0.0679517,-0.18417175,-0.0035281316,-0.1291155,-0.20909138,-0.035508312,-0.24384923,0.20909007,-0.2798913,-0.14075288,0.027194396,0.05894884,0.2972364,0.06380874,-0.07007977,-0.004531834,-0.027090134,-0.05740209,-0.12186349,-0.16011554,-0.068621,-0.05037707,-0.092579566,-0.29349095,-0.23611861,-0.11121104,0.014393834,-0.012451508,0.09012187,0.20281772,-0.011853509,0.007368961,-0.27352294,-0.26591754,0.20454639,0.24015613,0.060097575,0.23201752,-0.40886986,0.26251063,0.20533153,0.10421666,-0.022536414,0.12091255,-0.21369763,0.05167766,0.3433097,-0.02948468,0.25536874,-0.46941084,0.049534656,-0.0124712065,0.06425196,0.37605253,0.3176915,0.18713501,-0.14389583,-0.09024843,0.23280801,0.13854587,0.058528394,-0.08952498,0.28749242,-0.009035134,0.08413321,0.26199383,-0.01402263,0.26240006,-0.0992375,0.32056597,0.061054662,0.18242791,-0.10449114,0.07329772,0.14796166,-0.1153936,0.045506056,-0.18791665,-0.26323918,-0.11596328,-0.24400552,-0.2585555,-0.66176075,0.29527512,0.2730788,0.25865147,-0.016505392,0.012271884,0.0004356669,-0.0060243397,-0.063533545,-0.08689632,-0.27737087,0.11751929,-0.20651048,-0.10137163,0.25498042,0.11702332,-0.14928839,0.03169276,0.29038182,0.19656356,0.106729195,-0.09494929,0.26103702,0.09781211,0.00037633764,-0.093914025,0.16763149,0.30065927,-0.15348296,-0.23255248,-0.112582736,0.32176906,0.00024742776,-0.29369587,0.051739752,-0.21775275,0.07453985,-0.08820718,-0.20397153,-0.1661041,0.2185378,0.071184196,-0.093817286,0.2507524,-0.055337477,0.0036935275,0.19355309,-0.01237306,0.15432692,0.1802598,0.06968907,-0.3191516,0.16232747,-0.12583645,-0.2712422,-0.2778388,-0.12939598,0.28633988,0.05316578,0.31251925,-0.09466164,0.21069042,-0.22168115,0.24246697,-0.1837353,0.11603504,0.17876214,0.0716968,-0.29577023,0.05815255,0.21155304,-0.08581611,0.27847832,0.07539802,-0.32183552,-0.13876575,-0.044508487,-0.10171732,-0.07890431,-0.07295649,-0.26827934,0.048021764,0.28776026,0.06217484,0.09818163,0.1751483,0.06282137,0.24152254,-0.06063165,-0.122049205,-0.18109271,-0.058576062,0.07729404,-0.047402233,0.110703446,0.46490946,-0.27912644,0.1141211,0.101542085,0.15734063,0.04799773,-0.27218717,-0.24858354,-0.27303496,-0.0233647,0.07377027,0.08819616,-0.0061214482,0.08794858,-0.015498128,0.029282138,0.2298613,0.2617781,0.22705181,-0.26699635,0.25223842,0.07220703,-0.25709957,0.41297212,0.34392205,0.13595438,0.17333677,0.19319046,0.23554632,0.3597871,-0.28102237,-0.013994319,0.2672923,0.53065926,-0.07004794,-0.38247406,0.1397687,-0.11082819,-0.24239334,0.24949902,-0.030986585,0.02627144,0.17979667,0.12086217,-0.20370841,-0.20170856,0.29990417,0.2629452,-0.29277432,-0.068715885,0.07694791,0.17075132,0.14318165,0.25077316,0.15345213,0.17272174,-0.124794334,0.04476149,0.076261535,0.047547933,0.21488363,-0.18386751,-0.20533192,0.10384436,-0.06616883,-0.08428423,-0.29483655,-0.08947023,-0.093745545,0.11305852,-0.06255341,-0.28981373,-0.24353047,0.13303164,-0.25082693,-0.18434402,0.13571465,-0.18440601,0.23312029,-0.071906224,-0.30312914,0.057651635,-0.101193495,0.24782026,-0.16377838,-0.06543213,0.25994793,0.39649835,-0.0070995647,0.0038067822,-0.11658594,0.12545943,0.32819924,0.18184139,0.056145366,-0.13267793,0.5507239,0.6438378,-0.18039104,0.2555532,0.34289542,0.21395913,0.22365782,0.0059958217,0.11061515,-0.018548762,-0.20964614,-0.11395573,-0.23368594,0.16217893,-0.16924722,-0.24364871,0.16036539,-0.019389046,0.27739918,0.1899331,-0.11604517,-0.2251836,-0.16155261,-0.254937,0.057064746,-0.17827679,-0.20921324,0.28431818,-0.15494122,-0.22210786,-0.16267268,0.28964436,-0.19484925,-0.11010823,0.22961125,0.20242006,0.2883287,0.16046637,-0.15877408,0.286295,-0.20792286,-0.081691995,0.2419493,0.22584094,0.0763296,0.2451196,-0.27817956,0.100993834,-0.107967086,0.14534023,0.10849188,0.17479795,0.08546687,0.28254807,0.06421454,0.21800664,-0.29050705,0.14007218,0.08829595,0.023127247,-0.24808885,0.22097598,-0.13325521,-0.15079264,-0.050130345,-0.09032994,-0.19297162,-0.017231911,0.13044028,0.16315536,0.20320821,0.21567099,0.27251408,0.20243655,-0.30032596,0.027795885,-0.2584482,-0.18512703,0.27729502,0.034060605,0.012763843,-0.18473527,-0.124262415,-0.2957854,-0.28184897,-0.025802605,-0.30269626,-0.18542552,0.10005429,0.05442577,0.09805323,-0.15578483,-0.05171736,-0.23776852,0.292957,0.25794122,0.17025173,-0.2688365,-0.109889984,0.24734871,-0.25179976,0.033346366,-0.0153629705,-0.25474855,-0.24657425,0.24581818,-0.25292024,0.21558796,0.009433744,0.036194954,0.11826217,-0.17563686,0.06828458,0.17466293,0.11547812,0.035898793,0.112090565,0.2581377,-0.021889377,0.2984556,-0.27253568,-0.29443458,0.23955664,-0.101233624,0.08062097,-0.17239648,0.17470327,-0.25587064,0.08136722,-0.20304881,0.09025605,0.052341532,-0.18218637,-0.100004844,-0.30428547,-0.30318204,0.25296435,-0.071618415,-0.024571782,-0.22256193,0.1751688,-0.24873948,-0.25897458,0.30698642,-0.13918594,0.11198737,0.042891107,-0.024218915,-0.16538785,0.3278572,-0.18470614,-0.057882797,0.1576014,-0.22167328,0.13291976,-0.063957125,0.29330745,0.2647626,0.12174324,-0.05930284,0.19267358,-0.22295488,0.08606504,-0.056749444,-0.21214756,-0.18351668,-0.043166645,0.27641153,0.123909645,-0.14023726,0.29639187,-0.09003637,-0.109335504,-0.1387813,-0.18317997,-0.04247234,0.1042791,-0.21956503,0.17897023,-0.22811349,0.10830629,-0.37118328,0.28760672,0.27766812,0.25107282,-9.911068e-05,-0.07704418,0.25670752,0.0047112936,0.3742726,-0.047454916,-0.04986671,0.37890434,0.6610494,0.080226876,-0.19857872,0.31344172,0.02316685,-0.27507317,0.24303432,-0.26313293,0.013329186,0.14804377,0.2979262,-0.13317303,0.009282742,-0.23132826,-0.05939007,0.1530702,0.33425292,0.30435732,0.14507544,0.006376556,0.13968018,-0.10076298,-0.29798713,0.20914932,0.33529097,-0.2151911,0.29424727,-0.21097198,0.24444999,0.18894157,0.02281382,-0.4175716,-0.054491032,0.24046434,-0.16551745,0.076998614,0.3003814,-0.2774897,-0.13039093,-0.26147667,0.09666042,-0.17270328,-0.021826612,0.069430366,0.034993622,-0.113628395,0.17256592,0.32704395,-0.2531232,0.289519,-0.052117676,-0.06992385,0.4385864,0.10681827,0.13421153,0.23980857,0.2527178,0.121428095,0.25257698,-0.37586522,-0.2157541,0.24014828,0.25746235,-0.50360715,-0.53159624,-0.18029878,0.046335056,-0.09355198,-0.10400532,0.119450405,0.041573267,-0.12110064,0.027832698,-0.19824857,-0.26106566,0.037299726,-0.09450816,-0.13077508,0.017759277,-0.13852684,0.20389822,0.24984741,0.1826513,-0.13791984,0.05426686,-0.104826346,-0.21851295,0.040068183,0.083142176,-0.06645252,0.11030217,-0.051704,0.10614882,-0.08438138,0.24110962,-0.29311848,0.21700689,0.142269,-0.07447503,-0.00094996777,0.33624673,-0.29906943,0.21746713,-0.027906975,0.0731555,0.29114112,0.30426416,-0.12805183,-0.13964672,0.05338352,0.16872263,-0.052385792,-0.22834623,0.12670709,0.03326143,-0.07619114,-0.13024713,0.00013441926,0.2985636,0.32699692,-0.012833116,-0.07317943,0.20587417,0.0056499676,-0.17647494,0.28569925,0.09711934,-0.25814104,-0.1643505,0.095882975,0.09789576,-0.11257995,-0.24639605,0.027588526,0.22033678,0.19740392,-0.24800716,0.059856143,-0.22601078,0.27961656,-0.092459895,0.28504056,0.29696208,-0.13017374,-0.12027582,0.11942481,-0.27648368,-0.04885727,-0.00507838,-0.008042361,0.0379047,0.04943666,-0.12526523,0.05599543,-0.19233094,-0.12498871,0.27180156,0.27782694,-0.27520445,0.030218383,-0.012908328,-0.20108846,0.09981904,0.112289,-0.15097466,-0.0039746575,0.13066138,-0.28661838,-0.23838432,-0.026120842,-0.27296478,0.0036039322,0.14454743,0.0035407513,-0.30612415,0.2201578,0.19848861,-0.09282342,-0.09040948,-0.1081044,0.10693935,-0.09372546,-0.27382618,0.0058542276,-0.1025304,0.07089179,0.2802266,0.21908794,-0.22501546,-0.0012276309,-0.03933844,0.22744684,-0.30227587,-0.10207371,0.10340812,0.2953504,0.12165009,-0.12446881,-0.27865425,-0.1729127,0.03805168,0.11814122,-0.22963226,-0.29068616,-0.18682171,-0.12114847,-0.20748015,0.05929107,0.23757727,-0.07199016,0.018702323,-0.15816362,-0.21009421,0.1703712,-0.01566127,0.25719783,0.22578777,-0.055231225,0.19100039,-0.24885087,-0.11232576,0.030267503,0.13388424,-0.07735319,-0.017915467,-0.080819435,-0.052053653,0.047553014,0.29168767,0.3052025,-0.15618703,0.18054368,-0.22339536,0.19316703,0.28838515,-0.22049609,-0.04553111,-0.2995099,-0.12584908,0.18827128,0.008366015,0.24811749,-0.14930478,-0.0010387226,-0.19650386,0.19320458,0.02884803,-0.23911756,0.06162984,-0.28706458,-0.1898463,-0.06059374,-0.23491544,-0.044704,0.1303271,-0.007524967,-0.020928176,-0.17101116,-0.163007,-0.18589616,0.2328755,-0.2616611,-0.062398024,-0.111173786,-0.13792898,0.020854816,-0.018633593,-0.28767768,0.021546094,0.18913448,0.07390179,-0.17175636,-0.17897604,-0.255333,-0.27832988,-0.015389726,0.028105078,-0.27744704,0.073795386,0.1360033,0.032519527,-0.29037884,-0.26555845,-0.27356374,0.26949406,0.058717977,0.20517053,0.09020506,-0.23136531,-0.13500704,0.076931745,0.19368295,0.28480792,0.012302626,-0.037527323,0.1363099,-0.2988427,-0.22138251,-0.24916008,0.28338015,0.24937178,-0.17841074,-0.17572337,-0.08360722,0.13101657,-0.15081231,0.291029,-0.26373053,0.06810712,-0.23476471,-0.2124466,-0.2615837,-0.1383354,-0.104310304,0.019885004,-0.03283854,0.123619534,0.2955167,0.22408795,-0.23806849,0.015015762,0.050503526,-0.25440994,0.18983714,-0.11448624,0.15061267,-0.27148744,0.08565549,0.24646702,0.21844114,-0.15486407,-0.13667138,0.2531595,-0.055269107,0.25062218,-0.24398965,-0.26249364,-0.062368587,-0.12189773,-0.10179197,-0.1387157,0.2871435,0.05899173,-0.27294493,0.15810369,-0.25681433,0.19549474,-0.30191013,-0.30571494,0.10781369,-0.16999225,0.16067022,-0.012039472,0.21535759,-0.045851514,0.14143823,-0.041171316,0.16401893,0.19015466,-0.09383262,-0.18967052,0.30253702,0.24216351,0.080609,-0.117460996,0.27782655,-0.14322436,-0.27618015,0.32149363,0.18958068,0.19361904,-0.18830383,0.06015266,0.272599,-0.20168199,-0.050757207,-0.19047669,-0.23484457,-0.18863054,0.059586093,-0.14254856,0.033435937,0.15326644,0.31508106,0.042486522,-0.14039849,0.01861301,0.093107216,0.12860784,0.24045879,-0.010422937,-0.20890273,-0.1668013,-0.14361532,-0.14053161,-0.26886058,-0.21379451,-0.03867093,0.09514803,-0.15253644,-0.05123813,-0.003361855,0.15054591,0.0832053,-0.06035509,0.09809426,0.13131177,-0.11712605,0.045773935,-0.11938974,0.30540553,-0.050055865,0.09995085,0.210633,-0.0075098886,0.10334093,-0.075921044,-0.19977072,-0.1580998,-0.111532666,0.06564192,0.116414346,-0.18371065,0.104329415,-0.23170426,0.16227154,-0.0201264,-0.09172719,-0.29705456,-0.28660527,-0.04524176,0.19705592,-0.20138352,0.05393652,0.13620591,0.021333778,0.18750215,-0.061116844,-0.2569782,0.22477181,-0.23153567,0.27435076,-0.020913817,0.052641153,0.26553684,-0.06973629,0.17382215,-0.25723776,0.12624457,0.25628582,-0.28417802,-0.12737027,-0.25575498,0.19731636,-0.2240428,0.12785786,-0.20318165,-0.2023437,-0.10593161,-0.28519395,0.1374732,0.17777415,0.2087512,-0.0070404042,-0.18622778,0.116508596,0.28261313,-0.18891424,0.06837368,0.1170592,0.23153368,0.039075665,-0.017610181,0.17271462,-0.28283808,0.06145345,0.2492277,-0.15853964,0.23192061,0.0041885125,-0.017175317,0.016776169,-0.2609879,0.12979673,0.19910207,-0.22869645,0.17302947,0.17966376,0.20052361,-0.20441271,0.16466121,0.28161573,0.015719268,0.108404696,-0.1487233,0.015389049,0.12437633,-0.27279183,-0.2952801,-0.030435855,0.27779192,-0.20840679,0.14425203,-0.2928497,0.14513883,-0.049115676,-0.19799797,0.20861356,0.29574755,-0.1866952,0.058433093,-0.17652306,-0.06999203,0.073592335,-0.22497162,-0.11377995,-0.1487465,-0.09057694,-0.07286644,-0.22542799,0.02071315,0.023672482,-0.04021089,-0.18948464,0.04156783,-0.070611544,0.3508939,0.295665,0.1739085,-0.14976396,0.17857489,-0.18557085,0.15976867,0.109061,0.08568607,-0.28711215,0.057221316,0.09981471,-0.20796137,0.2953167,-0.064393185,0.28612465,0.27755216,0.16200343,0.22269654,0.2165546,-0.098727435,0.14463261,-0.027902909,0.18510853,0.070288554,-0.14484839,-0.051184,0.049066752,0.009484534,-0.28188667,-0.12959632,-0.14622638,0.18505773,0.2652742,0.2633086,0.02384089,0.2889295,0.21390924,-0.036442958,0.07822252,-0.17123374,0.22728008,-0.32445574,-0.15613069,0.14121138,-0.22603472,-0.15178789,0.21223392,-0.16464989,0.39128706,0.062095553,-0.25716013,0.10382644,0.12794797,0.08358015,0.11133972,-0.015505266,-0.2311656,-0.22399771,0.15352097,0.16331072,0.06108108,0.0763058,-0.109574474,-0.063991204,-0.040461633,-0.2794681,0.031459194,0.24692841,0.29554906,0.02258948,0.26059917,0.2903807,-0.23532216,-0.18908577,0.13049275,-0.1597389,0.13280787,0.09274598,-0.17518562,0.27616882,0.11712092,0.23770574,-0.18025205,-0.25021586,-0.2424155,0.1521557,-0.30130115,0.20238702,0.10033862,0.24216002,-0.26777467,-0.012210182,-0.067049906,-0.21885106,0.0654287,0.020995049,-0.017155657,-0.26898006,-0.09554364,-0.1914107,0.00012977177,-0.10443538,0.26221955,0.040932316,-0.13470845,0.27542016,0.24824059,-0.014135723,-0.11753009,0.15835784,-0.17167988,0.27080655,0.21193358,0.058325317,0.0049781916,-0.29541397,-0.24262372,-0.011516101,-0.27677697,-0.11578505,-0.08164139],"b":[0.0039938116,0.53041124,-0.024513833,-0.17574714,0.25652322,0.06427996,-0.0057551595,0.45508352,0.009697856,0.08730736,-0.14989957,-0.037147615,-0.20260204,-0.13126041,0.0047320784,0.13234237,0.029235484,0.09554997,-0.120185815,-0.024011845,0.009628002,-0.067420624,0.242436,0.20836107,0.04510696,0.043497376,-0.002693035,-0.07719958,0.043014646,-0.0027624266,0.04801776,0.056559853],"outSize":32,"inSize":64},"kind":"dense"},{"name":"r3","kind":"relu"},{"name":"d4","dense":{"w":[-0.4270159,0.55090725,-0.70470893,-0.17105025,0.4842371,-0.37346056,0.11804962,0.7279522,0.26334766,-0.13568972,-0.42930186,0.0566322,-0.4346495,-0.74378693,-0.25049075,0.8956612,0.24074686,-0.58344346,-0.73710734,-0.34669638,-0.006859925,-0.9051038,0.87722,0.57681394,-0.18944608,0.06292825,0.39335454,-0.48264953,0.24665919,-0.117002465,-0.48887095,0.18800266,0.26930422,0.71256477,-0.24640572,-0.16704714,0.09364152,0.114837885,0.36584103,0.32298815,0.026096106,-0.092667684,-0.30762172,0.17723837,-0.5450065,-0.08804906,-0.30678785,-0.7430805,0.45028672,0.8214609,0.33752152,-0.009250561,0.3146614,0.81815356,-0.5706246,0.024822587,-0.14164399,-0.24897887,-0.25066182,-0.00012462208,-0.06627113,-0.009990006,0.008242383,0.4077027,-0.33550775,-0.8164599,0.53611183,0.6165287,-0.52784306,-0.2532183,0.38505095,-0.691098,0.11108856,-0.56623375,0.1927199,0.38307384,0.4632773,0.55788475,0.2796556,-0.18846409,-0.118728414,-0.18548529,0.58131844,0.3205415,-0.0034480034,0.022425037,-0.34859815,-0.27075848,-0.38394183,-0.25303945,0.097128116,-0.10891392,-0.35683545,-0.4245914,-0.31595275,0.20240593],"b":[0.35423917,0.15073758,-0.52427536],"inSize":32,"outSize":3},"kind":"dense"},{"name":"s1","kind":"softmax"}],"chain":["d1","r1","d2","r2","d3","r3","d4","s1"]}