{"chain":["d1","r1","d2","r2","d3","s1"],"name":"tri","inputSize":2,"nodes":[{"name":"input","kind":"input"},{"kind":"dense","dense":{"w":[-1.718486,0.50946414,-0.94880486,1.7972462,-0.5449449,1.1407961,0.09684185,1.1039166,0.8138405,-0.9171567,-1.487166,1.6841516,-1.1223283,-1.5541233,0.9536008,0.43377042,0.49261156,0.4698244,1.6899222,-0.33249128,0.3408155,-0.703712,-1.4724519,-0.16918656,-0.06494584,0.84211755,-0.7202669,-1.4065913,-0.5796155,-1.3519768,-1.5487543,-1.6571225,0.49260327,0.44500062,-1.6859263,-0.26527166,-1.2069315,-0.56411684,0.67231965,-1.4849453,-0.42755976,-1.1464947,-0.9967969,-0.7278776,-0.1581556,0.9479321,0.7983358,-0.28154644,1.8634162,1.4027164,1.4105539,-0.10505811,-1.4672146,1.8492233,-0.2585553,-1.3866985,-0.99123865,-0.22641732,-0.40494686,-0.58941126,0.3591612,-0.27937838,-0.54255563,-0.8643864],"inSize":2,"b":[0.00646641,-0.027015781,-0.017189248,0.42652595,-0.10479237,-0.03802671,-0.0068409336,0.14608438,-0.02386388,0.21484774,-0.078148656,-0.0035672735,-0.14177164,0.0018685722,0.00847243,-0.008946623,-0.13078538,0.0010933125,-0.002572562,-0.053234898,-0.0028859584,0.0025956237,0.0010657557,-0.17211814,-0.29747656,-0.3068309,-0.073749885,-0.0026346063,0.008783327,0.00415306,0.08786987,0.005017302],"outSize":32},"name":"d1"},{"kind":"relu","name":"r1"},{"kind":"dense","name":"d2","dense":{"inSize":32,"w":[0.09714107,0.13557354,-0.10884168,-0.35556123,-0.27182516,-0.10174707,0.37748164,-0.21708183,-0.21234858,0.12255389,-0.34954816,0.100657105,0.15031771,0.3497533,0.11124347,0.26848733,-0.22486451,-0.03920667,-0.18551748,0.08673656,-0.14891441,-0.09761653,0.19049288,-0.3293187,-0.17188968,0.0467386,-0.40686333,0.04424302,-0.12654974,-0.07955572,0.22007023,0.26447466,-0.051470265,0.14092384,0.25742522,-0.46336034,-0.33323532,0.18586178,0.37167105,0.48155832,0.07646183,-0.048053637,0.22235322,0.083535865,0.26067832,0.36104617,0.29213727,0.26233485,-0.010843988,-0.2388421,0.21562113,0.31413123,0.33554214,0.33773348,-0.0035228159,0.040160365,0.45144385,0.3789833,0.2902061,0.12676565,0.29052055,-0.3610595,0.30188024,-0.26912028,0.26746404,0.33946696,-0.2528521,0.0135237,-0.124918625,-0.111151375,-0.22769748,0.13817362,0.27288237,-0.14585294,-0.09100193,0.40118212,0.1935849,0.22557345,-0.0024660784,0.12919258,0.29186717,0.15845397,0.42027542,0.24554826,0.016197724,0.40017956,0.24408153,-0.16688351,-0.11636224,0.25146952,0.3956045,0.32497936,-0.07447508,0.28543058,-0.22424623,0.34755728,-0.05946713,0.047135703,0.41921344,0.089307554,-0.15631784,-0.3329448,0.3770065,-0.386075,-0.2317174,-0.20039059,-0.073870465,-0.2828685,0.2011193,0.3609611,0.06914249,-0.042627804,0.040188957,-0.021810118,0.23718792,-0.09181674,0.12648872,0.10575372,0.16119231,-0.12953238,-0.3734392,-0.10508608,-0.2153126,-0.20687567,0.035294533,-0.2276384,-0.42798024,-0.25420278,0.038981482,-0.25629523,-0.35545436,-0.18706606,-0.2784323,-0.11705202,-0.09074069,0.046707284,0.07637334,0.15687199,0.32030752,-0.15953928,-0.30329075,0.045880225,-0.1785709,0.050724473,0.32035512,-0.43000567,-0.39773107,0.17143354,0.4278691,-0.21278499,-0.0788531,0.26158938,0.27454162,0.26978445,-0.05232126,-0.3418535,0.07865719,-0.16297002,-0.07103493,0.3633508,-0.2521482,-0.10584968,-0.3037952,-0.14259495,0.034871925,-0.20338792,-0.1164872,-0.27568468,-0.03554904,-0.29846162,-0.2438229,0.13144648,-0.39473727,0.17550088,-0.088744365,-0.2925596,0.34303147,0.39004374,-0.15446283,-0.012879155,0.40751588,0.14432628,0.21436399,-0.050997358,0.055069514,-0.19109172,-0.29557788,-0.41189146,-0.1305699,0.19228262,0.26450616,-0.13208114,0.08726597,-0.14044715,0.02619117,-0.1942679,-0.2402552,0.35607043,-0.16119063,0.2536754,-0.0016550364,-0.029153725,-0.23369691,0.3691706,-0.13594088,-0.030943014,-0.14879541,0.35379937,0.41919518,0.2668082,-0.22283609,0.22932841,-0.39706045,-0.18925191,0.3831603,-0.13557357,0.36977136,-0.26239035,-0.23355484,-0.38751873,0.24314879,0.021844495,0.2847887,0.31639963,0.054292027,0.29036894,-0.01742862,0.42302108,0.3157766,0.36237285,-0.17550004,0.3269737,-0.2572958,-0.24309762,-0.2873423,0.020582614,0.37257913,0.1598162,-0.37568215,-0.1565509,0.3503921,0.26086348,0.020252768,0.1275385,-0.029121786,0.184551,0.20801222,-0.23206899,-0.2075651,0.38585213,0.18707202,-0.31265643,-0.36098865,-0.10312603,-0.26764622,-0.22273017,0.2796401,0.11018022,0.18225476,0.1989362,0.2344025,0.26828483,0.008162688,0.2702768,-0.20522164,-0.25656426,0.28804174,-0.19002365,0.04692035,0.11763165,0.011655343,0.34901804,-0.24843198,0.1612714,-0.33722323,0.058614664,-0.010164763,0.33240497,-0.3493025,-0.21768285,0.17980279,-0.1477203,0.47299004,0.2706444,0.08562562,-0.059958413,-0.016198648,-0.2190345,-0.122759156,0.11260611,-0.09072718,-0.20930658,-0.29942948,0.20395267,-0.09058017,0.3071735,0.31742284,0.38620186,0.11344994,0.28975457,0.40185776,0.0056020184,-0.22740442,-0.2815417,0.13913152,-0.09485989,0.24408475,0.4195034,-0.019020258,-0.35270292,0.12046554,0.50632447,0.2538037,0.47131276,0.40516558,-0.3168566,-0.30095556,0.17945202,-0.27230057,-0.3639387,-0.12814608,-0.4253911,-0.09238677,-0.34321937,0.33762172,-0.2741608,0.037644286,0.10763704,0.43962476,0.12927017,-0.36561403,-0.15753539,-0.1847387,-0.25543302,0.25259498,-0.28733602,0.33953142,0.22465509,-0.15726002,-0.32785928,0.19478893,-0.114500016,-0.247424,0.5801026,0.741017,0.7148407,0.34187698,-0.076001875,0.38119236,-0.35930964,0.38667986,-0.32206967,0.22331806,0.22811234,-0.15643328,-0.35649619,0.14119196,0.15456969,-0.13119,0.08866722,-0.18229032,-0.23167345,0.094447374,0.3552272,0.12950374,0.3297355,0.3693636,-0.2382916,0.1535567,-0.0028812252,0.3755045,-0.20563626,0.2713797,-0.2793275,-0.18312356,-0.23115663,0.01646351,-0.16571365,-0.24407737,0.35283,0.14712521,0.0731201,0.34923008,-0.25355062,-0.40823394,0.1240221,0.1066551,-0.005251705,-0.4301315,0.12532394,0.21657015,-0.3646328,-0.27265087,-0.03839829,0.07425247,-0.120928,-0.41931206,0.060096186,-0.36029884,-0.35037026,-0.23401855,0.2284141,-0.024291605,0.17593898,0.3779683,0.119060054,0.38235542,0.34635526,-0.24065997,0.3972257,0.12926567,-0.29897913,0.040289406,-0.12717998,-0.010056698,-0.14069138,-0.41181773,0.076586284,0.40510547,0.10807088,0.26105356,0.12648883,-0.3903275,0.09231534,-0.06264973,0.06885886,0.28948784,-0.3450291,0.31083247,0.015507524,0.367881,0.29878452,-0.14530513,-0.23944058,0.28851444,0.18157001,-0.021637555,-0.14814517,-0.18994138,0.32645518,0.3130026,-0.2040756,-0.27219743,0.21769395,0.104628116,-0.3361779,0.20749114,-0.18475866,-0.3489957,0.1302412,0.1081896,-0.20306759,-0.17854837,0.011496908,-0.27265882,0.414355,-0.07861243,0.43674392,0.14146067,-0.035212714,-0.27284995,-0.1251842,0.2981786,-0.09472643,0.13064072,-0.20934254,-0.4208252,-0.2627025,0.41330534,-0.27217254,-0.31237367,-0.074501924,0.112478666,0.30923435,-0.39994547,0.17380896,0.14852633,-0.26562333,0.22962946,-0.22454768,-0.03666133,-0.264914,-0.40198705,0.32963717,-0.13643649,-0.39903444,0.15522525,-0.4503938,0.09231973,0.15417671,-0.24647494,0.10186531,-0.092613,0.1973098,0.23682958,-0.15352096,-0.48022553,-0.37917945,-0.2598889,0.30813518,0.3211106,0.3525434,-0.31306234,0.21868466,0.07103759,-0.055316966,0.21418743,0.065433756,-0.2746109,-0.3224798,0.21984732,-0.28331548,-0.081214346,-0.09386155,-0.03419275,-0.42115664,-0.2036088,-0.22936277,-0.35803732,0.18057004,0.35030326,-0.4039948,-0.13427255,-0.22023247,0.060725886,-0.20777765,-0.26527068,-0.22516464,0.22221392,-0.15463924,0.4309294,0.12577839,-0.254548,-0.15513375,0.1283932,-0.34357917,-0.3197009,0.024086727,0.17390817,-0.34387276,0.009154241,-0.3261764,0.14621827,0.15910287,-0.016413491,0.42230037,-0.154269,-0.2084941,-0.04256909,-0.33176517,-0.25776166,0.089629605,0.16860013,-0.3218875,0.2423664,-0.08343457,-0.25019345,0.34080243,-0.30123952,0.27062714,0.39294356,-0.04232062,-0.1001059,0.19967665,0.22796264,0.13199998,0.07425026,-0.27020925,-0.35004222,-0.28891087,0.058278415,-0.075162545,0.22957662,0.23656213,-0.25994107,0.01666849,0.14118758,0.32638347,-0.08735657,0.0001724041,0.43887436,0.4211783,0.35870588,-0.052469857,-0.38073906,0.29385844,0.04614627,-0.41583282,-0.3593464,0.21044481,0.41992062,-0.23801266,0.08611186,-0.24981548,0.08493867,-0.09067487,0.21652028,0.08346752,-0.18823636,0.47461742,0.5858168,0.19959491,0.011961355,-0.3696356,-0.15591614,-0.39563975,-0.3221466,0.31940454,0.032979466,0.31875965,-0.23449591,-0.14912504,-0.022615936,0.49974203,-0.1122687,0.24531561,-0.13301761,-0.19731623,0.3356427,-0.277593,0.14904186,0.27029127,-0.045609094,0.40809247,-0.05401294,-0.24460943,0.39221385,-0.19325873,-0.24246696,0.40967655,-0.15183888,-0.12961814,0.53545773,-0.011953846,0.39160132,-0.08010634,0.12899777,-0.40844488,0.034335814,0.28387535,0.2508228,0.22573672,0.13654004,0.0128964735,0.24242261,-0.3995542,-0.1411108,-0.29669443,0.08544546,-0.041087024,0.10250033,0.12092789,0.40692773,0.1737435,0.2650753,-0.20706436,-0.053077403,-0.3111412,-0.32061747,0.18700519,-0.04675749,-0.4025192,0.36089158,0.34268385,-0.37919235,0.080701925,0.20780905,0.08604445,0.39343363,0.36539894,-0.33892664,-0.021718958,0.10676025,-0.3887491,-0.19888602,-0.3971366,0.019345736,0.078843735,-0.07882727,-0.15615337,-0.32836813,0.3306907,-0.24790777,0.17483278,-0.41787896,0.2758363,-0.30659798,0.05715405,-0.027660256,0.082208894,-0.34356955,-0.40187162,-0.0823087,-0.2358277,0.072698325,0.2590027,0.12989269,-0.16786654,-0.2144695,-0.16955036,0.081861086,-0.32225466,0.07435643,-0.15331224,0.007664977,-0.20036751,0.2787764,0.53601557,-0.36454552,0.038902048,0.38503814,-0.3105258,-0.11573795,0.08426527,-0.054518417,-0.19053294,-0.1717114,-0.058650486,-0.16480537,-0.07994382,0.038465016,0.10297016,-0.3210345,-0.21498258,0.008048765,-0.42543003,0.34799027,0.03250862,0.22426663,-0.49331012,0.5083246,0.34859663,0.040208727,0.035159808,0.08232934,-0.11210904,-0.2173756,0.36529097,0.25800028,-0.25377464,0.42657766,0.37488687,-0.2630333,-0.24958903,-0.42023066,-0.26531324,0.36822903,0.42773634,0.053289015,-0.26247004,0.32127228,-0.3752472,0.34445262,0.07791067,-0.30220345,-0.34482855,-0.048574124,0.3721462,0.047971055,-0.012605187,-0.3119612,0.115014866,-0.02214102,-0.15265201,-0.2804474,0.35815567,-0.06702324,0.16282874,0.2563448,0.30830863,-0.10846776,0.5006729,0.11666168,0.10800188,-0.22485092,0.4411342,-0.11186327,0.35824215,-0.38034204,-0.34187198,0.25784263,-0.17781174,-0.084756404,-0.3397746,-0.15722136,-0.1464187,0.09807099,-0.43512997,-0.0993817,0.05606597,0.14682406,-0.36559457,-0.34295905,-0.34577775,-0.29889753,-0.17936808,0.030456116,-0.3659715,-0.34090912,-0.10920663,-0.1768844,0.64538085,0.52469206,0.6276279,-0.43648928,0.5143389,-0.039709568,-0.26639274,-0.28680235,0.03629097,0.26652732,-0.31968024,0.5143551,-0.39855918,-0.25876686,-0.19674951,0.14236718,0.11279968,-0.36340353,-0.06302737,0.37145796,-0.16090317,0.6009529,-0.38491422,-0.105975874,0.3501792,0.31467274,-0.09217454,-0.13104333,0.16358358,-0.3778733,-0.2910708,0.40917218,-0.26072058,-0.31444228,0.29100525,-0.021706168,-0.37553564,0.25452787,-0.3783408,0.068400785,0.053210545,-0.28356543,0.4089807,-0.41425782,0.02928173,-0.0450617,0.3360923,-0.38708782,0.11026415,-0.17727219,0.0073540383,-0.2596497,-0.050795063,0.17185144,0.04350349,-0.12566082,0.3246288,-0.4042456,-0.41531885,-0.015245427,0.014345164,0.007800933,-0.3611759,-0.11145111,0.34302104,0.30704254,-0.40653506,0.17636204,0.10488198,0.28122517,-0.022904882,0.22723632,-0.27025706,0.13055548,-0.24493629,-0.21121469,-0.103412695,-0.18398301,0.17080767,-0.37003365,0.018500298,0.40543047,-0.32367894,0.003080372,0.14658053,0.09320857,-0.1110468,0.03003418,-0.19369464,-0.36472175,0.16202828,-0.24058352,0.35610953,-0.26488674,-0.37522984,-0.26814315,-0.1446263,-0.32343522,0.27476785,-0.27712378,-0.2564309,-0.37636027,0.49149418,0.09896531,0.17466037,-0.28766,0.112922795,-0.3324591,-0.10683706,-0.03402359,-0.043941796,0.2028047,0.36532938,-0.05493231,0.27838928,-0.24934174,-0.091785744,-0.44413486,-0.13995051,0.18672405,0.38518515,-0.2614371,-0.056418683,0.0782608,0.0025115807,0.508898,-0.21861702,-0.0022419482,-0.38736117,-0.38798255,0.09437206,-0.24252965,-0.16143087,0.36015925,0.21639603,-0.18340227,-0.051994614,-0.030934393,-0.069605745,-0.22856535,0.33541092,-0.013922093,-0.1812535,0.21219346,0.11748665,-0.010835527,-0.13749816,0.16256548,0.28815934,-0.2841281,-0.17418437,-0.36430672,-0.19310251,0.1991426,-0.34508532,-0.31997365,-0.37691197,-0.07478932,-0.29699275,-0.04498938,-0.14816493,-0.14155793,0.073635355,-0.3083827,-0.22916462,0.3001181,-0.217206,0.07691321,0.07543887,0.012066716,-0.0656766,0.36335036,-0.3153321,0.28625295,-0.15980162,0.34405485,-0.16069378,-0.36036763,0.28081036,0.28735092,0.056936163,0.21004757,-0.13493808,0.1924568,0.00048264692,0.31218913,-0.42523727,0.20881855,0.13395502,0.11388906,0.14485739,-0.4041518,0.3321775,0.2599297,-0.27808127,-0.066680185,-0.25737742,-0.3571269,-0.111556135,-0.20470782,0.11749251,0.3270668,-0.14917448,-0.15924332,-0.20743625,-0.10745021,-0.14609537,-0.1715489,-0.15320309,0.3832718,0.26947063,-0.37996355,-0.21471485,-0.11575754,0.22960095,0.47700372,-0.17560177,0.37570113,0.41231436,0.29084006,0.20381583,0.088002406,-0.11354155],"b":[-0.009364212,-0.15727325,-0.057175387,0.0049878634,0.38891196,-0.00023188113,-0.18672101,-0.19665475,-0.116783254,-0.33472624,-0.18519193,0.00033958553,0.0060328864,0.14120683,-0.005911082,-0.13040696,0.009557402,-0.008678643,-0.24006216,-0.07676117,-0.008377919,-0.038859114,0.2587752,-0.004660244,0.7283668,-0.14940168,0.0071840365,0.0063476656,0.21608372,-0.0021116089,-0.100484684,-0.013097864],"outSize":32}},{"kind":"relu","name":"r2"},{"kind":"dense","name":"d3","dense":{"inSize":32,"outSize":3,"b":[1.0906574,-0.5466744,-0.5367729],"w":[-0.14177902,-0.41855922,-0.19115472,0.19356123,0.18823723,-0.09397708,-0.11762667,-0.52394235,-0.4517556,-0.8689875,-0.6667475,-0.16613118,0.2704801,0.3481408,-0.3295405,0.05481577,0.24329157,-0.40241048,-0.57066417,-0.59047186,-0.28018117,0.38901642,0.44863424,0.41539502,0.6754229,-0.3916785,-0.1273067,0.2796239,0.3227578,-0.2654758,0.13078043,-0.20249484,0.36932868,0.27922815,-0.23361805,-0.37298256,0.06951335,-0.32390895,0.3104497,-0.3989252,0.102972016,0.2931435,0.9248664,-0.11743144,-0.3367967,0.12055547,-0.028270094,-0.18625286,-0.42674547,-0.023616606,0.27357447,-0.2507475,0.3611013,0.07148471,-0.32713324,0.2859324,-0.6458949,-0.79724544,-0.31887123,-0.27444738,0.5104054,0.10764453,0.28387162,0.010912856,0.040789697,-0.08145711,0.3628723,0.01855135,-0.5434883,-0.051960804,0.13062616,0.37612206,0.3184336,-0.17621821,-0.14536272,-0.38705653,-0.23302375,0.2528307,-0.6551729,0.32768494,-0.11108879,-0.052883677,-0.050527673,0.35587028,-0.17956431,0.15334803,0.41029721,-0.04733996,-0.43611795,0.8947506,0.044791836,0.38987163,-0.68646544,0.19836107,0.4224067,0.1946148]}},{"kind":"softmax","name":"s1"}]}